14951 100
/m/027rn	-0.068435855,-0.0366623,0.050750047,0.064207025,-0.20355135,-0.07678179,-0.18315297,-0.086781844,0.06470386,0.015945733,-0.17454644,-0.057516243,0.14682205,0.09937711,-0.031893525,0.031193484,-0.09180094,0.069991864,-0.12416286,0.100058086,-0.14203638,-0.057227638,0.19785038,0.04167888,0.13366336,-0.018650498,-0.042920195,-0.14176658,0.07692871,0.10954396,0.14357606,-0.21070935,-0.15565409,0.1030092,0.03873781,-0.06874897,0.1606147,0.02910727,0.16364402,-0.034087475,-0.14577676,-0.038755383,0.12140381,-0.14130898,-0.077977195,-0.10723889,-0.080168724,0.06231038,-0.053532276,0.12637785,0.013293245,-0.13078633,-0.1138233,-0.036875065,-0.060361605,-0.12331999,-0.025399435,0.018864196,0.018395696,-0.052829284,-0.15892223,0.071894586,0.010280637,0.1160572,-0.009193976,0.067150906,0.025881164,-0.021825973,-0.02835032,-0.081441134,-0.13739735,-0.015802346,0.008646567,0.042955022,-0.0977767,-0.045617633,-0.0029115905,-0.1046791,-0.019451592,0.051673867,0.08242268,0.1325401,-0.10963639,-0.08071351,0.20376618,-0.20068383,0.030618005,-0.21138309,-0.0054219924,-0.09559131,-0.026113823,0.14983734,0.006218956,-0.16307366,0.14094791,-0.003202123,-0.059115242,0.030306937,0.0636411,0.16505174
/m/017dcd	0.0522091,-0.0976833,-0.06730461,-0.024680771,-0.035285246,0.107465394,-0.00046157945,-0.022755364,-0.09650818,-0.060137156,-0.10073653,-0.2165234,0.08697493,-0.075595245,0.0046053925,-0.202959,-0.13924472,-0.0009011325,-0.09609721,-0.09273495,-0.21498668,0.03900196,0.031765435,-0.020124795,-0.014578315,0.0887983,-0.016289756,0.0085393945,0.14690147,-0.035794504,0.006120429,0.17004074,0.055015825,-0.05935803,0.28929752,-0.041324068,0.08620664,0.037416518,-0.036395956,0.12694459,0.013886359,-0.037028864,0.04308487,-0.010675414,-0.11290848,0.05850778,-0.04645825,-0.05451765,-0.10437392,-0.09491906,0.006741974,0.021103257,-0.13762729,-0.17608427,0.040185954,0.007875372,0.19192012,0.05153617,0.0992659,0.02481118,0.11974615,-0.044733025,0.13743705,-0.005577529,-0.14642401,0.16455886,-0.12913547,0.12297669,0.057943657,-0.031984877,0.024141164,0.14812306,0.03534428,-0.17075145,0.024092672,0.11132912,0.10339469,0.11809706,-0.06516662,0.07169741,-0.009884272,0.17337582,-0.05570621,-0.11728552,-0.057559554,0.044543505,0.13884956,-0.028811418,0.025403155,-0.09619724,-0.03301012,-0.16551235,-0.049159735,-0.1005679,-0.25868723,-0.03499107,-0.071038716,-0.07532946,0.06704868,0.08112591
/m/07s9rl0	0.010062723,0.17528822,0.25575,-0.1732547,0.044775918,0.19785717,-0.13958168,0.11804936,-0.01784864,-0.020895611,-0.1539442,-0.17695186,0.03733246,-0.11395139,-0.04329423,-0.15540439,0.07653593,-0.11162726,-0.0044978624,-0.027676456,-0.078501776,-0.1775039,-0.048828255,0.039469533,-0.102211565,0.15729208,-0.065099426,0.07279952,-0.057051297,0.038922645,-0.057136226,-0.042307302,-0.13493168,-0.01304116,-0.082112804,-0.063890174,0.13289182,-0.065523006,-0.024402786,-0.039785072,0.0032953834,0.17936786,0.11453682,-0.11976244,0.023291951,-0.007617841,0.05563902,-0.00036169356,-0.17288198,-0.11107594,0.005211091,-0.06564032,-0.17993338,0.100697376,0.10392718,0.06738681,0.13828813,-0.17027123,0.13746262,-0.07374219,-0.05921174,-0.11286157,-0.09082721,-0.16381474,0.07590342,0.10651755,0.11573809,-0.12687945,0.010608849,-0.17706868,0.023303835,-0.034386415,0.08693698,0.12575863,-0.058894843,0.067256756,0.10640874,0.01677918,0.04410737,-0.013880486,-0.084400035,-0.098795444,-0.031407714,0.15783054,-0.025188398,-0.04204511,0.021970436,0.12484699,0.07026933,0.21351309,-0.0011920417,0.06001436,-0.10345357,0.047505014,-0.10823659,0.10021361,0.056013126,-0.05407855,0.071786344,0.10082365
/m/01sl1q	0.02675451,0.07109639,0.13698368,-0.15305282,0.077038415,-0.065492876,-0.05619434,-0.03273184,-0.0027057314,0.06533122,0.058615953,-0.1669017,-0.035369467,-0.0015622927,0.0026875352,-0.099685565,0.15220162,-0.12513725,-0.18152906,-0.027238527,0.009401737,-0.09732758,0.038499616,0.06584462,0.10950904,0.14465566,0.029742073,0.0379224,0.084099956,0.108253196,0.07401877,0.11571599,-0.0948998,-0.14896297,-0.019991484,0.11908007,-0.044391982,-0.22416925,0.010403872,0.0065078866,0.042105474,0.058924202,-0.032979447,0.029056018,0.060587525,-0.022132564,0.08563911,-0.06616727,0.008299155,0.022641018,-0.03211906,0.03938733,0.008095676,0.08840927,-0.060848933,0.032190997,0.015673388,-0.040729024,-0.007945348,-0.17267692,-0.027356543,0.11181872,-0.04547632,0.2097596,0.0572926,-0.02505134,0.098135725,-0.027552955,-0.15278113,0.044055723,-0.030700425,-0.007847281,0.015651431,-0.04349288,0.07184866,0.04824768,-0.09879825,-0.2246968,-0.09514938,0.10047473,0.2519975,-0.070711635,-0.01184574,0.012956502,-0.12397166,0.061895065,-0.15891117,-0.13183701,0.17107575,0.014468027,-0.0521165,0.050929278,0.2594007,-0.0029691393,0.022469502,-0.04743156,0.10526564,-0.06412658,-0.057558294,-0.108737655
/m/0cnk2q	0.056624856,0.042591553,-0.16709119,-0.019018134,-0.05431675,-0.1196515,0.07061728,-0.11874868,0.007529333,0.006207275,0.12866034,-0.023803981,-0.10267307,0.05562377,0.12092785,0.10378414,0.00079541514,0.015575094,-0.0060007838,0.18627337,0.013165855,-0.1216725,0.0763778,-0.077250995,-0.13787116,-0.12633158,0.16197333,0.06386915,-0.17191327,0.0278535,-0.03483811,-0.044312917,-0.17523873,-0.06653808,-0.08879943,0.011261784,0.0024235127,-0.022764638,0.07977337,0.017216131,0.07565078,0.05694256,0.033662755,-0.090255514,-0.016606158,0.06909494,0.028995968,0.10138409,-0.06788403,0.16426793,-0.19866818,0.055175804,0.063021116,0.112441644,-0.051610917,-0.0034829634,0.0145334145,-0.2558277,0.23074713,0.053666525,0.010381484,-0.004745428,0.0065120766,-0.0047448906,0.090770565,0.029686084,0.17798382,-0.068370104,-0.20845737,-0.008721007,-0.06160199,-0.027566142,-0.015466268,-0.086564906,0.08602466,-0.029556055,-0.049741507,-0.07772369,-0.064388976,-0.02686099,-0.005044607,-0.015500221,-0.07596948,0.06831018,-0.0474748,-0.058326405,-0.008429258,0.115457594,0.14587764,0.035232313,-0.07200272,0.096011005,-0.1952039,-0.11102346,0.17270829,0.10252542,0.017246107,0.107913345,-0.13554265,-0.031205082
/m/02_j1w	0.09332208,-0.21904704,-0.1628855,-0.011822065,-0.050364725,0.038719665,0.11717713,0.030159067,-0.09870592,-0.018140968,0.15304933,-0.046894174,0.15282318,-0.08682863,0.044726867,0.060918055,-0.094317615,0.1565958,0.12456151,0.12526752,0.15409887,-0.0975967,-0.0058550355,0.07503318,0.014459584,0.054528654,-0.027395682,0.094704114,0.061548393,0.0132831875,0.17212054,-0.094008446,-0.0478768,-0.14336646,-0.044479378,0.06434715,0.1368398,-0.0916456,0.027647324,0.14832209,-0.08624038,-0.17870195,-0.08932115,0.051934887,-0.046421826,-0.20694521,0.040034823,-0.016522635,-0.042855553,0.059354167,0.079470426,-0.03414653,0.014149072,-0.11484524,0.19280013,-0.057911165,0.03586596,-0.06808423,0.045635223,0.056810416,0.031294093,0.06150693,-0.17461318,-0.19426948,-0.082288384,0.06826711,-0.071006656,0.12691733,-0.16845539,0.17993361,0.028333496,-0.08060411,-0.09189534,0.063292414,-0.013368085,-0.05803517,0.18383485,-0.05575914,0.17824887,0.011569499,-0.11590517,-0.08107334,-0.032358464,-0.107226275,0.11698612,0.116636336,-0.029246563,0.18534751,0.019025642,0.10270906,-0.16508013,0.09707047,0.007770374,-0.063412294,0.027454102,-0.055993475,-0.07554053,-0.07169691,-0.008737705,-0.01301373
/m/059ts	0.2749551,-0.14237967,-0.02941931,0.13651094,0.109530754,-0.015464766,0.1725684,0.10315658,-0.071728714,0.059012253,-0.0068771127,-0.041370526,-0.049245823,-0.055363074,-0.06386613,0.15844844,-0.13690384,0.05503657,-0.14541143,0.15958326,0.031902038,-0.17384551,0.13822159,0.048629254,-0.12596716,0.18683411,-0.11411683,0.13831884,-0.045157447,-0.007003003,-0.12948719,0.081397034,0.1840885,0.07407886,0.15310194,0.07457317,0.07468333,0.1383551,-0.122153796,0.15920903,0.033500742,-0.038277663,0.03598323,0.011578713,-0.082704596,-0.05362723,0.03718295,0.016184604,0.058436118,0.10532754,0.01728128,-0.023206202,-0.002478948,-0.011644415,-0.09680203,0.052179478,-0.1322482,-0.04739721,-0.01532526,-0.16727765,0.09133394,-0.058511883,-0.13391995,-0.003550594,-0.042685572,-0.18950523,0.05771323,0.011052685,-0.03727902,-0.03748452,0.074709006,-0.094950266,0.054194983,-0.16473229,0.026364436,-0.068207756,-0.031933755,0.12002878,0.008762048,0.075726725,0.15866944,0.159567,0.07325687,0.030267121,0.13362226,0.005172808,0.16160807,-0.10486526,0.11275921,-0.11476103,0.031326674,0.090458795,0.06935001,-0.0049160095,0.013235895,-0.11886157,-0.058073707,0.10847565,-0.046258446,0.069254085
/m/011yn5	-0.014148401,-0.20499939,0.079354465,0.04010486,-0.018266186,0.06942277,0.088143416,0.10371628,0.024959616,0.013256263,0.08123559,-0.04054576,0.14821398,-0.0477771,0.12921713,0.04315061,0.11285198,-0.018083263,-0.099018924,0.033842843,0.10698344,0.010515631,0.2214911,-0.056498095,0.07342876,-0.06150502,-0.0640665,-0.08873854,-0.094292775,0.08685191,-0.09067685,0.034024693,-0.0009170468,-0.13021745,0.015997384,0.103262,0.014056975,-0.012711335,-0.059693422,0.08774237,0.05737192,0.044097673,0.112219945,-0.11307767,-0.25783575,0.11409565,0.13307786,-0.12148666,-0.048341576,-0.02465612,-0.007343675,0.039554223,0.043930877,0.02035955,-0.064563595,0.103729725,0.10199752,-0.1607162,-0.009267329,-0.069073886,0.09543376,-0.07177712,0.031798143,-0.21337405,0.1670824,-0.053146902,-0.00084403576,0.09691066,0.00460876,0.116772205,-0.118855536,0.014080444,-0.009931563,-0.099945195,0.058717646,0.04940859,-0.037542157,0.17791337,0.13150175,-0.032191254,-0.098928615,0.009108608,0.20951767,-0.107541434,0.1575968,-0.065251164,0.07073744,-0.0794301,-0.08406159,-0.07740796,0.13735187,0.047625024,0.09315635,-0.0788784,0.04760153,0.074403614,-0.034023896,-0.00089176744,-0.01714898,-0.11487055
/m/04nrcg	-0.09086523,-0.034360662,-0.040718503,0.15345311,0.034283414,-0.13115263,0.011729674,-0.13094236,0.0038259388,-0.10176217,-0.043207362,0.13144517,-0.10871106,-0.1193665,-0.043628585,-0.032136634,0.10957087,-0.012025547,0.0328467,0.1093455,0.17117086,-0.09440206,0.10192609,-0.09478966,-0.039788816,-0.017583406,0.06459991,-0.06618242,-0.07550136,0.040399153,-0.025899552,-0.15936683,0.1265297,-0.030306922,0.07443831,0.018531429,-0.09182689,-0.1259115,-0.24870738,0.103524394,0.16761982,0.001870726,0.012529355,-0.007712739,0.00652162,-0.012641806,-0.17420556,0.15041506,-0.23274866,-0.11341467,-0.14830816,0.030726304,0.0869863,-0.026084203,0.0057231276,0.06738755,0.008019998,0.09577591,0.048740383,-0.09136386,0.07235071,0.0755712,-0.12252241,-0.06900022,-0.12636326,0.07395703,0.093105115,-0.060894463,0.026274694,-0.088181674,-0.013642539,-0.018942477,-0.069480136,0.086996906,0.11849315,0.034962405,0.13537644,-0.06454511,0.017787233,-0.03316226,-0.22070426,0.10646158,-0.100160696,-0.06754189,-0.13266629,-0.04616581,-0.22308345,-0.12705939,0.09266135,0.13478518,-0.14022554,0.09099236,-0.19711554,-0.0882996,0.114091754,0.07789438,0.0463742,0.06154399,0.074944094,0.057142466
/m/07nznf	0.0045564664,-0.0011359304,0.073994964,0.04521623,0.08890268,-0.028107816,-0.23522086,-0.0065471916,-0.026035974,-0.003178135,-0.11825201,-0.03130566,0.021737065,0.020659896,0.03441187,-0.049410366,-0.06389069,0.10552686,0.16981998,0.06912933,0.10387472,-0.09855502,0.027029186,0.14036097,-0.03669623,-0.46443546,-0.12457529,0.02844021,0.11082813,0.058623202,0.09079869,0.07595846,-0.09635127,-0.073645145,-0.029742835,-0.039441958,0.16313279,-0.079182595,0.06436314,-0.16218957,0.07806528,-0.018534232,0.06659039,-0.17013703,0.02288876,0.017508632,0.010765616,-0.018871263,-0.054160617,0.09862944,0.024819542,0.121098176,0.08586394,-0.11577592,-0.09138691,0.028488893,0.107096605,0.021253338,-0.12358669,0.016907983,-0.06541735,0.12191975,0.057755228,-0.028835718,-0.07193809,0.019685963,0.13027473,-0.008481419,-0.0133091835,0.21921314,-0.15485314,-0.06868455,-0.013289988,0.0359297,-0.036375385,0.005144898,0.038563356,0.13950431,-0.051637158,0.1355532,-0.17011313,0.059231028,0.03516381,-0.00062026596,-0.20888694,0.07499596,-0.06505636,0.013030448,-0.08377762,-0.05667585,0.09320214,-0.095600024,0.0063349004,0.0004356485,-0.027707074,-0.08440308,-0.018122056,-0.22823916,0.048414648,-0.037587985
/m/05cvgl	0.13532485,-0.017852793,0.040170014,-0.042683266,-0.055987015,0.012597344,-0.09997229,-0.061479952,-0.09468382,-0.13038813,-0.1675297,-0.13539378,-0.1200184,0.07772455,0.1717025,-0.031265445,0.17559472,-0.119125105,-0.020468544,-0.085068844,0.227239,0.10106577,0.06675796,-0.07596533,0.315591,-0.0317,-0.11922654,0.055514544,-0.26971537,-0.0911918,-0.031081405,0.095931314,0.0018412792,0.10227124,0.026433505,-0.12387088,0.012474353,-0.040810496,-0.09014157,-0.037528913,0.04602699,0.14762777,0.015153062,0.120593496,-0.02418938,-0.06700215,-0.014799927,0.056867424,0.081753686,0.09377344,0.12518777,0.015411798,-0.1769837,-0.07314001,0.08248116,-0.05892203,-0.04200431,0.022092732,-0.023282679,-0.06361838,0.08139214,0.09126999,0.009799415,-0.06254844,-0.09094315,0.0030140716,-0.022934627,-0.11765855,-0.14880727,-0.090586275,0.066249646,0.09278191,0.14113854,0.040384024,-0.06956666,0.17254983,-0.21670741,-0.07124258,0.001814515,-0.19459982,0.09723481,0.18165475,0.0037803934,-0.036416084,-0.022416487,-0.027363159,-0.06018167,-0.011160757,-0.0903517,0.07750061,0.044596158,-0.008048723,-0.051048975,-0.113190204,-0.13021465,0.0043366975,0.014128892,0.03930484,0.00015832159,0.057209156
/m/02qyp19	-0.04175517,-0.036620628,-0.18491472,-0.1460718,-0.036291063,0.11903294,-0.094616346,-0.117621854,0.14645338,-0.0656574,0.10514004,-0.080599144,-0.1899152,-0.04869413,-0.0213941,-0.07889381,-0.10585592,0.03712137,0.0074091004,0.14235142,-0.18045464,-0.10908135,-0.21986735,0.033337474,0.14177456,-0.036050066,0.109046,-0.14963976,0.009397037,-0.18189077,-0.0149905095,-0.14594275,0.12183653,0.17046876,0.17315704,-0.098469004,0.07569422,-0.042703647,-0.0052109356,0.26147988,-0.07835018,-0.091632344,0.009466875,-0.0430797,-0.12461404,-0.019258006,0.05370038,0.03633025,0.1120524,0.043683495,-0.17354289,-0.044129226,0.10839994,0.003978744,-0.016450973,-0.11050457,-0.028959233,0.0010481915,0.106101714,-0.11003882,-0.11185069,0.10666697,0.090398446,-0.019756014,0.03635522,0.0013473164,-0.026268106,-0.034655858,0.023942642,-0.056353882,0.1512111,0.10290331,0.13265069,-0.022028362,-0.063588716,0.093659475,0.04257877,0.14635935,-0.102293245,0.061125267,-0.02355392,0.087626874,-0.09282115,0.12457764,0.010265769,0.1276479,0.034532167,0.06363597,0.12456039,-0.18257716,-0.04860429,-0.08740271,0.0008251037,0.10983755,-0.08598008,0.01927426,0.01740934,0.07302668,-0.087084435,0.123154245
/m/02vk52z	0.09327256,-0.04302918,0.14714809,0.13839209,-0.118125625,0.09332698,-0.028245147,-0.10359151,-0.1818356,-0.09748037,-0.11626402,-0.14366311,-0.020746557,-0.12939428,-0.05220971,0.07927047,-0.091343686,0.112724796,-0.031674016,-0.059775967,-0.1593733,0.0038460162,0.10450756,-0.05958544,0.0068243304,0.09512957,-0.044226956,-0.1573955,-0.06575771,0.012553415,0.036060903,-0.14798582,0.017629327,0.056573853,-0.059496235,-0.24060903,-0.07709876,-0.018581057,4.7388137e-05,0.00011618668,-0.092536755,-0.003064635,0.16050695,-0.061145615,0.11546671,0.047744054,0.075686105,-0.059137847,0.1302996,-0.034013964,-0.118617035,-0.14496115,0.14694758,-0.08785153,-0.053654116,-0.13117889,-0.16090891,0.053243123,-0.031473376,-0.026921058,-0.087737165,-0.08233372,0.012502065,-0.09524536,0.14737643,-0.06164708,0.15060708,-0.03822607,0.15768632,0.11543551,-0.19191882,-0.15314344,0.034773357,-0.041454777,-0.15886132,-0.15521581,-0.09016792,0.06620501,0.11837412,0.041144058,0.10759036,-0.07338803,-0.08627802,-0.028197363,0.059895504,-0.019734753,-0.15601479,0.08665515,-0.2283372,-0.008421693,-0.051836327,-0.12077969,0.13887827,0.085088424,0.028845333,0.12628227,0.15282236,0.01808409,-0.03260227,0.01905052
/m/0q9kd	-0.2558463,0.010242296,-0.086064,-0.14961463,0.049597234,-0.11685938,-0.024497993,-0.11348758,0.16146497,0.055819277,0.15806155,-0.06257623,0.24436031,0.118449524,-0.017289916,-0.0069789332,0.13402194,0.056339696,-0.025898375,0.13378923,-0.06406561,0.011551628,-0.16685954,0.14683485,-0.07288259,0.059950713,0.14743511,-0.033831537,0.10283287,0.09297714,-0.041324306,-0.15028615,0.07664127,-0.14694086,-0.035694998,0.06553327,-0.0052035544,0.033326402,-0.12324826,0.10407057,-0.13274853,-0.1652182,-0.052912384,-0.07981132,-0.098975115,-0.052339137,0.06608039,0.12753019,0.051985122,0.062455904,0.23986861,-0.030174019,0.066977,0.09432243,0.046428364,-0.08422191,-0.05922965,-0.044082157,-0.02602503,0.06687182,0.04149696,-0.015723635,-0.05402987,-0.17670894,-0.029878248,0.114057705,-0.14179888,0.03564418,0.00026726,0.07330063,-0.048681717,-0.22324425,-0.044455584,0.06191539,-0.005644764,-0.018572856,0.13756417,-0.082326405,-0.033863705,-0.027021663,0.06299309,0.09688715,-0.1653739,0.110066384,0.071522966,-0.2107373,0.042307157,-0.11335599,-0.15216424,0.18804307,-0.040150154,-0.045162525,0.11369603,-0.053740084,-0.12236871,0.050511673,0.06914159,0.00862678,0.014581992,0.034954995
/m/09w1n	-0.07431003,-0.007809775,-0.025372125,-0.14573827,0.0042582927,0.034460206,-0.017799564,0.05738049,0.09034417,0.07897553,0.018777018,0.13175468,-0.22093034,0.031952415,0.0010811554,-0.07872738,-0.06558276,0.017132685,-0.027817128,-0.07556527,0.022659484,0.1051169,0.074292935,0.059146114,-0.05214376,-0.059490025,-0.041641317,0.007893088,-0.095585436,0.18509011,0.07014387,-0.012671961,0.0075518936,0.046919193,0.094902225,-0.19264936,-0.1339341,0.1089144,-0.01013536,-0.06949096,-0.041289378,0.10105443,-0.013576755,0.034073055,0.025073567,-0.037042808,0.05944868,0.0022863226,-0.08202575,-0.026035033,-0.09303049,-0.117741086,-0.028147247,-0.09542097,0.00020385277,-0.007998767,-0.06327703,0.11780795,0.08697053,0.056570902,0.012041374,0.03880154,-0.052754253,-0.2019947,-0.03356096,0.16222961,-0.08081642,0.014309821,0.16114318,-0.07068648,0.012138917,0.014897711,-0.16115583,-0.02109219,-0.009340506,0.038436767,-0.1121058,0.0055037374,-0.13923694,-0.050476547,0.054564834,0.1370139,-0.0031648546,-0.027299587,-0.09812453,-0.082707115,-0.0776337,-0.10265816,0.045514017,-0.06818714,0.25285208,0.111897185,0.14559682,0.022423435,-0.019875655,-0.12276906,-0.13069303,-0.07523339,0.2074062,-0.08737497
/m/03q5t	-0.0002859868,-0.11704981,0.12578063,0.13114192,-0.049935058,-0.15729922,-0.02423276,0.015884394,-0.022563878,0.17133254,0.029788151,-0.04364641,-0.14918351,-0.12497749,0.08956677,0.03355206,0.19903663,0.15080842,-0.12305606,0.27820736,-0.02110088,0.13688669,-0.14704125,-0.019312102,0.04333867,0.028810667,-0.06057565,-0.01322669,-0.023353409,-0.07283604,0.004009096,-0.15427816,-0.074490786,-0.012851628,-0.11613105,0.029697137,-0.0060593286,-0.11896311,-0.06921239,-0.105212,0.08108338,-0.10532069,-0.083677925,-0.16396709,-0.011849631,-0.03308427,0.04750435,0.07351731,-0.03557764,-0.10570015,0.0928695,0.051459026,-0.031503625,-0.055215973,0.062245153,-0.12301808,0.011125559,-0.045533348,0.06793212,-0.06127435,-0.054741334,-0.06160212,-0.102200136,-0.0363911,-0.03528858,0.070080675,-0.061670296,-0.05941071,0.045719735,0.19537523,-0.15288508,-0.050699208,-0.013433646,0.054380123,-0.20257631,0.021321336,-0.0495076,0.12413077,-0.022029815,-0.07114845,-0.12920047,0.06212745,0.07398392,-0.020008702,-0.06787197,0.18224566,0.0022741735,-0.021350428,-0.07720358,-0.14931504,-0.22017701,-0.19849494,-0.051406812,0.00913044,0.066623546,0.05377045,-0.14159931,0.0060725175,-0.033657968,-0.066893816
/m/0gqng	-0.06283865,0.06518653,-0.023632178,-0.040545475,-0.11525886,-0.02775984,-0.08418729,-0.103889786,-0.079607055,-0.03801175,0.03454541,-0.064476036,0.068920486,0.045263205,-0.14375629,-0.09343186,0.07439902,0.061161283,-0.0055885282,-0.16713716,-0.24124205,-0.12934896,0.0048837974,-0.025605258,0.12858687,-0.12568307,-0.12231806,0.1612773,0.010422192,-0.008330377,0.0204881,0.025902227,-0.12575784,0.16900057,0.12331797,0.105795875,-0.024717845,0.033867758,-0.13644564,-0.067822605,0.067195594,0.10274717,0.069926575,0.091853455,0.062785864,-0.103567965,0.07616892,0.1458814,-0.10737506,-0.03482382,0.068341926,-0.0622732,-0.013069327,0.1216041,0.07583696,-0.07940043,-0.091715865,0.0560321,0.12096954,0.17291813,0.05029658,-0.21593103,0.13946825,-0.19532956,-0.15666953,-0.13037327,0.06967297,-0.07713465,0.010666784,-0.1974958,-0.0005528487,-0.035324622,-0.13319448,0.03447409,0.091466464,0.10078081,0.11475129,0.031270128,-0.04550772,-0.12939012,-0.12511013,0.2059599,0.030269805,0.03996715,-0.058482524,0.0036322002,-0.034139164,0.052212503,-0.03273479,-0.0716815,0.015109361,-0.21330747,-0.10054418,-0.02526704,-0.073736474,0.16032818,0.050469868,-0.10331891,-0.055072777,0.052383356
/m/0b76d_m	-0.009062526,-0.18432362,0.0040338016,0.07747715,0.054807145,-0.09209377,0.026218548,-0.035054516,-0.0133103635,-0.23985028,-0.1462667,-0.09727202,-0.08057095,-0.010750951,-0.0764184,-0.033145122,-0.03667011,-0.009705868,0.04624697,-0.0076494,-0.19265972,0.0011533507,0.008940371,0.056166098,-0.10217303,0.011094923,-0.023201155,-0.032234285,0.030995531,-0.044462003,0.1636774,0.14847481,0.02305792,-0.16047403,-0.056844953,0.037437726,-0.02846969,-0.12610134,0.18734379,-0.2060808,0.04261776,0.095720954,0.012477984,0.12457428,0.02964177,0.0019290235,-0.19034982,0.009356398,0.08579323,-0.14220189,0.038394928,-0.24798827,0.06596013,0.04125295,0.05665897,0.10919566,0.16580944,0.043048974,-0.022945087,-0.049378023,-0.11290155,-0.011602157,0.0031679103,0.061847787,0.06006439,0.034211744,-0.22140141,0.0015858894,-0.12783235,-0.07995993,0.029706072,0.014042666,-0.009987489,-0.28406593,-0.001762109,-0.010197187,0.20230135,-0.025804477,-0.14248335,-0.028221888,-0.012963521,-0.027095772,-0.088824295,0.16232795,-0.003827337,-0.06143937,-0.10885195,-0.022703534,0.22815263,-0.018358357,-0.017461006,0.073667906,0.13863225,0.09222212,-0.1417446,-0.0018111363,-0.042892277,0.04406001,0.06204256,-0.024945108
/m/04ztj	0.057621125,-0.08412391,-0.07225464,0.071480975,-0.103536904,-0.07472828,0.048165407,-0.023752205,-0.057320133,-0.09906864,0.09291116,-0.069314174,0.082457416,0.012403005,-0.029004771,-0.014605937,0.06865675,0.060936615,0.18390062,0.07672378,-0.045442767,0.06399462,-0.19759138,0.14897119,-0.11601026,0.08855678,-0.11402345,-0.07219811,0.10156328,-0.12763363,0.09764383,0.085011244,-0.0654884,0.11322032,0.0077155298,-0.10623237,-0.10723964,-0.17832245,0.079177,-0.004588842,-0.17220668,0.12385219,-0.11700496,-0.20860824,-0.12012644,-0.04538733,0.10039952,0.09848274,0.055528183,-0.10190164,0.06856258,-0.14920735,0.04015556,0.048224732,0.14094247,0.14863302,0.029061368,0.034827795,0.013706501,-0.16666286,0.03806173,0.119518906,0.007698164,-0.03329164,-0.13182692,-0.14762038,-0.041601706,0.15023881,0.15340117,-0.07665832,0.089355975,-0.09232178,-0.10241938,-0.10069246,-0.06583306,0.19644175,0.019555986,-0.05238046,-0.011966465,-0.013173343,0.052981924,0.08877971,-0.14648527,-0.09040141,-0.0015726839,-0.24842104,-0.013213975,-0.035311352,0.12512404,-0.041957494,0.061532613,0.04896951,-0.04626731,-0.018967014,0.07944061,-0.22915836,0.10638235,-0.0016545805,0.1324546,-0.17485508
/m/014_x2	0.09252084,0.017800786,-0.035658967,-0.09577093,0.18199304,0.09673702,-0.0599442,-0.21051587,-0.11862989,-0.19581108,0.050492004,0.017260466,0.0693598,0.06899929,0.20592685,-0.013746399,-0.045381796,-0.0062299343,0.22882678,-0.16540346,0.019681184,-0.021909874,-0.04953774,-0.13468668,-0.06167707,-0.037582256,0.07308747,0.03157373,0.028760986,0.09866335,0.0061762156,0.018106664,-0.012990664,0.05346259,0.00033114525,-0.061173975,0.010221342,-0.08123197,0.026360236,-0.1101933,0.16329408,-0.20292136,-0.19994333,-0.109531336,-0.06582277,-0.050699122,-0.15953994,0.09735126,0.061289772,-0.14557013,-0.0136016365,-0.02021575,0.024099234,-0.090601526,-0.037414514,0.06483684,-0.044618394,-0.033876106,0.2043585,0.031128136,-0.12154637,-0.0036642507,0.09115071,0.009561996,-0.041125268,0.0041483254,-0.1034108,-0.022720285,-0.2205938,0.035468157,-0.10426138,0.1430238,0.06068701,-0.102853306,0.016798178,-0.27449363,-0.021196282,0.020817155,-0.09708803,-0.09205398,-0.08104265,0.034218922,-0.13733831,0.011493933,-0.044665925,0.025299631,0.12740517,-0.06852551,0.042086653,-0.14061245,0.13315482,0.06566636,0.03565063,0.091142036,0.07292336,0.021235399,0.21146667,-0.108546704,0.04086153,-0.0060671023
/m/0ds35l9	-0.07009306,-0.0118604805,-0.055210307,-0.14836723,-0.095167786,0.016446024,-0.08326347,0.05880815,0.050791454,0.14788993,-0.035726964,-0.13445008,-0.03405769,-0.16568458,-0.040688466,0.106860064,0.008989068,0.02708877,-0.004526402,0.10602022,0.21384317,-0.12611249,-0.100378536,-0.01644433,-0.045242693,-0.061574392,0.16549316,-0.0016136549,-0.18568558,-0.2080165,-0.08468571,0.031852778,0.14403298,0.013823937,-0.037480257,0.0058980286,0.04841823,0.09744901,-0.0044690804,0.019598713,0.09231603,0.0825593,-0.0010519642,0.07617973,-0.21800756,-0.025600666,-0.15220642,-0.08036052,-0.117997386,-0.099033035,-0.026135031,-0.01835649,0.0047891396,-0.2721314,-0.08902997,0.0017269715,-0.13421234,-0.018966114,0.16519082,0.035607573,0.060036495,0.0016739613,0.058681857,0.26908457,-0.05328181,0.057503447,0.0156186605,-0.040466398,0.20637426,-0.14043374,0.036038216,-0.06902986,0.01534892,0.0014038043,-0.08285984,0.035104465,-0.13522625,0.12675446,0.009292158,0.018280225,0.13426037,0.05060053,-0.18229593,-0.09009473,-0.034658547,-0.1519604,0.08548304,0.1428865,-0.009420678,0.10873634,0.0056419997,-0.02741483,-0.02113352,0.16237064,0.01384517,0.09720504,0.06894275,0.07419992,-0.02072431,0.03796227
/m/015qsq	0.16320519,-0.03760275,-0.038425174,-0.07169146,-0.11112862,0.05247563,0.025185721,-0.020734945,0.12521845,-0.04377064,0.16419682,-0.0092864325,-0.1356216,-0.15965638,0.047255352,0.11130497,0.09208406,0.20894834,-0.057506934,0.0600551,-0.026889635,0.030045658,0.0104730865,-0.11126867,0.10882267,0.014363167,-0.08347334,-0.07115529,0.015374787,-0.015952483,0.010265151,-0.05834391,0.112796925,0.108807564,0.1807973,0.09126948,0.07216167,-0.101582885,0.1662469,-0.010655084,-0.07639716,-0.28870237,0.08049301,-0.067429654,0.033491556,0.19940144,0.10528389,-0.0558002,0.076337025,-0.109986864,0.012466188,-0.091047674,0.034131303,-0.031046575,-0.24311149,-0.01799283,-0.16389918,-0.047694944,0.043413945,-0.23236361,0.09178335,-0.09843233,0.0006776142,0.12805273,-0.014908996,0.011583086,0.05123017,-0.019669078,0.0825645,-0.050200995,0.02573102,0.16128978,0.18991464,-0.1888705,-0.12639165,0.03044918,-0.0707633,-0.04912797,-0.0154933585,-0.040314607,-0.084851325,-0.15126486,-0.01523055,0.013310508,0.0044047316,-0.22243086,-0.004759064,0.028185142,-0.06559891,-0.029693026,0.03333229,-0.16171817,0.050825354,-0.011628177,-0.06673069,0.12035234,-0.022566088,0.020110426,0.0059499075,0.0016815247
/m/04bdxl	-0.0022135503,-0.1676716,-0.18861972,0.047760185,0.0069853654,-0.00041583274,0.033250272,-0.16041242,-0.12545261,0.096398264,0.050288267,-0.105093606,0.16869727,0.029309748,0.05952502,0.0121967625,-0.14297359,-0.1622807,0.023793764,0.15021044,0.012852503,0.06354845,0.05316076,-0.044211596,-0.1186344,-0.06754404,0.025060318,-0.08143462,-0.17010438,0.038324296,0.10726485,0.1481535,0.08911806,-0.08449577,-0.07251897,0.008768015,0.09579209,-0.05988705,-0.06653909,-0.118557535,0.1367505,0.082048565,0.047284093,0.06394105,0.02161272,0.11172868,0.11261673,0.020512136,0.1363824,-0.15895677,-0.06370049,-0.061226394,-0.12541011,0.079686545,-0.01470919,0.07581332,0.07323381,0.01855471,0.022500664,0.17080083,-0.023895616,-0.028057903,-0.16659947,-0.017924238,-0.0019491045,-0.103278704,0.10216428,0.08890247,0.10417725,-0.039893366,-0.00446979,0.05987899,0.16177613,0.0034749843,0.056718234,0.0133266,0.016992701,0.027592931,-0.11475414,0.15208654,0.15301514,0.040917043,0.028035574,-0.17697328,-0.09530515,-0.09340747,0.019923208,0.015815195,0.16385517,0.063379765,-0.108291864,-0.1094167,0.06338442,0.0806833,0.16969962,0.018883396,-0.17705213,0.075873986,-0.042339273,0.04788015
/m/0677ng	-0.056279525,-0.23472501,-0.014292391,-0.05029542,-0.07284437,-0.13213791,0.101557136,-0.04603856,-0.020193463,-0.14645831,0.11371428,0.15548746,-0.035562735,0.11512046,0.053146236,-0.063551314,-0.063417815,-0.031774916,-0.023390025,-0.042651005,0.021892052,0.0024205577,0.17641415,0.012347816,-0.025863905,0.0641337,-0.007882873,-0.052624203,0.0823715,0.028570455,-0.12496756,0.07080252,0.10930848,0.11673893,0.08135426,-0.081042826,0.2204509,0.06344364,-0.06626927,-0.1175123,-0.17374048,0.005366341,0.0760603,0.03124325,-0.10685676,0.058994826,0.0014466438,-0.017442059,0.04161387,-0.022594403,0.07892634,0.07563836,0.13855493,-0.094713256,-0.003705665,-0.06484113,-0.17936842,-0.11120595,-0.019047247,-0.017811764,0.12369074,-0.12297585,-0.002837737,0.0500726,0.19782081,0.08064946,-0.013335985,0.10858552,0.05116646,-0.10262216,0.12860778,-0.029874844,0.0007923776,-0.06949124,0.09762604,0.0528676,-0.07861406,-0.14050035,-0.23103829,0.014899602,-0.07768642,-0.1334314,-0.0712554,-0.01657224,0.14909886,-0.14443327,0.06629904,0.027731227,-0.015124483,-0.0626767,-0.06707615,0.09020067,0.007931262,-0.07901491,-0.019461988,-0.129151,-0.07489574,0.16369216,0.059954856,-0.08383031
/m/03zj9	-0.011149415,0.056222137,-0.10244288,-0.022380164,0.10497387,-0.046059694,0.13262188,0.04787999,-0.14356153,-0.07712961,-0.15982667,0.13760595,-0.16295126,0.084624864,-0.038788944,0.06370413,-0.019546837,-0.0177414,-0.050906457,0.0026656862,0.05369711,-0.13479558,0.07144459,0.14886747,-0.21004446,-0.32441115,-0.1288522,-0.21315229,-0.21059267,0.08477933,-0.03872933,0.020009805,0.0015509357,0.035020743,0.124192774,0.08396962,-0.06771271,-0.008634262,0.014445995,0.031447902,-0.12788977,-0.026703263,-0.041126724,-0.103621826,-0.08650668,0.011867816,0.07818965,-0.023022473,-0.02623357,-0.028558725,-0.0027409694,0.0007403833,0.043267716,0.002109469,-0.06952971,0.027961656,-0.06526768,-0.013785446,-0.044582907,0.0003416224,0.021154642,-0.10797635,0.05842551,-0.044901498,0.119813986,-0.025520807,0.03749307,-0.040382862,0.047229793,-0.21849528,-0.03395394,-0.26205957,-0.1550792,0.051770795,0.08084641,-0.008176046,-0.1861728,0.1404476,-0.0026633083,0.09627913,-0.2376404,-0.14764601,-0.00091793365,-0.076012276,0.04272196,0.020712985,-0.041464396,-0.08164589,0.10835701,0.007848654,0.14827454,0.047991734,-0.11696524,-0.013751815,0.04836519,0.14640455,-0.09293742,-0.09856237,-0.10021128,0.07493903
/m/0157m	-0.08492774,-0.08866297,-0.13919015,-0.12040844,0.041389376,-0.017967805,-0.12890977,-0.088772245,0.11658097,0.011979967,0.16327994,-0.20282848,0.16495548,-0.009271378,-0.080910206,0.027474703,-0.0063981223,-0.071482524,0.038230516,-0.00255991,-0.0029325634,0.014686337,-0.036108952,-0.13069578,-0.058155034,-0.058940455,-0.0489475,0.23929109,0.068488054,-0.08673052,0.022203704,-0.020171618,-0.12543908,-0.078734055,0.03567118,0.023194848,0.051241282,0.16506943,-0.23271167,-0.09518382,-0.12018996,0.16070491,0.14972334,-0.07696091,0.014989686,0.18895283,-0.0011029355,0.017059285,0.05892873,0.051639903,-0.019751586,0.09373043,0.043457843,0.116529286,0.060847808,-0.002341718,-0.0054375534,0.13777852,-0.077872396,0.066375166,0.09868471,-0.05346645,0.11842237,-0.023613222,-0.042647053,-0.06830611,0.016057447,0.086442366,-0.007977726,-0.007990377,-0.13203438,-0.063681774,0.012909212,-0.08585735,-0.2128772,0.0024470636,-0.16674137,0.11942252,-0.0060841157,0.03599976,-0.14875443,-0.15828906,0.0831408,0.03675573,0.11203994,-0.048379533,-0.10770596,-0.013042066,0.114424214,0.072050445,-0.035394203,-0.07646804,-0.02153185,0.1532895,0.09532499,0.15557683,-0.004752138,0.00089229085,0.0028673867,-0.19916472
/m/01ky7c	-0.08132593,0.08699854,-0.07734777,0.087619014,0.18513215,0.034046788,-0.016374104,0.057426516,-0.04010818,0.19806151,-0.02050165,0.15217192,-0.056323208,-0.039945863,0.02711527,-0.15177737,-0.026603224,0.010978399,-0.07853204,0.14828372,0.054505832,0.0044324147,-0.016121615,0.15251735,-0.02613946,0.09252747,-0.17710476,-0.17260896,-0.0480824,-0.031179572,-0.051675968,-0.091090426,0.1479046,0.1021456,0.1873221,0.029879186,-0.14002901,-0.076493196,0.071071856,0.17713223,-0.021075057,-0.010420527,0.08649452,0.036130544,-0.00217045,0.15972053,-0.19578245,-0.17901106,-0.050548278,0.062261183,-0.019333005,0.042295005,0.13588564,-0.010610148,0.13522935,0.117122404,-0.16787101,-0.017459787,-0.08633123,-0.011021271,-0.03785861,0.023882903,-0.10429969,-0.07382566,0.086613886,0.060288407,-0.15172265,-0.03261145,-0.05953401,-0.020655673,-0.079910584,0.19586337,0.071480215,-0.11929177,0.08139338,-0.018901,0.019228423,0.14805283,-0.061023783,-0.03194874,0.055687957,0.06720499,0.01970338,0.033992257,0.11466774,-0.001528258,-0.025787186,-0.17463294,-0.06886974,0.062230267,0.031400647,-0.083603755,-0.014862506,-0.057256777,-0.14682816,-0.16402575,-0.0165517,-0.104935795,-0.033935737,-0.094636984
/m/02681vq	-0.035562523,0.005180232,-0.020821935,-0.1624914,-0.104431085,-0.07163986,0.0051711733,-0.044793583,0.073110506,0.065273926,0.040588807,0.02880456,-0.009910256,-0.21224482,0.15729044,-0.008521726,-0.13805065,-0.017034879,0.011340162,0.034818772,-0.13617784,0.09858616,-0.08827544,-0.09525014,-0.011815362,-0.1495533,0.014813129,0.0057066255,-0.09814967,-0.00046842778,0.041457493,0.043443855,0.1370764,0.07854204,-0.07583107,-0.0068503153,-0.24818054,-0.22022763,-0.10806812,-0.052924227,0.058443815,-0.19047926,-0.005047073,0.19015323,-0.097410336,-0.058618363,0.007902645,-0.12409264,-0.07315194,-0.14105208,-0.25665462,-0.10311451,0.1526075,-0.14258128,-0.06243081,-0.04914782,0.054303095,-0.017625164,0.033716217,0.069059655,0.07115952,0.090520605,0.021468604,-0.12212462,-0.011226507,-0.07831358,-0.12717064,0.09586099,0.23240435,-0.158295,0.06193976,-0.05688239,0.026458355,0.20732449,0.08543787,0.1627062,0.029788882,-0.060275495,0.08335082,-0.031131484,-0.044247683,0.07395008,-0.05644254,0.058789782,0.041031357,-0.18346117,0.012191104,0.037811335,0.08667617,0.06431501,0.056966335,0.16180947,-0.045634143,-0.054654405,0.13917463,0.05767233,0.1226775,-0.027540522,0.020517025,0.1565155
/m/0gx_st	-0.04727495,-0.018008614,-0.03530691,0.20712964,0.044460244,0.08121754,-0.18707605,0.08964578,-0.051041454,-0.029705845,-0.0027159206,-0.072100475,0.077623904,0.029091135,0.25496054,-0.055483766,-0.10886867,-0.09633098,-0.003915012,0.09059881,0.042001553,-0.12379967,0.009713946,0.15260716,0.029516328,0.09246392,-0.09258904,-0.061035924,0.018317873,-0.026778273,-0.19495916,0.018551582,-0.10158293,-0.11705603,0.14828114,0.09623142,0.13695757,0.14481288,0.059221126,0.05647451,0.020030353,-0.039767258,0.18055315,-0.03762481,-0.23952225,0.14165188,0.08119619,-0.04459533,-0.089457914,-0.12380819,0.123490304,0.08664109,-0.08707905,0.106951036,-0.10841619,0.04512265,0.15996732,-0.084709674,-0.0012217297,0.040493406,-0.0110132,0.015857283,0.09787207,-0.22395036,-0.06853463,-0.036881514,-0.09790643,0.090998754,0.11266384,0.10479101,0.09436922,-0.03484556,-0.06337392,-0.018901695,0.028005963,0.17914549,-0.07886277,0.10095916,0.053542525,-0.06137209,-0.042688794,-0.15584862,0.12943257,-0.120131284,-0.052892998,-0.116255164,-0.07065541,0.0046394165,0.035778,-0.11086365,-0.15272136,-0.02145172,0.030638626,0.065008506,0.08185291,-0.09478665,0.02093979,-0.06487642,0.018414311,0.19984968
/m/09c7w0	-0.03492795,0.14997175,0.22239663,-0.08025775,-0.16778764,0.042358533,0.03520967,0.0031376756,-0.023148263,-0.024046795,-0.009031905,-0.047407158,-0.0964931,-0.06382062,0.06295987,-0.19292666,-0.05290905,0.12412479,-0.13143533,-0.07863308,0.031233324,0.041362412,0.14937818,0.09201604,0.14886391,-0.07655884,-0.08300532,0.08790751,0.09292676,0.078686826,-0.05200445,0.07586816,0.0057550147,-0.0060069496,-0.02790757,0.10341863,-0.009439113,0.114270695,0.056264505,-0.036796622,-0.08342598,0.017465003,-0.087176345,0.045871846,-0.04360499,-0.12789284,0.18532333,-0.13353825,0.08998196,-0.016098922,-0.077951066,0.03089709,-0.05585097,-0.06932978,0.041595694,0.13113536,0.18727762,0.014063274,-0.07012338,-0.18295434,-0.061997224,0.05801198,0.12815689,0.02987047,-0.09367596,-0.08763397,-0.08452554,0.08577769,-0.2319479,-0.24707249,0.028175306,0.006081236,0.08331245,-0.12665631,0.004553155,0.11055002,-0.051348757,-0.029932152,-0.11578858,-0.0958198,-0.2104376,0.045481365,0.08301712,0.014315199,-0.069140375,-0.054071672,0.0934318,-0.15800382,-0.04537056,-0.06532137,-0.05604554,0.096123375,-0.0623633,-0.049236476,-0.07674398,-0.03407031,-0.03325587,-0.14195855,-0.08236273,0.0135917775
/m/079vf	0.030515598,0.072538085,0.07826212,-0.14549786,0.008177474,-0.0513359,-0.030549869,0.005998718,0.15362729,0.2947181,-0.01573626,0.0015620338,0.03892763,0.055775046,0.113336354,0.039850656,-0.11030159,-0.029804891,-0.100725144,0.10496395,-0.012741851,-0.1536515,-0.22051203,-0.066647395,-0.05384396,-0.20484096,0.04582846,-0.08138918,0.054728284,-0.05585486,-0.17820488,0.15535784,-0.036105588,0.019438967,-0.05588075,-0.036014866,0.19659944,0.04755739,-0.2894311,0.075049855,-0.034059852,-0.07418579,-0.0046873107,-0.016642727,0.17817779,0.109749995,-0.069517754,0.08559738,0.06801666,-0.01518392,-0.055781767,0.15027656,-0.030219786,0.024240417,0.11814519,0.05920327,-0.015260745,0.062298074,-0.0415746,-0.050511077,0.00789514,0.013332972,0.07874375,-0.094066,-0.044559445,-0.19270504,-0.043909263,0.0074982475,0.030663656,-0.022113657,-0.06659979,-0.09261766,0.044095892,-0.07546626,0.16340022,0.15319021,0.14734961,0.0039861626,-0.15277736,-0.119209066,0.08081467,-0.051147606,-0.074374266,0.033397496,-0.0059953053,-0.012437755,-0.075142354,-0.0036705784,0.109296456,0.072731525,-0.105592124,-0.08533753,-0.08459032,0.063439675,-0.035027254,0.021500263,0.05570575,-0.005969648,-0.13418238,-0.097581975
/m/015zyd	-0.09207473,0.13076493,0.13969356,-0.1621749,-0.07049189,-0.1289052,0.09763495,-0.14352226,0.0060613486,-0.027171541,0.11271444,-0.18912575,-0.009149807,-0.0018302157,0.16987012,0.068933755,-0.089113064,0.062440068,0.122268535,-0.027007699,-0.041135006,0.09970241,-0.12119141,0.15749215,0.033777952,0.028758902,0.042430434,-0.0687814,0.09395442,-0.05745085,0.06819248,0.0816877,0.14372146,0.18668893,0.031865135,0.09653912,-0.15149605,0.035087075,-0.11353608,0.079543486,-0.007653232,-0.18958393,-0.06593814,-0.07166057,-0.07224181,-0.24385482,0.024163924,-0.093879625,0.08568687,-0.04625077,0.06180529,0.021902101,0.07580034,0.0022044946,0.12087096,-0.051721744,0.06661836,-0.20477182,0.09307745,-0.027543532,0.17673667,-0.07442284,0.087783955,-0.27216688,0.040587556,0.03225082,-0.0115636615,0.08975546,-0.13170314,0.0047853454,-0.06741549,-0.083793215,0.1525922,0.0069820466,-0.06385965,0.07920641,-0.11035456,0.129353,0.021110456,-0.1571872,0.02087218,0.13902576,0.080966696,0.11086009,-0.07782061,0.050630182,0.06624221,0.02153294,-0.08448513,0.033668365,0.022287276,0.0063847275,0.11058539,-0.050540607,0.1392826,0.03747441,0.055056985,-0.035137672,0.109298006,0.055977095
/m/05vsxz	0.0026100099,-0.05415438,0.03578065,0.12077285,0.16428202,-0.07414872,0.08230864,-0.07399747,0.09579016,0.090336144,0.10627657,0.034318794,0.2303627,0.004347934,-0.25749865,-0.10916467,-0.01203944,0.16211818,-0.0416995,-0.17736618,-0.0043981248,0.02689054,0.051009998,-0.12659945,-0.07016212,-0.08694984,0.08694382,-0.11424146,-0.18173589,-0.08884585,-0.07028846,0.0019558752,-0.091673926,-0.022159504,-0.06466333,-0.041483138,0.07258427,-0.15197791,-0.046642162,0.035156388,0.022780692,-0.14891618,-0.03675171,0.04459098,0.1011935,-0.005768173,-0.03376353,0.09315559,-0.0004846037,-0.09301245,0.2142121,-0.038017265,0.07018885,-0.06464072,0.19170035,-0.07258263,0.030416094,0.09971088,0.19985661,-0.15806146,0.12718906,0.20019086,-0.087729216,0.14169043,0.058525085,-0.07845426,-0.003357706,-0.12234432,0.047823925,-0.07764643,0.14093201,0.1217284,0.13101722,0.059816755,0.006803971,-0.016736595,0.10265185,-0.13472323,-0.043020207,0.19046032,0.19722766,0.07743375,-0.07813206,-0.001439885,-0.023117805,-0.09226229,0.025285054,0.0559062,0.010488981,-0.0028426575,-0.14486505,-0.058596376,0.09780656,-0.0770722,0.009014607,-0.04754624,-0.03646961,-0.016637994,-0.072089344,0.04286791
/m/04ljl_l	-0.18876205,0.04433392,0.06609063,0.16136096,0.12088476,0.014198997,0.018479317,0.04513051,0.08168276,-0.026693169,0.0771043,0.007692002,-0.11713546,-0.099646054,0.109575555,0.15674575,0.051367693,0.05432055,-0.15451369,0.09763056,0.011552235,0.0642793,-0.037166923,0.07079342,0.121839054,0.1367095,-0.0041106627,0.074102804,-0.020045985,-0.11319745,0.016887506,0.019556135,-0.06289936,0.03200844,-0.016999967,0.1728681,0.110120386,-0.102147155,-0.06304485,-0.0670706,-0.039387412,0.015296115,0.01283854,-0.013668883,-0.11133801,0.029756054,-0.06485005,0.005258343,-0.10750092,0.022695916,0.12389011,-0.037727356,-0.040252168,-0.085654624,-0.024358198,0.04179922,-0.029536126,0.08788649,-0.0557992,0.16104643,0.042688563,-0.18154423,-0.107862666,-0.1555303,0.05325731,0.17656328,0.13931742,-0.028731506,0.11597074,-0.02553531,0.13856295,-0.10901228,0.103321604,0.052585974,-0.017604655,-0.18951873,-0.010888043,0.15928061,0.026286237,-0.08932416,0.03145314,-0.07245846,-0.05229664,-0.21498433,-0.0357815,-0.0050212387,-0.030578373,-0.008143514,-0.035514977,0.027587775,0.061555866,0.08420511,-0.104945116,0.018508188,-0.024563652,-0.011095097,0.1095751,0.009420574,-0.15126407,-0.033423178
/m/0grwj	-0.07595943,0.05704997,-0.12439764,-0.015809556,-0.007643355,-0.0034055093,0.035076957,0.08039088,0.16218346,0.2107734,-0.15281579,0.10692894,-0.022256637,0.0429067,0.060103133,-0.043149002,-0.13863231,0.032110635,0.017627835,-0.025026629,-0.097936675,0.078578636,-0.12826648,0.09752866,-0.07448594,-0.11401172,-0.17844121,-0.040640935,0.16607931,-0.0052685174,0.14583364,0.07192412,-0.02868694,-0.001425123,-0.018606637,0.090413615,-0.013210577,-0.00597905,-0.12074764,-0.1306536,-0.07667866,-0.23033005,0.081085235,-0.06763828,-0.059507042,-0.0978797,0.18224092,-0.08726712,0.044566028,0.11716481,0.05454668,0.16967626,0.022624621,0.11970335,0.07733471,0.08776301,0.057984315,0.2393364,0.14443865,-0.053955764,0.09908749,0.07703885,-0.092044525,-0.12544346,0.05111174,0.022482488,-0.15357424,-0.057525422,-0.039330415,0.1454406,-0.01811544,0.06663592,0.031744834,-0.056488436,-0.095916584,0.03982765,0.23370515,-0.15140012,0.10290358,0.07894188,-0.1454989,0.09892024,0.098905005,0.010942678,0.088624805,0.07249956,-0.021691017,-0.06072893,-0.06517421,-0.14184664,-0.069893315,-0.050960924,-0.09071214,0.13069224,0.09189391,-0.021337368,-0.0031175036,-0.036936928,0.038973313,-0.061315928
/m/02ynfr	-0.038316883,0.18408385,-0.13362665,-0.12185803,-0.12352822,-0.02394277,-0.081723526,-0.02221992,-0.08397875,0.0035472317,0.06638059,0.029728044,-0.07201894,0.119640775,0.116502,-0.04391827,-0.073678784,0.13427155,-0.06856312,-0.15294929,0.13767141,0.012942049,0.07532887,-0.18841094,-0.027894974,-0.030781005,0.11484645,-0.13160904,0.18257098,0.013372695,0.093060784,0.14729306,0.019503996,-0.07083071,-0.027235169,0.04761123,0.082227014,0.05526117,0.112387724,0.1078034,0.03064088,0.070571296,-0.03442186,-0.20590733,-0.034527767,0.009236123,0.19381359,-0.03858579,-0.027942287,0.13014531,0.07878692,-0.09826671,0.044970393,0.20470949,0.0983572,0.015473738,0.08520997,-0.12559098,-0.060316388,0.059089206,-0.048721824,0.16514578,-0.013911078,-0.1296705,-0.008410582,0.13363737,-0.034815148,-0.012472564,0.08673553,-0.06224202,0.2568941,0.052759554,0.12106088,-0.056096543,0.15489298,-0.0043831104,-0.1221928,-0.02408688,-0.04905486,-0.03837109,-0.06988156,-0.09772837,-0.0038292531,0.079052605,-0.16038647,-0.2313857,0.06801655,-0.10994368,0.09944371,0.14676046,-0.079785846,0.097215414,-0.18714541,0.03309047,-0.08310064,0.047080845,-0.09613383,0.03048681,-0.1405189,0.005721218
/m/018gz8	0.121987626,-0.13402894,-0.1000464,-0.03634648,-0.011489861,0.11582099,0.020623798,-0.26897734,0.112542525,0.112375446,0.07477128,-0.03926618,0.024438929,-0.10573516,-0.15566005,-0.08286096,-0.0005064972,-0.24189499,0.17559128,-0.014963605,0.20897676,-0.022163823,0.2334806,0.040372245,0.09359591,-0.00093437964,0.012426093,-0.06548758,-0.103317246,-0.018094072,0.07934088,-0.08657127,0.25887418,0.08194461,-0.015563105,0.02253761,-0.00708156,-0.24516721,0.13338281,-0.026540022,0.0074809035,-0.06729112,0.05055647,0.17701493,0.023530334,-0.04692718,0.0026928345,0.048685458,-0.065779984,0.11734051,-0.037548155,0.003005403,0.07252812,0.15471654,0.03945004,-0.08762414,0.07952346,-0.117548525,0.06178629,-0.076250955,-0.080324166,-0.10336487,-0.037678488,-0.09863174,0.014998399,0.04487091,-0.15522127,-0.065747105,0.18109867,-0.056139477,-0.12196491,-0.02081465,-0.06736758,0.13253547,0.064460896,-0.06695819,-0.015073858,-0.0047858846,0.087227546,-0.16456698,-0.079835385,0.09342041,0.16173768,-0.024151709,0.08305148,0.02369945,0.05920018,-0.007911798,0.070574775,-0.16444814,-0.102464296,-0.09532237,-0.113921285,0.053312182,0.012875384,-0.012841368,0.08693435,-0.0039737723,-0.12737255,-0.05431397
/m/02cqbx	-0.09732698,0.08351072,0.061860763,0.18671896,0.042922538,-0.13839899,0.23144083,0.045888584,-0.09478667,-0.08638055,0.12416968,-0.00034133624,0.042014275,-0.20155922,0.14797172,-0.057383206,-0.0513855,-0.04331084,0.00092582847,0.0011185582,0.016515227,0.028403752,-0.06333601,0.088397,-0.07631397,-0.09798933,0.045862548,-0.018180195,0.13515437,0.026130468,-0.050324004,0.05626441,-0.04921994,-0.03769563,-0.013561375,0.0803403,-0.116919115,0.013267663,0.072690964,0.12475792,-0.016861744,-0.13468474,0.090981424,0.21526016,0.039213218,-0.065163486,0.051184893,0.016915655,-0.023039892,0.090547875,-0.09327982,0.021591818,0.06753904,0.051959384,-0.07092806,-0.00204671,0.1616792,-0.1554005,0.12313386,0.23098178,0.008348668,-0.06549889,0.042101488,0.0056590955,0.08517452,-0.12530756,0.21283755,0.06581718,-0.21940558,-0.06140531,-0.13272421,-0.06815968,0.03862656,-0.036209367,0.06799695,-0.06473682,0.0006715371,0.065581456,-0.027668323,0.08638813,0.059338093,0.20941131,0.066037744,0.2085119,0.033726145,-0.033758648,-0.004126254,0.13440979,0.1251045,0.19150318,-0.111553974,-0.15798193,-0.03558241,0.019979132,0.07057722,0.11509849,-0.0030889248,0.23349677,-0.0873789,-0.10108812
/m/0rh6k	-0.012657041,-0.054282233,0.09486817,-0.047555678,-0.06265742,-0.06307614,0.021077083,0.035570897,0.04435871,0.010254702,0.02976857,-0.1843212,0.07633682,-0.055771425,-0.024899226,0.1129485,0.07498136,-0.07020853,0.19848882,0.058167025,0.03989162,0.10900142,0.051979262,0.030676916,0.11826488,0.07909381,0.0040668156,0.06343704,-0.07267406,-0.05692689,-0.023243947,-0.053144462,0.020225387,0.097378485,-0.01825286,0.032522567,0.09610141,0.11184261,0.03171243,-0.25769117,0.08843802,-0.018770155,0.11981581,0.034827128,0.018942676,-0.0139892725,0.0026133491,-0.1142563,-0.0744055,0.062002912,-0.07895006,0.012971768,0.061102416,0.07676706,-0.07588733,-0.018681359,-0.07810791,-0.015709713,0.11224891,-0.010076269,0.10391119,0.041119315,-0.11396219,0.09216875,-0.060752966,-0.06314,-0.088414185,0.08524125,0.060528204,-0.05754011,0.0300362,0.090875685,0.0719303,0.14164779,0.04476842,-0.13221298,-0.0714844,-0.06316696,0.039716624,-0.052698173,-0.07587241,0.10894564,0.06386209,-0.033811666,0.061620485,0.018260218,0.071441926,0.11056002,-0.004837679,-0.15176679,0.2340053,-0.00079880096,-0.008464941,-0.106888905,0.017399635,-0.07859202,-0.1099203,0.12758762,-0.050278794,0.20284715
/m/03mqtr	-0.11095218,-0.025372373,-0.11375309,0.014576423,-0.14848347,-0.16055796,0.062186982,-0.14073421,-0.1861205,0.16823836,0.043422315,0.06097716,-0.009923211,-0.08341664,-0.0804698,-0.096390344,0.030744864,0.019709677,0.11214716,-0.12920812,0.08676094,0.087544546,0.13822883,-0.010810169,0.15935637,0.08062635,0.16786195,0.13956237,0.10689367,0.0023476859,-0.12188599,0.05053611,-0.0679193,0.09591739,0.17405018,-0.15529907,-0.02122017,0.05999121,0.088992275,-0.0067014056,-0.14134553,-0.12636094,-0.056003213,0.023496227,0.04965184,-0.067485884,-0.040454425,0.09755884,-0.06754755,0.06512275,-0.06758848,0.011379588,-0.09848362,-0.05354054,0.096243866,0.143743,-0.06948455,-0.02189517,0.052456312,-0.051819023,0.08998645,-0.11376953,-0.11341405,0.14918195,0.009240435,0.19007044,-0.04805058,0.108594544,0.023845641,0.07220866,-0.027748944,0.11206437,0.099644996,-0.028397128,0.1084103,0.060957063,0.014936924,0.092161976,-0.023451732,-0.09508878,0.070505105,-0.23985909,0.00813016,-0.05269434,0.047333613,-0.20259172,-0.08095771,-0.015244465,-0.10676948,0.11408702,0.061589755,0.018464983,0.12625188,-0.11884403,-0.164947,0.01720334,0.073126584,-0.108449094,0.069250904,-0.06523236
/m/01z4y	0.026319569,-0.035428885,0.08979954,-0.0061814785,-0.04725635,0.12816799,0.0048036347,-0.040660232,0.122077204,-0.10861373,0.23324502,0.13399531,0.119263805,-0.103856325,-0.047794797,-0.081119046,-0.06207893,-0.21279427,-0.06942554,-0.061149772,0.11866904,0.074867345,-0.0039012854,-0.1559215,-0.041201144,0.039261714,-0.086419545,0.018889124,-0.011401288,-0.13676861,-0.08222494,-0.0005452917,-0.025176223,0.06159915,-0.15257816,0.060695417,0.088947885,-0.16964433,-0.07546578,-0.092660904,0.16087632,0.111784615,0.15255785,0.11379859,0.011281595,0.10506255,0.14532897,-0.05542416,-0.0268388,0.09641779,-0.031471837,-0.069338344,0.09961492,0.077584386,-0.044379137,-0.062907234,-0.12786283,0.1483792,0.040208913,0.0667061,0.13689815,-0.0852671,0.09377652,0.10631156,-0.016412541,-0.09886119,0.12395201,0.07071213,-0.060250424,0.14712486,-0.037593722,-0.022204166,-0.07859101,0.07230074,0.028713543,-0.114207886,-0.091709055,-0.05463427,0.016948242,-0.02250694,-0.12448295,0.16169126,0.19359158,0.1438902,-0.11493466,-0.040318895,-0.007915241,-0.00921591,0.07759064,0.052580226,0.075857274,-0.20567863,-0.106334075,0.23980665,-0.08780922,0.018771967,-0.07387122,-0.019049473,0.20984623,-0.19095922
/m/05d7rk	0.12987691,0.075831026,-0.0016719709,-0.07339994,0.064779155,0.20240147,-0.022886785,0.04281099,-0.13745105,-0.04415421,-0.2536416,0.07673515,-0.022783218,0.0043234164,-0.012895248,-0.08969844,0.048530146,0.03624274,0.08764347,-0.059023485,0.013527561,0.121744916,0.065649584,-0.06115806,0.022077499,0.18159309,-0.044155955,-0.042672105,-0.028202344,0.14463039,0.15315202,0.15456316,0.16822219,0.109603666,-0.034396898,-0.00786634,0.0044225776,-0.054678116,-0.05886621,-0.054327972,-0.03749934,-0.008246093,-0.1307413,0.0052897646,-0.0038723433,-0.0834968,-0.05222748,-0.03230874,-0.060639586,-0.20914806,0.08046716,-0.15750714,-0.044504583,0.005252249,0.21560238,0.09089451,0.030205023,0.22107647,-0.09077188,0.017783526,-0.011605949,-0.15337405,0.061576147,-0.097604915,0.108891234,0.07763981,0.19500735,-0.029240882,0.07455911,-0.02221739,0.033791907,-0.05761361,-0.08840908,0.014309881,0.08084334,0.050411858,-0.07407463,-0.0015628414,0.031984054,-0.22536556,0.09286802,-0.0014746212,-0.15948802,-0.1158578,0.21117951,-0.15370771,-0.12135657,0.08066058,0.10395841,-0.060755987,-0.09836344,0.109160386,0.1496386,-0.043557543,0.011899846,0.079985484,-0.124134876,-0.0036835824,-0.07490787,-0.052770797
/m/05hs4r	0.041180614,0.06591295,0.006807184,-0.0037719307,0.08558184,0.105812356,0.05400535,-0.12531501,0.01095756,-0.086768344,-0.002160998,-0.010365577,0.274234,0.053597655,0.0717768,-0.011906165,0.049128763,0.0023589332,-0.0651633,0.029684637,0.06335075,0.1566855,0.03722587,-0.010893262,0.012314577,-0.043838494,-0.07487687,-0.03777904,0.08274628,-0.028173586,0.17942077,-0.008713227,-0.07361228,-0.024703339,0.034567002,0.07384743,-0.016849192,-0.100962296,0.19166397,0.07262683,-0.11107258,-0.002092313,0.13528441,-0.1548239,-0.13175634,-0.0058180667,-0.13182533,0.09810226,0.019143142,-0.105163634,0.04122355,-0.20142713,-0.087918505,0.06303198,0.037317127,0.086523786,-0.071469754,0.13444632,-0.039345738,-0.13880461,0.069835685,0.24561095,-0.07297043,-0.041965272,-0.03397746,-0.165607,0.047807258,0.016009755,0.013811617,-0.20678805,-0.1456181,0.044905446,0.007103496,0.11009644,0.029597785,0.089908786,0.09974104,-0.105255574,0.14636645,0.029534858,-0.07174017,-0.09270444,-0.19242091,0.104631014,0.080715366,0.02445141,-0.08879496,-0.02664312,-0.14618054,0.30622816,-0.09189345,-0.11771787,0.030925566,0.04277714,0.05921993,-0.068876095,0.07332949,0.021915453,-0.080926344,-0.15555114
/m/03qcq	0.042807426,0.046889346,-0.10198021,0.024919853,-0.014115946,0.08811254,-0.016802229,0.05857518,0.036048718,0.053854827,-0.06928275,0.19365196,0.039179932,0.14189029,0.0896922,-0.2348514,0.02209058,-0.15725365,-0.06880578,-0.034072414,0.28914303,-0.030333482,0.021900149,-0.019815816,0.12972626,-0.01611163,0.15331884,-0.0368618,0.023255289,-0.007079522,0.19752261,0.11417812,0.10692423,-0.022003774,-0.11465442,0.1871423,-0.023306783,0.037599046,0.1289896,0.091429144,0.0068557374,-0.024650894,-0.12941003,-0.014151781,-0.07056976,0.049008206,0.0598614,-0.07046262,-0.056102276,0.18083599,-0.0532297,0.021444794,0.010739235,0.019971695,-0.12048146,0.03696335,-0.012451221,0.0059310603,-0.2036952,0.20980477,-0.22946808,0.076204695,0.10272372,-0.017670143,0.14231442,-0.0015412555,0.083685234,-0.031767312,0.12663499,0.04024352,0.1368224,-0.04899833,-0.1667262,0.060496807,0.1604643,-0.026913635,0.09957528,-0.14887026,0.19306587,-0.058203787,-0.1083358,-0.048102457,0.00543979,-0.06583574,-0.033797972,0.01602182,-0.0050977683,-0.01232922,-0.10584707,-0.14886834,-0.027981954,-0.022745915,0.040718786,-0.08472455,-0.044254005,0.08616853,0.13129503,0.030843854,0.004090132,0.14252396
/m/01lxd4	-0.11110778,-0.17625484,0.007837116,0.013138168,-0.0006113768,0.030241283,-0.078236,-0.08429052,0.11504095,-0.21875453,-0.22420917,0.010728743,-0.06265202,-0.103123344,0.013626477,0.1422849,-0.1486713,0.09410259,0.06713082,0.010961082,-0.05537699,0.038270473,-0.0078043956,0.0044277506,0.032526672,0.05972261,-0.06402227,-0.061897736,0.09098756,0.1994379,0.057141233,-0.0052934475,-0.09257963,0.086831786,-0.039240282,0.19590741,0.00248518,0.0521557,0.007637459,-0.010617042,0.12619601,-0.120232165,0.029491149,-0.09918018,0.07944843,0.12703638,0.06056935,0.06631042,-0.036742248,0.120769955,0.030659506,0.12029235,-0.33999708,0.02254366,0.10691265,0.19462602,0.06192268,0.16006567,-0.074460045,0.06153792,-0.035619814,-0.110178456,0.08034046,0.16974528,-0.04835858,0.05318179,0.13913587,-0.010628686,-0.06951486,-0.03426839,0.103096515,0.01107781,0.027861182,-0.12010179,-0.075189926,-0.23281433,0.05749767,0.05933468,0.052874256,-0.052373283,0.0145392325,0.10132625,-0.050033715,-0.04404909,-0.0950912,-0.08483637,0.050758347,0.12856635,-0.08652382,-0.09353645,-0.11660349,-0.18381776,0.031941153,0.040522017,-0.04286157,-0.06636699,0.07914498,0.010610691,0.015811587,-0.13659896
/m/08815	-0.006619783,-0.0005478163,0.103993855,0.10294049,-0.08080074,-0.13547064,0.0867158,-0.029927019,0.17811732,-0.009235592,0.047472432,-0.102401555,0.107310064,0.044692136,0.011600516,-0.011721645,0.0113726305,-0.013078613,0.09931894,0.064387225,0.11036467,0.047078203,0.16063865,0.032177396,0.05566038,0.12789047,-0.04750765,-0.057106424,0.040690344,0.038160257,0.026029255,0.055226143,-0.13316832,0.0449441,0.14769682,-0.17595801,0.03676495,0.010977047,-0.06454097,-0.009502484,0.007762878,-0.08188005,-0.06084394,0.009312544,0.013725184,-0.03317952,0.042034812,-0.13416068,0.05679817,-0.11134615,-0.15241571,-0.0675894,0.06865155,0.099641345,-0.088811696,-0.051279057,-0.040182516,0.059716985,-0.16325244,-0.06794126,-0.069588326,-0.22501002,0.06281772,-0.019275058,0.105116695,0.049668875,0.11548617,0.03941815,-0.049160466,0.17146659,-0.08072183,0.08030568,-0.04018381,-0.16055435,-0.16849083,0.09046356,0.050509915,-0.16927561,-0.16316381,-0.09955223,-0.20744555,-0.02749707,0.16731933,0.063365266,0.048706796,-0.06012003,0.094678685,0.12994388,0.07833296,-0.114913076,-0.18048361,0.015418301,-0.020455748,0.038392052,-0.21048902,0.035984486,0.038388338,0.085626066,-0.023733184,-0.02882349
/m/08nhfc1	0.021055214,-0.011080375,-0.05116663,0.03656492,0.1474208,-0.01830528,-0.11326897,0.11452068,0.17426556,0.09544519,0.0024991613,0.047006145,-0.05086006,0.08270288,0.20479256,-0.13916701,-0.10974094,0.0326998,-0.04942129,0.102661334,-0.0065992456,-0.06401706,0.08094929,-0.036851604,-0.015741136,0.059807636,-0.11775219,-0.06633615,-0.13945292,0.080565035,-0.045401573,-0.022865666,-0.013432518,0.19119212,-0.04980997,0.11666452,0.12637521,-0.02402869,0.017489547,0.020392653,-0.02750454,-0.102357425,-0.04385478,-0.036860026,-0.0016385643,0.0674073,-0.03281062,-0.17904304,-0.03706096,0.05168782,-0.17146625,-0.25614607,0.04079991,0.076020725,0.026344117,-0.09148298,-0.0688933,-0.02482753,0.0063515343,0.044961922,0.1054707,0.12812129,0.044266008,-0.055001907,0.06808477,-0.069639124,-0.04770013,0.050504055,0.20676845,0.2113357,-0.09794547,0.15932181,0.028566698,0.14237814,0.12067008,-0.06696069,0.008506516,-0.1969349,0.06444798,0.06348407,0.05564587,-0.05414237,-0.04762721,0.057257563,-0.109532125,0.044352133,0.060862165,-0.027931876,-0.028369416,0.19780327,-0.1213711,-0.028161006,-0.06506471,-0.025160685,-0.0066547976,0.021330602,-0.097151175,0.24537973,0.0693089,0.012741744
/m/0g56t9t	-0.06110625,0.15868987,0.044941768,-0.045389615,0.12557983,-0.09320966,-0.11109968,0.036125977,0.061753523,0.06832178,0.004019946,-0.17911224,-0.020692581,0.015987005,0.0826249,-0.013068903,-0.053276952,-0.1371414,0.07623755,0.016785813,0.047400184,-0.057548102,-0.16882567,-0.015464669,0.051831752,0.01875369,-0.27491042,0.05484226,-0.083270915,-0.024548898,-0.06703992,-0.05563398,0.0030327165,0.019340118,-0.037120968,0.024523133,0.044083003,0.05968609,0.12666142,0.101869375,-0.00510519,-0.053377427,0.13874523,-0.08142183,0.0388299,0.037570223,-0.09712496,-0.07407327,-0.012274748,0.020581847,-0.04158458,0.18968093,-0.12253091,-0.03993419,-0.106656894,0.028258208,-0.1675506,0.02211716,0.24531849,0.02954861,0.04060222,-0.2773095,0.07772347,0.04444965,-0.027935054,0.06530744,0.19003439,-0.13686523,-0.005634901,0.12838633,-0.0033235985,0.08241394,-0.083749205,-0.27374628,0.018034186,-0.022625033,0.05359099,-0.16261227,-0.04853115,-0.046849027,-0.116560936,-0.056483768,0.15703514,-0.06847956,0.016106345,-0.019173142,-0.019153388,0.02356196,-0.042216845,-0.061474953,-0.030836765,-0.1743175,-0.011520975,-0.12734742,0.19924131,-0.10670187,-0.020507988,0.2365165,0.010383056,0.09996926
/m/062zm5h	0.016496591,0.108145766,0.0036209433,-0.09771367,0.020536784,0.22912943,-0.0005066218,-0.10987653,0.08800503,-0.13986103,-0.13775447,0.07683869,0.0033540514,0.015303987,0.18444857,0.08989707,0.21807796,-0.04818549,-0.2119673,-0.063792095,-0.07433508,0.16948494,0.025239734,0.108900234,-0.059133727,-0.17332636,-0.042548344,-0.119376816,0.01058342,0.044175506,0.110839985,0.23988298,-0.029912665,-0.050953895,0.033758115,0.14241166,0.0814736,0.027701173,0.14016767,-0.03992916,-0.012846834,0.005023327,-0.19144809,-0.16313404,0.07925157,-0.028309671,-0.036389645,0.040999465,-0.048334487,-0.076478586,-0.06479047,0.0698017,-0.1914936,-0.09323237,-0.04790527,-0.11697015,0.07122693,-0.09478362,-0.048268378,0.045429982,0.20877433,-0.06588291,0.07847952,0.16773997,-0.22273976,0.019176757,0.013594954,-0.08110658,-0.092311755,0.0068764444,0.0092200525,0.20171142,-0.010989187,0.0483411,0.071422786,-0.064196154,0.01144737,-0.013721657,-0.059285432,-0.09900506,0.17905876,-0.08357223,0.09960274,-0.10145218,0.018581033,0.0487465,-0.09326533,0.03731057,0.12071597,-0.010101926,0.030795109,-0.012642747,-0.070206404,0.043584228,0.07994215,-0.093183964,0.0344928,0.12520865,0.06730319,-0.0177176
/m/0160w	-0.026050318,-0.032431055,0.036772672,0.03269639,-0.13550775,-0.024410028,0.12837306,0.064868994,-0.06559236,-0.031334065,0.03934327,0.021623328,0.04550031,-0.11005472,0.09944983,-0.047993943,-0.04884321,0.073869824,0.04797609,0.045355223,-0.061595052,0.0071529243,0.0472424,0.054699954,0.055671927,-0.04960265,-0.011463011,-0.21391854,0.0035938947,0.071505755,-0.1396642,0.12820026,0.085007936,-0.10792388,-0.07760023,0.027770825,-0.11451453,0.06485757,-0.21967264,-0.11276775,0.042527165,0.08792733,-0.03215595,-0.1302641,-0.13706236,-0.043988697,-0.08317185,0.037284594,-0.0751922,0.007270806,-0.025017552,-0.00979821,0.20091939,-0.043044098,-0.023684595,0.09682432,-0.06705762,0.0546345,0.15660304,-0.08103254,-0.15582775,-0.06500434,-0.05339056,-0.04702602,0.0027334802,-0.05698844,0.103318624,0.047895562,-0.1224369,0.09518563,-0.11031251,0.13068306,-0.0048783505,0.120893754,-0.07636838,0.08214885,0.015323421,0.086209044,-0.18034577,0.01776908,-0.0067914748,0.04810968,0.093218364,0.11664155,-0.06847606,-0.040166717,-0.061727997,-0.060850456,0.12353152,-0.021679891,0.0014722319,-0.046280198,-0.09359451,-0.053525228,0.027707295,-0.09083993,0.1326843,0.052670136,-0.1083554,0.23099674
/m/0dbpyd	-0.06438561,-0.064210854,0.013115638,-0.03223123,0.11656536,-0.18706506,-0.050869696,0.08256215,-0.1054062,-0.1661369,0.026672198,-0.008102772,0.16966623,-0.023649914,-0.2158392,0.022946011,0.079685524,-0.13602032,-0.016499966,0.10309981,-0.14482825,-0.09316112,0.031623937,-0.13236299,-0.18522188,0.11687165,-0.010091677,0.25334337,-0.0704662,0.017968992,-0.02635443,0.034281492,-0.06944837,0.06968214,-0.10668571,0.05664231,0.060013406,0.06535412,-0.07711137,-0.09545644,0.06284772,0.02996886,0.03655136,0.16748483,-0.0023033097,-0.052092556,0.0033430243,0.00758317,0.0024715604,-0.016369486,0.043102637,0.06971648,0.0014830194,-0.025609061,0.006081893,-0.006259707,0.13021912,0.09475573,0.0029826255,0.19465365,0.059908856,-0.10298347,0.052415144,-0.054436084,-0.014394254,-0.0023710707,0.10073754,-0.19625011,0.06295048,0.022691302,0.10390551,-0.10089437,0.0860717,0.06932774,-0.02364292,-0.14635175,0.10765824,-0.010601173,-0.041755334,0.025164234,0.0445628,0.074127175,0.06598196,-0.0364957,-0.04514607,0.11114617,0.08985295,0.049558647,0.02812041,-0.0915345,-0.043527577,0.11092585,0.032811802,-0.037190747,0.051526405,-0.029119473,0.24283025,0.10319198,-0.025747007,0.0059581166
/m/053y0s	-0.113690905,0.081546366,-0.11720268,-0.12874547,-0.022730501,0.029065123,-0.181953,0.075989775,0.05646223,-0.051413298,-0.011463154,0.0848951,0.008566113,-0.0640397,-0.20590599,0.21371071,0.026572086,-0.100001976,0.02002218,0.022808459,0.25604674,-0.109761305,-0.016434975,-0.10704896,-0.2509715,-0.037920013,-0.056118444,-0.05249803,-0.048048988,-0.16586809,-0.056760367,-0.11755185,0.10654322,-0.19204767,0.0386481,-0.012855786,-0.12919414,0.13768208,-0.021091158,-0.01472564,0.05843116,0.16678064,-0.13463299,-0.07457848,0.1302483,-0.040766075,0.026310943,0.1095718,0.09858547,-0.028777776,-0.006224503,-0.017634885,-0.038870674,-0.13446324,0.18488033,0.10661085,-0.033318203,-0.029263247,-0.030954074,0.079043135,0.040055703,0.0036231542,0.029711723,-0.11356508,-0.102505654,0.012113105,0.1138143,0.09639799,0.069950156,-0.0798069,0.012842739,0.04130818,-0.017030247,0.008798447,-0.092693016,-0.017379966,-0.029600438,-0.15661493,-0.13107719,0.15209499,0.044852972,0.046069432,0.025290435,0.058884453,0.061887372,-0.045862526,0.18596601,0.02650568,0.07635816,-0.04929126,0.14687675,-0.18747617,-0.04867692,0.112454034,-0.02666028,0.0813683,-0.2152031,0.051339906,0.0057705496,-0.08042219
/m/016qtt	0.01772075,0.03793484,0.047292538,-0.052416116,0.05618489,-0.19629438,-0.019105652,-0.23221867,0.12605886,0.10281866,0.07150981,0.13988777,-0.12215454,-0.07546169,-0.28750557,0.06737119,0.07523828,0.0623558,-0.031468153,0.060777,0.124243125,-0.0031688637,-0.040857326,-0.10110625,-0.014335473,0.15993057,-0.0568497,-0.08614601,0.1005536,-0.06703098,-0.09467009,0.011938043,0.06226582,-0.2349846,-0.055371124,0.008299807,0.070551924,-0.0516325,0.06860018,0.13496363,0.06709798,0.0053708837,0.039328504,-0.025754958,-0.007079455,-0.109822564,-0.11198996,-0.048060074,-0.108497545,0.13124591,-0.112602994,-0.080853716,-0.012371434,0.03078654,0.06722149,-0.023640359,-0.047101833,0.06305528,0.019992504,0.015365394,0.17631347,-0.14828531,0.09144218,-0.011655884,-0.0049997065,0.21517047,-0.037953705,-0.06824117,0.076073155,0.050642744,0.20842212,-0.14353107,0.13948512,-0.025562782,0.06132691,-0.124356836,0.15671283,0.06474326,-0.2264215,0.08228683,0.0040234616,0.09277256,-0.0964303,0.06377911,-0.07030703,-0.0017867284,-0.087508395,-0.21732032,-0.00033147528,0.0009128456,0.05401428,-0.0324864,0.18411204,0.040937986,-0.045116056,0.027791295,0.022129128,-0.022096306,0.10147934,0.06107418
/m/0b005	-0.013759125,0.04862077,-0.12426211,-0.049419016,-0.10489625,0.043573044,0.15569979,-0.04048019,-0.08648593,0.06001788,0.091461785,0.102860734,-0.13503794,0.0063047004,0.054937653,-0.103565946,-0.23185508,0.06996633,-0.14608353,0.030029256,-0.05083596,-0.16985461,-0.030030463,0.098667786,-0.004737792,0.08630169,0.06304851,-0.020730963,-0.040028647,-0.040432118,-0.10330344,0.010114076,-0.10459129,0.29889134,-0.027005808,-0.104916744,-0.006335197,-0.055359874,0.12702523,-0.062596045,0.06369977,0.013194967,-0.20586641,0.09662353,-0.11253575,-0.048024025,0.080920696,0.18756579,0.056093425,0.042729843,0.090335034,-0.11856902,-0.06527203,-0.041629083,0.05441416,0.026310941,-0.05046859,-0.09857648,-0.07468447,0.07924861,-0.09378779,-0.08443482,0.03834159,0.047605902,-0.07375346,-0.20754305,0.070202485,0.002652985,0.021179222,0.12267187,0.16340709,-0.01048819,-0.16398555,0.12399747,0.09414812,-0.13827774,0.0046755974,0.12102387,-0.09116244,0.088427514,-0.1920387,-0.01742638,0.024577335,-0.10823481,0.11622225,-0.009802832,-0.0851652,0.1496521,0.103310406,-0.02835441,-0.07378387,-0.11913924,-0.07740774,-0.0446313,0.06211687,0.018294662,-0.22015128,0.12106033,0.0939107,0.065207906
/m/023wyl	0.024615554,0.10551956,0.16204242,-0.10982618,-0.15464962,0.12548918,-0.053062577,-0.102583215,-0.15588532,-0.05394764,0.09598025,-0.04473251,-0.030960105,0.012922857,0.019453758,-0.06542452,0.04078598,-0.004650618,0.106454454,0.0674337,0.04737269,-0.11100159,0.10648354,-0.020927262,0.1298816,0.1901284,0.01178055,0.15874785,0.060410753,-0.15489042,0.14268297,-0.046292886,-0.040066436,0.06471854,0.12964255,-0.09344802,-0.044574693,0.048917882,-0.087848276,0.17546348,0.034291875,-0.19752374,0.10198989,0.038606323,-0.12851249,0.098053515,-0.014173417,0.05279549,0.12319808,0.031856276,0.04051399,-0.018253315,-0.010558567,-0.114224985,0.022254921,-0.08745483,0.0438536,-0.05447278,0.20317124,-0.03905616,0.1947666,-0.15290989,-0.11057069,0.1443985,0.12061871,0.0016072285,-0.1560487,0.0099344645,0.1924639,0.02290175,-0.17323297,0.13031167,-0.07376577,-0.13564569,-0.050632775,-0.09637004,-0.090903506,0.20705695,-0.1433869,-0.024586875,0.11315511,0.10242514,-0.0411348,-0.14205517,0.14480433,-0.037614696,0.08544333,-0.00702195,-0.005928481,0.19745617,-0.065681726,0.043271806,-0.09503052,-0.09083082,-0.17483714,-0.050763417,0.084065974,-0.061605815,-0.06367023,0.016184036
/m/09sh8k	0.13649157,0.025145676,0.022016812,-0.12843403,-0.11559458,-0.036436133,0.19544859,0.18008114,0.115964144,-0.10526059,0.06580088,0.0048026047,-0.02987108,0.0839917,0.06515781,-0.13584779,0.12801406,-0.10287961,-0.16104826,0.09627546,-0.11413057,-0.09643793,-0.016730804,-0.13292861,-0.008823791,-0.112979636,-0.09518286,-0.05806817,-0.04567981,-0.09090664,-0.0899358,0.19941778,-0.19262706,0.1452641,-0.0491393,-0.0020719268,-0.13439411,-0.20759669,-0.05673752,-0.054529965,0.07148368,0.025714349,-0.30078664,0.018746892,0.09309066,0.03326828,0.060984604,-0.073688865,-0.18298388,-0.006011428,0.05464934,-0.15614948,-0.106269486,-0.160941,-0.14578679,-0.09231281,-0.08801151,-0.012133751,-0.02814906,0.037387736,-0.00015698196,-0.019424742,0.0017279962,-0.058376122,-0.028679004,0.07530585,-0.03556005,-0.02545112,0.012038747,0.027153973,-0.13252062,0.011323354,0.12653556,0.0031258094,-0.10505976,-0.057465337,-0.18052843,-0.040023834,-0.12184251,-0.08131436,-0.05838604,-0.038070705,-0.0111748,-0.091235936,-0.11223001,-0.03555424,0.110870816,-0.054977473,0.0030078974,0.09701152,0.014825391,0.049889725,-0.032332446,0.12105468,-0.12853587,-0.021731475,-0.19074592,0.08240788,0.0355736,0.054951794
/m/05pd94v	-0.010551378,0.06076228,-0.014425243,0.041597873,0.024566147,-0.18057801,-0.1221725,0.004717056,0.022310527,0.25883067,-0.04686198,0.048644535,-0.0032957853,0.07785949,0.03548903,-0.16565609,-0.0274723,-0.032012872,-0.011514221,0.012023363,0.12580743,0.045421146,-0.109481394,0.18697643,-0.17308885,-0.007235219,0.12279509,0.049631357,0.0011390098,-0.12766477,0.14523846,0.08394338,0.08532804,-0.072320856,-0.04680141,0.017431695,0.035150778,-0.051064726,0.09499575,-0.021733401,-0.063661404,-0.023269925,0.028315304,0.15765749,-0.13453378,-0.0036103046,0.031713303,0.07807372,-0.04414456,0.11875669,-0.063609764,-0.06751272,0.012651386,-0.035163477,0.26714304,-0.14020745,0.180134,0.017054047,0.085729554,0.051277593,-0.19396111,-0.009066774,-0.13147947,0.06326137,0.07764298,0.025736876,0.044900596,0.046103936,0.060873926,0.078382745,-0.005580186,0.08789927,-0.06110098,0.235239,-0.049352586,0.15946482,0.010446273,0.07156798,-0.16612454,0.06949226,0.05772456,0.12317479,-0.09370314,0.108753815,0.039631564,0.0046561593,0.118840456,0.1153153,0.11902106,0.021153357,-0.04172089,0.092414774,-0.2200907,0.032501686,-0.06667821,0.05672116,-0.15159738,-0.22817905,-0.037561577,0.13181625
/m/0gtsx8c	0.029670661,-0.019220626,-0.11440121,-0.12274187,-0.076361954,0.14358035,0.07363308,-0.091285825,0.08693188,0.117906734,-0.13874836,0.047441244,-0.12459842,-0.09925271,-0.02643428,0.09078727,0.06624889,0.012116905,-0.21675076,-0.13536207,-0.081515916,-0.027885616,-0.1365826,-0.09371289,0.10945638,0.048560083,0.123976275,0.10627334,-0.03814843,0.041161712,-0.076291695,-0.023688171,-0.1432897,-0.13169178,-0.06918392,-0.013525283,0.027336113,-0.082120046,0.03645495,0.026129128,0.117297865,0.069297515,0.00048796576,-0.11952911,0.07350861,-0.17936116,0.0696653,0.0424568,0.05866497,-0.05383545,-0.023674695,-0.054945484,0.1568687,-0.19043149,-0.0021580027,-0.00892294,-0.10658934,0.022336617,-0.070035025,0.18325552,-0.0960085,-0.027614452,-0.027614059,0.030969786,-0.14574632,0.09642721,-0.0370724,0.18931325,-0.20301092,0.0495914,0.14283939,0.0961,-0.1503714,0.0664778,-0.17247644,-0.10103286,-0.109060444,-0.05221969,-0.1454356,-0.07486627,0.04797042,0.012645343,0.0065241097,-0.1081595,-0.036781378,-0.03618372,0.032447815,0.21228024,-0.19139332,-0.011239911,0.029664801,0.09942903,0.019548673,0.1433056,0.11225607,-0.17281008,-0.014705081,-0.030805841,-0.17742874,0.13444531
/m/02r0csl	0.13057984,-0.06620091,-0.03597872,-0.10217643,-0.0833203,-0.094886124,0.052636463,0.07682322,-0.004214541,0.03247543,0.2066641,0.029625382,-0.005847523,-0.03237196,0.01802821,-0.16006303,0.023660216,0.09581988,-0.090378016,0.007821992,0.010162889,0.020050688,-0.16044004,-0.01460992,-0.038634133,-0.096562065,-0.08822135,-0.09598204,0.115231946,0.10962265,-0.114056855,-0.06202878,0.029082598,0.058016516,-0.0718118,0.034114897,-0.078797445,0.062086567,0.05499126,-0.008108864,-0.0039072847,-0.038420778,-0.015811106,0.18887949,0.0012740549,-0.08962933,0.029850168,0.21868694,0.05743072,0.11616955,-0.01115323,-0.083851874,0.016783753,0.043253582,0.0492862,0.17062218,0.10524813,0.055641405,0.05528357,-0.11398563,0.030342737,-0.117400296,-0.008606641,-0.05985075,0.17322192,0.023676526,-0.19664311,0.089780994,-0.06852016,-0.044169344,0.03817417,-0.037767015,-0.06799049,0.05870345,-0.065198615,-0.12421375,-0.024772622,0.052682117,0.09025475,0.21109997,0.04079267,-0.06536772,0.019095093,0.098713584,-0.09818265,-0.09501554,0.033547956,0.058372844,0.25613222,-0.039456904,0.033204846,0.095204294,-0.04600103,0.021725167,-0.15379915,-0.056041874,-0.12273641,-0.07960791,-0.05061311,-0.08085846
/m/02y_lrp	-0.16984354,0.0043050232,0.02661529,-0.090817116,0.03089514,0.12412829,-0.0027823257,-0.10947848,-0.13148257,0.05407514,-0.054470446,-0.13624693,0.10783498,-0.125255,0.18097948,0.039708678,0.12795855,0.23211968,-0.058750436,0.033666853,-0.1366037,0.24573825,0.010532466,-0.03007118,-0.052436236,-0.051834725,0.009614676,-0.0306267,-0.036819056,-0.07987457,0.031960733,0.088612966,0.0399017,-0.0030738977,0.1723924,0.1749379,0.12743635,0.036841113,0.02226181,-0.03073377,-0.059665162,-0.023805594,0.03786492,0.03634673,-0.10429171,-0.05990981,-0.16957721,0.13047397,-0.10788442,0.005106326,-0.046662867,-0.023753213,0.035819225,-0.006121778,-0.13349807,0.09887163,-0.14150283,0.058826145,0.015080308,0.029554807,-0.07564172,0.13858809,-0.005315925,0.1307853,0.058243666,0.028097233,0.08362583,0.008928657,0.04524975,-0.056750227,0.08594948,-0.13782355,-0.08061901,-0.18791233,0.22002156,-0.1441101,0.0049341237,0.020340158,-0.038815062,-0.09784178,0.10379834,-0.12846693,0.121946104,-0.09325691,0.02610604,0.035036974,0.11899311,0.037652824,-0.094301015,-0.032585427,-0.037215203,0.0012342818,-0.06512011,0.092427135,-0.0073842662,-0.13205718,0.11206593,-0.056191526,-0.13333338,0.3536621
/m/012d40	-0.039147954,-0.0007798844,-0.12576082,0.0041779806,-0.08779959,-0.05326254,0.05490588,-0.03462657,0.10786873,0.014816458,0.07490655,-0.023619007,-0.07568548,-0.13909735,0.011272954,0.023418372,-0.050829392,0.16384889,-0.20215532,0.05143973,-0.002050979,-0.09619767,0.2110579,-0.0023014788,-0.16520254,-0.03551374,-0.008900736,0.049280412,-0.032212436,-0.05607804,0.012761215,-0.06290324,-0.033996087,0.03778169,-0.018935785,-0.028401546,0.15914148,0.14499429,0.10018158,0.13273486,-0.097339176,0.010088642,-0.2392644,-0.051798273,-0.120169304,-0.12305567,-0.020773826,-0.056133322,-0.10647941,0.05994923,-0.015440159,-0.06607952,0.08537175,-0.084991775,0.11138189,0.084679596,-0.17764002,-0.1784627,-0.038688716,-0.049036793,-0.06324529,0.09749416,0.10509483,-0.020263514,-0.10307813,0.17840953,0.14349453,0.025036024,0.011929218,0.042141825,0.011890845,0.109612845,0.06098881,0.15468802,0.05858131,0.2505595,0.035545804,0.024252232,-0.019019905,-0.014515882,0.005442931,0.13267249,-0.02909413,-0.14867598,0.21161841,0.2816868,0.003146836,0.114191934,-0.054572172,0.002480023,0.08769797,-0.057606198,-0.0022417007,-0.011261974,0.04365152,0.24779123,0.062388774,0.07182331,0.05422252,0.07105505
/m/07rlg	0.07124586,0.07021898,0.08357884,-0.113204874,0.10427801,0.19371404,-0.008765452,-0.07996367,-0.079369806,0.14039525,0.02093052,0.010638513,0.27058777,0.030416176,-0.06313438,-0.002131272,0.019588612,-0.004888098,0.019389527,0.011974223,0.022571554,-0.13125703,-0.028913766,0.15289584,-0.14729987,0.055099845,0.044716064,0.11158788,-0.21750313,-0.033995252,0.103562675,0.040747292,-0.05472543,0.06988154,-0.20807402,0.1332096,0.017280713,-0.018117024,0.082908385,-0.06332967,-0.042991012,-0.121721596,0.026207382,-0.08509559,0.105846904,-0.0045465175,-0.14265327,-0.044212926,-0.05964011,-0.053404342,-0.10705513,-0.0051874155,0.113214426,0.032555528,-0.09399116,0.066214226,0.09752162,0.041889824,0.0057648495,0.08129531,0.16720127,-0.1373956,0.031648587,-0.110269286,0.075335026,0.0646173,-0.013510986,0.13822174,-0.12534378,0.015442348,-0.07716945,0.03477244,-0.007008183,0.011386343,0.12971716,0.058732104,-0.06375468,-0.09037243,-0.037093997,-0.004302538,0.033951767,0.05674693,0.07391351,-0.15136884,0.25644165,-0.004278276,0.029956385,-0.25733718,0.19956815,-0.1294682,0.045774356,-0.25382617,-0.009953311,-0.08145557,-0.032623284,0.014213505,0.114047885,-0.023156546,0.09800005,-0.005296919
/m/0g22z	-0.050120607,0.15637071,-0.17665842,0.058359075,-0.026194442,-0.073037215,-0.04703185,0.02206721,0.010817512,-0.15826105,0.06294495,0.06316508,-0.045198105,0.018822558,0.03914662,0.06953648,0.015989892,-0.0951117,-0.13285431,0.031223198,-0.11937762,-0.1326302,0.12614605,0.15583931,0.09204266,0.1340523,-0.100260034,-0.02081658,0.0010492986,-0.034477163,-0.10773443,0.16089569,0.09030819,0.005052526,0.02161889,0.0932211,0.10066331,-0.020301918,-0.05527945,0.23720561,-0.03555188,-0.050315134,0.05509056,-0.11405898,0.11914541,-0.035818107,-0.09313192,0.12749925,0.13336623,0.13667662,-0.075298086,0.029239655,0.030237682,0.06064586,0.025779704,0.0013331458,-0.053406775,-0.021847375,0.014660833,0.008998895,0.19634025,0.12489823,-0.25651738,0.19241095,-0.06369216,0.18687434,0.0053938557,0.018606897,0.03189028,-0.044795163,-0.2431433,-0.024711573,0.033273242,-0.13150398,-0.023924474,-0.19777618,0.14959216,0.05879109,-0.09395032,0.054742023,-0.13277361,-0.019636778,-0.035377324,-0.042812966,0.018958667,-0.07954504,0.10692258,-0.1618752,-0.13670848,-0.0028456647,0.046260487,-0.13566503,0.12252718,0.03409498,0.08533038,-0.14143175,0.12437603,-0.1869013,-0.060450256,-0.0013799772
/m/018js4	0.010857549,0.064519815,-0.1557047,-0.3025108,-0.13624163,-0.099009134,-0.09155741,0.08188022,0.049420662,-0.051661223,-0.09373557,-0.121174626,0.049177192,0.04385454,0.011911343,0.10521464,0.034823183,0.10093192,0.19514124,0.0323513,-0.11658807,0.04165201,0.10420346,-0.20717657,0.0066879615,-0.109624766,0.0027086267,0.13685358,0.13062952,-0.062858045,-0.07232318,0.027273932,0.06259497,-0.018526938,0.044950817,0.03835977,-0.02958906,-0.05392297,0.057163186,-0.13186702,0.047952827,-0.015360089,-0.037701447,0.015165446,-0.060759366,-0.09707494,-0.1662797,-0.28375748,0.21712394,-0.012174411,0.13490334,-0.12603103,0.006366697,0.048255112,0.024750171,0.0048491177,0.10207608,-0.13666435,0.02245905,0.0018615144,0.036079206,-0.035738256,-0.06876576,0.01886054,-0.19708398,0.08447355,-0.06140502,-0.08905969,-0.12033756,-0.0068097045,-0.031858012,0.16000453,-0.26405856,0.032976575,-0.12805432,-0.030348828,0.09734391,0.04129114,0.003777105,0.03373131,0.085364066,0.1417592,-0.1541452,0.10525655,0.052701604,0.0036981492,0.0373726,0.0032573084,-0.06785037,0.06453752,-0.0593143,0.04730215,0.1341293,-0.028753696,0.0539325,-0.056785185,-0.09593284,-0.13091744,-0.060776595,0.020532954
/m/07fq1y	0.117090695,0.10766136,0.058893505,0.06645583,0.0121945515,-0.10296959,0.07455875,-0.020399723,-0.08030617,0.005291368,0.10550809,0.021567779,-0.003907299,-0.09169507,-0.006202626,0.048934087,-0.045607924,0.01195095,-0.036084406,0.14449348,-0.06565318,0.017218115,0.0637324,0.026114233,-0.028530877,0.019579446,0.25502804,0.31262025,-0.054175533,0.16164944,0.08874917,-0.10788208,-0.113982715,0.06224724,-0.024584489,0.10032775,-0.10073439,-0.0012619552,0.0001492304,0.02817525,0.12127272,-0.034587823,-0.34667787,-0.009242519,-0.021784967,0.06846145,0.009397399,0.012121227,-0.039896853,-0.06857596,0.07390797,0.0008179257,-0.026916739,-0.041178286,-0.030225227,0.015017677,-0.075979024,0.013564817,0.008663793,0.1214135,0.002822985,-0.10536721,0.11859558,0.060299613,0.12089568,0.010071253,-0.0693034,0.12152769,0.10252812,0.10429001,0.20183712,0.1306812,-0.092064165,-0.10223385,0.01659503,-0.18351321,0.2036248,0.06831795,0.018184152,-0.11177923,0.0402826,0.04597177,0.08869887,0.013618722,0.14555164,0.043707903,-0.026789809,0.07508441,0.028136894,0.12642479,0.020811368,0.10693697,-0.16476326,-0.06154612,-0.13729213,0.06631727,0.059455577,0.2745008,-0.015688285,0.037096757
/m/081jbk	-0.0032142808,-0.01788506,0.0766123,0.052039023,0.039453134,0.0452823,0.06572773,0.25884947,0.091127776,-0.026900224,0.003961076,-0.07371327,0.052657858,-0.22442724,0.08888477,0.10741316,0.06014365,-0.20327789,0.10936736,0.07338487,-0.17152488,0.04301933,-0.065674506,-0.008702497,-0.058558673,0.1341156,0.038352925,0.10586262,0.121181235,0.10955207,0.08581942,0.10898257,-0.102533236,0.0054116054,0.0051488266,0.09529209,-0.12010687,-0.15676315,0.06296522,0.033796266,-0.096244164,0.024980761,-0.03255612,-0.09795843,-0.051615544,-0.010532538,-0.05764333,0.055919398,-0.0745728,-0.12884128,-0.1142331,0.034244854,-0.034651216,-0.00887021,0.048488837,0.055146348,-0.14512953,-0.12999666,0.12895979,-0.138898,0.014274278,0.12488968,0.020948218,-0.0796225,-0.012435511,-0.056394853,0.1265867,-0.01836569,-0.08266478,-0.040793527,-0.019692002,0.19210461,-0.108336814,0.121427655,0.11901316,0.0698099,-0.10688584,-0.08635897,-0.1263222,-0.16237022,-0.1477451,0.010953917,0.18529816,0.12098213,0.19232683,0.1497777,-0.14140539,0.011066273,-0.10490746,0.007995743,0.055217173,0.13786997,0.15029742,0.018628018,0.043433852,0.04530622,0.004668251,0.07218935,-0.17364754,0.005899757
/m/028q6	0.016463583,-0.10474336,0.008191641,-0.080334514,-0.021126803,0.084998,0.16090289,-0.022103956,0.04573263,0.049743477,0.037633523,-0.12862653,-0.13663465,0.104823194,0.17124423,-0.037452612,-0.19094233,-0.09381223,0.13714807,-0.0053277807,-0.037332665,0.086833075,-0.08944946,-0.07981728,-0.00096082524,-0.035952125,-0.09771686,-0.055332974,-0.17009473,-0.026396062,-0.008160485,0.050262433,0.037338,-0.042892728,0.09894586,0.0116656255,0.026968895,0.048838824,0.048670597,-0.027718674,0.11749491,-0.023969239,-0.14585216,0.021090668,-0.08140399,0.050048377,-0.030516407,0.03878723,0.005448958,-0.017884605,0.19413885,-5.9559476e-05,0.13486488,0.11682156,0.046895027,0.06147269,0.04587464,0.08760209,0.12929288,0.2073284,-0.13611269,0.10248367,0.02288281,0.05815302,-0.036774553,0.03251651,0.067672916,0.03902309,-0.025105411,-0.059296392,0.10779702,-0.00012872228,0.098504916,-0.17373608,-0.03704816,0.03334611,0.009405155,0.08327227,-0.049715944,-0.2027785,0.0039567463,0.14830397,0.08428152,-0.1988422,-0.038735025,-0.04696544,-0.008762271,-0.07667556,0.10015774,-0.08391138,0.09297849,0.18792714,-0.028910337,-0.01594716,-0.14544241,-0.076120585,0.002016136,0.03134112,-0.12446714,0.049898192
/m/0sxg4	0.009843732,-0.064925686,-0.063660845,0.10068099,0.04624795,0.05190089,-0.21683826,-0.07801805,-0.040716447,0.05351956,0.061450824,-0.059762195,-0.04316603,0.017983582,-0.02176695,0.035637047,0.23485962,-0.09243693,-0.07164806,-0.032075174,0.08881028,0.117566556,0.16025475,0.04973946,-0.07613567,-0.017745588,0.01554933,0.030286,0.044442624,-0.022092074,0.14659268,-0.004010516,-0.05893478,-0.046511885,0.024236409,-0.16746971,0.15849206,-0.002875156,-0.03499732,0.14044222,0.116152786,-0.036757268,-0.0023998837,-0.086799294,-0.0493355,-0.054082286,0.088032685,0.09881442,0.05400837,-0.11123173,-0.13116945,-0.016825931,0.108239606,-0.02480894,0.03492555,0.04732233,-0.08960516,0.038937047,-0.094597645,0.16184677,0.008360975,-0.047439486,0.217362,-0.021562979,0.21180826,0.027212974,-0.12415778,-0.07349305,0.0489643,-0.17286532,0.008208838,-0.049545344,-0.017326636,-0.02155362,-0.028408607,-0.11132127,0.041688785,0.09563658,-0.030498162,-0.07103679,-0.23019978,-0.011583253,-0.06669741,-0.013238664,-0.092117675,0.07732743,0.15629381,0.033771213,0.06792085,0.08862035,-0.124607235,0.05980388,0.11309962,0.052291922,0.008168287,0.07263688,-0.10720563,0.057896055,0.044301882,0.11934873
/m/02gpkt	-0.02199765,-0.11556742,0.015475503,0.0033613178,-0.101807974,0.09455516,-0.08154862,4.5716297e-05,0.043433577,-0.036212992,0.09705178,-0.12821732,0.07678422,-0.094366625,0.09553283,0.022113483,-0.055710327,0.04496995,0.15288346,0.046867438,0.11454934,0.0794518,0.12040812,-0.021537093,-0.09665773,-0.00315149,-0.054712098,0.019983992,-0.14163698,-0.06503263,-0.034258958,0.03357964,-0.0559632,-0.0028550674,0.06883873,0.08424081,0.08729914,-0.012373248,0.15430866,0.14834902,0.074868396,0.08049098,0.033594467,0.062305033,0.06024676,0.048796076,-0.09475096,-0.027169596,-0.15578192,-0.1940759,0.047980122,-0.007910285,-0.042870354,0.13360202,-0.00087809796,-0.18897888,0.16851142,-0.054524604,-0.04755015,-0.042168442,0.06902318,0.05783683,0.08396482,-0.121126935,0.045804262,0.04241702,-0.17989407,-0.09374018,-0.068942256,0.011558668,-0.058822438,-0.061669644,0.12303535,-0.08673475,-0.13032173,-0.02655243,-0.013825899,-0.011298864,-0.07681269,-0.1373164,-0.024086868,0.09824126,0.05819255,0.024107017,-0.08120092,0.1597152,0.05449455,0.00030229893,0.11658898,-0.036986254,0.019217605,0.13512278,0.10788752,-0.012167583,0.0159493,0.11605433,0.013759374,0.05506971,0.10420966,0.047083203
/m/0fvf9q	0.06570702,-0.022595305,0.16788115,-0.13508843,0.08009139,0.0259064,-0.17557207,0.05334524,0.06769618,0.057708167,0.03560844,0.049257424,-0.07919768,-0.043101113,-0.16385789,-0.02088731,0.008981946,0.033282973,-0.013944007,0.024034254,0.17703979,0.12980905,-0.07381134,-0.053163532,-0.06767832,0.12067307,0.07238593,-0.09852284,0.070561476,-0.037104297,-0.14636268,-0.14794292,0.05534776,-0.045704808,-0.010935925,0.10585228,0.073681414,-0.058700204,-0.04024687,-0.026588822,0.03643514,0.18762444,-0.043080527,0.014462118,0.036744624,0.023442643,-0.032133713,0.11870703,-0.08015591,0.11104086,0.020755872,-0.066026345,0.021485629,-0.068355,0.058093283,0.07134348,0.009224206,-0.12664476,-0.09673895,0.09048516,0.017465968,0.10255911,-0.072052546,-0.2754702,0.08213459,0.1028315,-0.3193156,-0.02891768,-0.1477114,0.1152028,-0.040034093,0.1265263,-0.08645126,0.040090706,0.025493879,-0.1838883,0.080079906,-0.05212024,-0.058624644,-0.00076762494,0.025707254,-0.01829071,-0.13418446,0.11341058,-0.06515017,0.0788817,-0.0726393,-0.02002898,0.027522417,0.025510982,0.061429292,-0.09230789,0.03940911,0.03621219,-0.019195896,-0.013115022,-0.13591501,0.018753802,0.07235238,0.08451192
/m/07jnt	-0.06367615,-0.12941775,0.08780694,-0.052421954,-0.14679678,-0.032166988,0.011259285,0.09515915,0.054434292,-0.008587938,-0.06999341,-0.04893797,0.058496673,-0.059949882,-0.017310541,-0.006224304,0.0904099,-0.17286806,0.05187124,-0.19349204,-0.007539534,0.13878383,-0.07818282,-0.099223234,-0.07179325,-0.0955758,-0.13217238,-0.09472088,-0.05523353,-0.04922535,-0.07399718,-0.08159207,0.097086355,-0.011205322,-0.041805048,-0.092114165,-0.07977904,0.032188874,0.12245151,0.032730833,0.14262444,0.052083865,0.0472752,-0.08356081,0.06543333,0.0768221,0.023080815,-0.001329747,0.076075934,-0.116068944,-0.03820211,0.22534722,-0.05334037,0.02095391,-0.009106629,-0.12150819,0.07457276,-0.061998427,-0.052258164,0.103155114,-0.15612936,-0.053230707,0.085842684,-0.020493656,0.13857558,-0.011339288,0.11355454,-0.059646793,0.112419166,-0.040115774,-0.06212471,0.072035424,0.05386326,-0.09565846,0.050333474,-0.013082872,-0.0025666305,0.04106213,-0.016370703,-0.015753662,0.16079617,0.034646563,0.103013456,0.017958354,-0.207443,-0.05163286,-0.04494026,0.0001329151,0.05435907,0.21943471,0.033709742,-0.055623807,-0.17899969,0.018340101,0.049401194,-0.07274282,0.007967076,-0.07772376,-0.12088689,0.15420406
/m/0jz9f	-0.16213073,-0.08158582,0.007954719,-0.15703478,-0.02702396,0.0954542,0.05450455,0.04928702,0.17131527,0.20144719,-0.010534376,0.031622026,0.046340782,0.07486709,0.06268777,-0.014075377,0.116625376,-0.053385295,0.16116509,0.025644382,-0.19838169,-0.010626187,-0.03980735,-0.06393628,0.11278176,0.06879307,-0.1595744,0.033455785,-0.07515462,-0.06269253,-0.06371713,-0.24341126,0.028601684,-0.0928852,0.0370137,-0.038779028,0.0078933425,-0.029514793,0.023661898,0.025001885,0.031732373,0.09778418,-0.05658575,-0.08005779,0.10106052,0.20569131,0.046488486,0.11224077,-0.14972763,0.15582193,0.07256068,-0.08718362,0.0036965827,-0.10858684,-0.022024756,-0.07048442,0.122027725,0.11939123,0.047082014,-0.08897987,-0.17478083,-0.051601246,0.00767049,0.057893485,-0.10704523,0.014397515,0.01903549,0.06811507,-0.07653667,-0.12520301,0.026444638,-0.0668374,0.16739026,-0.11812343,0.036248416,0.022820756,0.16589725,0.07415531,0.14672333,-0.08754184,-0.24288338,-0.048975263,-0.107672356,-0.026857896,0.20424908,-0.014999594,-0.10012333,0.1471199,-0.07018711,0.15798669,-0.013567511,-0.014756531,0.01423588,0.01771964,-0.06427865,0.09943532,0.10323744,0.0118152285,-0.17106363,-0.054896314
/m/0njvn	-0.1383414,-0.08049145,-0.021102255,-0.021113724,0.051883053,0.01806528,0.0826498,0.041829165,-0.02103586,0.10910447,-0.030767893,0.05128735,0.16526003,-0.030179143,-0.0021328426,0.15556817,-0.062424764,-0.017558731,-0.064453684,-0.05167505,0.10312008,0.082110725,-0.07466618,0.12710609,0.057493705,-0.04806757,0.06972,-0.16110657,-0.005265408,-0.12828752,0.026709633,-0.09785461,0.0232738,0.11791584,-0.027518438,0.10005503,0.19246964,-0.04304434,-0.026390465,-0.046312753,0.26412603,-0.024496831,0.017416095,0.13122658,-0.17983527,0.22759545,-0.010262991,-0.12014144,-0.073948026,0.14952606,-0.098904006,0.0104125505,-0.18102174,0.22401062,0.0015750563,0.30733445,-0.011423508,-0.010851798,-0.099428065,-0.038698927,-0.10101705,0.039020438,0.004290009,0.06934719,-0.044549517,0.06732262,0.10264,0.1272527,-0.020408947,-0.081773676,-0.057903677,-0.009817753,-0.047385592,-0.056442875,-0.21416634,-0.124502726,-0.037245456,-0.02773352,-0.011169681,0.040405095,-0.16567768,0.011861533,0.0025253778,-0.030488249,0.03935601,0.077105835,0.0379756,0.16495465,-0.039254714,-0.0023378155,-0.016594546,0.0627593,0.17676312,-0.1596734,-0.099716425,0.10943597,0.024597013,-0.03221511,0.018971464,0.13327971
/m/0d1tm	-0.07281666,-0.0060316375,-0.010380775,-0.03783913,0.041158788,0.036222093,-0.074699625,-0.009835686,0.28071344,0.12832382,0.21083143,0.05639707,0.18165809,0.07151875,0.012407811,0.19690937,0.06983628,0.07310391,-0.018413683,-0.07561186,0.15654573,-0.023135252,0.09815886,-0.033461172,-0.085277215,-0.088563144,0.088174865,0.28647694,0.05167634,0.13723494,-0.13165618,-0.08190768,-0.01565282,-0.055675287,-0.029338926,-0.12468448,-0.12181519,0.07685467,0.027104525,0.026790341,0.00873556,0.031233773,0.09653115,-0.095563434,-0.11939517,-0.058520496,0.08881373,0.025800789,-0.043202933,-0.037130453,-0.008347253,-0.025681164,0.070841,-0.007620803,0.057239674,0.060290873,0.1285377,-0.19266304,-0.1030138,0.014403071,0.031004438,0.060704015,-0.2312044,-0.08023411,0.19098029,-0.082997724,-0.092140906,0.09188286,0.046476085,0.0005202931,-0.20510021,-0.06480128,-0.002172014,0.005851053,-0.010883477,-0.10143803,0.011956187,0.06069837,-0.0005578231,0.14953329,-0.012021815,0.05943676,0.07026144,0.015014905,0.10497207,0.06712484,0.1754578,-0.14647815,-0.09697954,-0.13292907,-0.101360515,0.04119823,0.038714055,0.123357646,-0.11421157,0.13004726,-0.1123961,0.02032353,-0.079908736,-0.046494126
/m/01br2w	0.05199895,-0.08364073,-0.03663454,-0.1240314,0.09187298,0.1730243,0.11930593,-0.120739035,-0.04887087,-0.019923657,-0.09563302,0.016043872,0.2022679,0.042605594,-0.0071251187,0.01975115,0.021680856,-0.120083444,-0.015522282,0.22353558,-0.070142984,-0.11858625,-0.034994762,0.12993507,0.11111876,0.089563616,-0.06928294,-0.15878473,0.024299035,-0.1612457,-0.13528123,-0.1512408,-0.014799028,0.012176912,0.043269936,0.051611796,-0.103871755,0.005758158,-0.13957897,0.07000084,0.035070885,0.02392209,-0.077156484,0.08966224,-0.22255507,0.22164425,-0.08843263,-0.155476,0.09427115,-0.04931225,0.070631504,-0.17569137,-0.049646325,0.19958949,0.14887904,-0.03261917,-0.077835046,-0.10034569,-0.016249768,0.11167048,-0.07781308,0.072213754,0.13358878,-0.037583016,0.013140971,-0.010015398,-0.09176682,-0.13741042,0.13401566,-0.030384926,0.15927644,-0.02014741,0.03580124,-0.0021926467,0.05308265,0.057515852,-0.04281156,0.0826628,0.14545062,-0.0072912313,-0.058568254,-0.08990846,-0.020703973,-0.032784216,0.0021041164,0.19525395,-0.06176089,-0.13293657,-0.06262025,-0.0651034,0.060831513,-0.044459052,0.15254356,-0.09915589,0.02893721,-0.052717146,0.10109379,0.04491715,-0.20872696,-0.12677936
/m/0kq0q	0.01328407,0.024019375,0.08613064,0.23789108,-0.075217254,-0.04035343,0.03962773,-0.13649505,0.105008826,0.11789077,-0.12378622,0.19726492,0.10888675,-0.040760353,-0.13595776,-0.049588136,0.17612259,-0.05447651,-0.050254364,0.09474685,-0.09715173,0.03603449,0.029179491,-0.15540853,0.0057514,0.02970641,-0.035221674,-0.097076386,0.095418364,0.03598179,0.04015535,-0.18467765,0.076830894,-0.1174368,0.051933482,0.052300613,-0.08064269,0.10805727,0.11040363,-0.083459355,-0.24622083,-0.00478275,-0.10540854,-0.21773286,-0.013499375,-0.0015936324,-0.034607373,0.16700175,-0.055947956,-0.06934725,0.014918021,-0.067460075,0.25502372,-0.11028817,0.031127322,-0.0035735173,-0.13034669,0.0038387282,-0.016348489,0.009988664,-0.10969713,0.009600016,0.05074795,0.152968,0.07506377,0.13358109,-0.02410461,-0.025536196,-0.021897323,0.0427597,0.072949834,0.08462949,-0.11153155,-0.16064553,-0.049131926,-0.027076311,-0.088501744,0.089957625,0.057297554,-0.02561525,0.11022814,0.0036572027,-0.035658795,0.0056218654,0.027400669,0.07287668,-0.0052465326,0.040444475,0.01611568,-0.10187826,0.23497045,-0.074396014,0.10445705,0.14824936,0.14359784,-0.12231224,0.03632856,-0.13717057,0.10200274,-0.07473489
/m/03rl1g	-0.08770944,0.0013068274,0.020610005,0.054418832,0.09416389,0.0596308,0.012766005,-0.05726207,0.0076395962,0.14688669,-0.055159368,0.01781027,0.06962864,0.029497765,-0.03508816,-0.019022726,0.024616499,0.023738015,0.07891409,0.18031266,-0.040551547,-0.0027342043,0.19802515,-0.007121618,-0.012579985,-0.031543363,0.05006815,0.12393545,0.0584829,0.069971934,-0.07763586,0.24460189,-0.0096149035,-0.08264174,-0.07151465,-0.116957314,0.0055772816,-0.10865251,0.103210464,-0.09705018,-0.1482888,-0.044320993,0.13427956,-0.053068217,0.15402783,-0.025469674,-0.045226324,-0.19258903,-0.018644573,0.15265624,-0.18793973,-0.037217807,0.14820464,-0.03003992,-0.04122267,0.00366585,0.10240614,0.021348065,0.0097688865,0.037120465,-0.15639848,0.10917609,-0.09854284,-0.12784491,0.05142764,-0.25469622,0.032408144,0.14598703,0.010270413,0.038420938,-0.16792944,0.04032413,0.22748084,0.083267234,-0.005014011,0.055363387,0.116678394,-0.07837014,0.12444155,0.22127305,0.016797332,0.049167585,0.1582056,0.15864836,-0.04736575,0.03860387,0.04698317,-0.19290036,-0.11582054,0.042363007,-0.047731616,-0.0019331448,0.014540879,-0.114628,-0.16850811,0.10232786,0.17212479,0.08154569,0.056197744,0.064272895
/m/0fbq2n	0.07746531,0.026612092,-0.09143774,-0.08573914,0.042865004,-0.0014057608,0.13624904,0.00893195,-0.106209405,0.16681312,-0.044515982,0.039239414,-0.054671083,0.032026663,-0.0801482,-0.001883964,0.026651885,-0.069421105,-0.07839687,-0.0916977,0.09441632,0.11153684,-0.042392604,-0.037154384,-0.01237457,0.008052567,-0.02955634,-0.07822127,-0.058435015,0.27220586,0.10480786,0.022469288,-0.2028019,-0.07143395,0.15026772,0.012272612,-0.070569,-0.18419904,-0.03763602,0.13053098,0.095135525,-0.027954055,-0.002776494,0.13441806,0.15139283,-0.14716215,-0.13661702,0.00805907,-0.061410833,-0.0030275218,0.08201789,0.17372052,0.03821521,0.037238494,-0.050144125,-0.07107744,-0.12806058,0.15887062,-0.0067677964,-0.18338348,-0.1988667,-0.09157466,-0.04699089,0.024520097,-0.025068019,-0.05552508,-0.002381543,0.03106091,-0.06314522,-0.12979391,0.09108788,0.15827724,-0.08589482,0.13663718,0.08665954,0.0151532935,-0.1116966,0.11323026,-0.00097208563,0.056152157,0.053709846,-0.03925457,-0.023055783,0.17118087,0.055352774,0.0028610313,0.0032211046,-0.013877101,0.04920855,-0.073084585,-0.026264468,-0.24596696,-0.05109634,-0.19810571,-0.12770404,0.21402687,-0.06174412,0.07592362,0.06430658,0.15239953
/m/060bp	-0.11045246,0.07164112,-0.0055756895,-0.0059759114,-0.09249151,-0.08821248,-0.09942099,0.08201983,0.027155114,-0.008256007,0.10153881,-0.0007550856,-0.010859132,0.009298876,-0.09731788,0.1257853,-0.028869867,0.08382166,0.0971506,-0.003489014,0.055283222,0.039639816,0.019630767,-0.04818815,-0.01462161,-0.0026458374,0.015247776,0.10237949,-0.108929306,0.01919238,-0.010099625,-0.06331928,0.018384112,-0.08267695,-0.21656828,0.24011742,-0.14560865,0.049080405,-0.055999983,-0.15323494,0.12105455,0.02593492,0.09572473,-0.056139097,0.13955013,0.110496685,-0.11772704,0.13301687,-0.12403928,0.034855805,0.16428572,0.07451295,0.18714957,0.01999815,-0.09384023,-0.094232515,-0.16648808,-0.092512175,0.13394825,-0.07038972,0.08694132,0.16726914,0.13168329,-0.0004992918,-0.0757991,-0.077275746,-0.11041614,0.07047223,-0.1100173,-0.050775494,0.0928748,0.0064952467,0.05199719,0.09418359,0.109268926,-0.04900083,-0.14884064,0.09560005,-0.15964541,-0.29563415,-0.010702754,0.012975232,0.1600158,0.15670794,0.07247403,0.10048422,0.026547868,-0.085458405,0.046214428,0.063422814,0.11324511,-0.17892404,0.038542975,-0.008795623,-0.118425995,0.15145783,-0.02425864,0.14402916,0.10400617,-0.011387091
/m/04qvl7	-0.0093689095,0.12084371,-0.007206765,0.13958292,-0.043045674,0.009745369,0.030410362,-0.054231342,-0.041088063,-0.044246495,0.12635864,0.06845884,-0.069183275,0.03671261,-0.075225875,-0.08695611,0.15205893,0.17382419,0.17532326,-0.0886806,-0.113933116,-0.06889872,0.121370405,0.010718087,0.117251,-0.1679727,-0.0012793506,-0.049950525,-0.100371026,-0.103704855,-0.14448169,0.024240915,0.0449109,-0.0008911701,-0.0869506,-0.035009857,-0.050563313,0.112027936,-0.14306346,0.06650715,0.13717002,0.052213438,0.1517674,-0.04197691,-0.0046342835,0.10841048,-0.02047458,-0.045860473,-0.008722673,0.075067475,-0.0744829,-0.04404931,0.025785344,-0.0070427265,-0.18395764,-0.018232325,-0.079041906,0.08900741,-0.031704932,-0.19639482,0.15278986,0.013769285,-0.19019414,-0.008323109,0.030154185,-0.08064003,0.17812337,-0.08744364,0.0011032426,0.034145005,-0.16006596,-0.032854266,0.0060902056,-0.1457077,-0.041406997,0.28698355,0.09762789,-0.045774557,0.04785579,0.15753964,0.104240194,-0.023887036,0.21770872,0.040743783,0.12712477,-0.16112071,-0.08507675,-0.112046055,0.019635292,0.08799587,-0.14207855,0.024528958,0.00065379613,0.14443922,-0.03372892,0.045904234,0.022903569,-0.06742844,0.03713263,0.08462533
/m/04yywz	0.025691709,-0.02785278,0.048623577,-0.024419837,0.040834915,0.013422832,-0.0194296,-0.30491152,-0.03651295,-0.02268556,0.09925426,-0.038911626,-0.21474957,-0.116927534,-0.17122869,0.090390734,0.057091866,0.15232877,-0.107551806,-0.15946572,-0.009955202,0.040431954,-0.09126533,0.012039964,-0.06833716,0.03100586,-0.023194598,-0.1941345,-0.13808368,-0.023923717,-0.111846946,0.1169819,-0.04292593,0.0059669823,0.16527139,-0.043620914,0.13020976,-0.003830611,0.064298265,0.18167569,0.021511447,0.048999105,0.08149545,0.33815476,0.10163669,0.044846546,0.08807034,-0.03151392,-0.07270307,0.09275297,0.059345987,-0.14574914,0.036451347,-0.07252973,0.060700953,0.024307996,0.12471764,-0.008097382,-0.0377561,0.038404875,0.12641913,-0.05356799,0.20277165,-0.026118767,0.10419363,-0.058471803,0.118247814,-0.0684882,-0.11216755,-0.13230436,-0.0026659304,-0.05983286,0.20404117,0.057508077,-0.13089025,-0.1767459,-0.08799386,0.006053387,-0.05966023,0.021283286,-0.02490422,-0.111570984,-0.06036386,-0.08431605,-0.014474783,-0.04137803,-0.0013681282,-0.014497686,0.17180644,-0.0045566144,0.023435008,-0.04867445,0.11927591,-0.06285779,0.10089053,0.035458602,0.04005665,-0.03075376,-0.07355198,-0.0023535918
/m/01k7d9	0.006986419,0.114421144,0.06802852,0.0013320944,-0.08452464,0.05730223,-0.029530847,0.013887699,0.07816414,-0.036360547,0.20038421,-0.027223732,-0.13224043,-0.01955387,-0.12297203,-0.12642959,-0.01636768,-0.011632356,0.100788765,-0.08651665,0.04711868,0.07901211,-0.026947688,-0.100181736,0.28113067,0.027752517,-0.1266937,0.00547342,0.10505169,0.09368472,-0.057625256,-0.067838706,0.010634501,0.05003382,-0.017857501,-0.06874717,-0.15930237,-0.009236403,0.071640834,-0.05784573,-0.18736115,-0.13860759,0.1800237,0.03839393,0.19695088,0.00026151468,-0.013928753,-0.08607668,-0.0064826645,0.17188123,-0.026609236,-0.0051859496,-0.083554335,-0.069634095,0.04802918,0.1918415,-0.10304952,-0.060808603,-0.19341345,0.0002731674,0.008619698,0.085772514,0.15021469,-0.15908523,0.021755723,0.093435176,0.11141115,-0.11168474,0.051002614,0.047742113,-0.23915468,-0.030629782,-0.08576362,0.039841805,0.08345049,-0.15326189,0.02198545,0.06768967,0.057209183,0.0043939073,-0.11783857,-0.0013289519,0.0090196375,-0.011354093,0.17723696,-0.078234546,0.09228847,0.030173454,0.042924106,0.027448783,0.10174943,-0.04212864,-0.24445932,0.13553493,0.13003482,0.0411018,-0.07016569,-0.047782484,0.02241323,-0.18493773
/m/02p65p	-0.04123695,-0.22968514,-0.14090106,0.09272432,0.052008465,-0.006460579,-0.084723756,-0.097960435,-0.03759402,0.1348619,-0.16195355,0.116338365,-0.121638015,0.058199085,-0.007432862,-0.06605938,0.044246804,-0.10939284,0.16009039,-0.18941349,-0.0015021621,0.085907735,0.021794064,0.030351887,-0.12629354,0.12053605,-0.053955678,-0.06033382,0.12998302,-0.0069184173,-0.123710044,-0.06306232,-0.05302336,0.053755738,-0.06693305,0.1467778,0.06015212,0.025616419,0.078722104,-0.009275223,0.13662906,-0.033041786,-0.17591473,-0.0014756657,-0.022149,-0.106991135,-0.108559154,0.00499102,0.05256014,-0.0418729,-0.25521642,0.006283351,-0.011144232,0.24265397,-0.05755001,0.16361193,-0.026450397,0.03214081,0.0119489515,0.027496591,0.099592514,-0.028902844,0.1291699,-0.15292126,0.12991385,0.003142403,0.0264748,0.14444205,-0.009618136,0.01807171,0.020678025,0.008040392,0.03634975,0.101862326,-0.05981592,0.20525868,0.005651214,0.05435547,0.052371264,-0.07411386,-0.12669334,-0.13954599,-0.0323666,0.066901125,-0.15125886,0.12927555,0.14210682,0.08390167,0.031612914,-0.051917765,0.060111497,-0.028151436,0.17408125,0.0064543113,0.14846781,0.114967115,0.11153639,0.07630237,-0.18298724,0.14602272
