1345 100
/location/country/form_of_government	0.028431773,-0.4728117,-0.008339974,-0.017824465,0.18815118,0.053949676,0.14348263,0.06818979,0.061952874,0.1187106,0.0028066053,0.03538639,-0.0950197,0.18058023,0.03953877,-0.045850072,-0.25769678,0.18789266,0.08398529,0.052668482,0.057933893,-0.050840296,0.05093075,0.02029636,0.01638861,-0.09020002,0.004447069,-0.13847688,0.011306018,0.058169276,-0.055280045,0.044237852,-0.09877037,0.0070881406,0.1830014,0.11901862,-0.034712538,0.028522553,0.022725552,0.04855868,0.03888474,0.11254298,0.12972142,-0.03523752,0.17501926,0.060074896,0.01459693,0.17263347,0.020742448,-0.018202536,0.07159615,-0.16059533,-0.09393932,-0.03608429,0.0673127,-0.045078542,0.07745899,0.16315724,-0.05328495,-0.014134271,0.005385702,0.11664308,0.14476886,0.13549803,-0.027082406,-0.031661935,-0.08049725,0.12869188,0.12869024,0.0010372143,0.029768685,-0.069330096,-0.09376272,-0.04912557,0.058714803,0.024663676,-0.074452214,0.03294107,0.0013153927,0.048644513,-0.01624502,0.0926488,0.0060474467,0.0064053074,0.004824561,0.08731123,0.06699403,-0.015924314,0.12883557,0.06620277,0.119265504,-0.032902814,0.092091694,-0.11230662,-0.08317298,-0.05092228,0.16781674,0.11336005,0.05801626,0.040841475
/tv/tv_program/regular_cast./tv/regular_tv_appearance/actor	-0.037429184,0.08894465,0.10567354,-0.043024868,-0.01829183,-0.06435611,0.14449085,0.0033554442,0.17101537,-0.011942387,0.016248353,-0.0076332847,-0.1829878,0.02315761,0.17464277,0.016695859,-0.036694404,0.05823654,-0.07790684,-0.03796004,0.19488187,-0.1590519,0.06907974,-0.13047647,-0.06992926,-0.09238433,0.0027976702,0.10981714,-0.140742,0.0282664,0.05688211,0.031141058,-0.11171337,0.009867865,0.23065102,0.08860677,0.012811438,-0.11339129,-0.105381295,0.17152438,-0.031000804,0.0614893,0.13082483,0.056339838,0.10086285,-0.02230553,-0.08704769,0.07553671,0.089079075,-0.09840337,-0.014454255,-0.0919562,0.04839379,0.14677548,-0.02007044,-0.12780006,-0.22124094,-0.05470749,0.04629254,-0.12423155,-0.10321996,-0.11994901,0.22315712,-0.17024533,-0.07770005,0.029546645,0.035787232,-0.053177875,0.063294016,0.08567343,-0.015629226,0.051738802,0.012514945,0.028034247,0.10504082,0.13746761,0.0005307997,0.054459352,-0.013273063,-0.037016995,0.27802113,-0.015878806,-0.004004928,0.04177173,0.10236488,0.025889564,-0.11888277,-0.2261367,-0.038247366,-0.037558038,0.010206428,-0.14420909,-0.098340586,0.037194442,-0.12358021,-0.055385403,-0.1234558,0.070242025,0.07563289,-0.0136191035
/media_common/netflix_genre/titles	-0.12353007,-0.026651217,-0.07126888,0.054124758,-0.05131834,0.20254576,0.07981706,-0.17504399,0.13638249,0.05305404,-0.14326522,-0.10483668,-0.005512065,-0.12456894,-0.05353848,0.26137808,-0.16141193,0.19621544,0.058263186,0.04646475,-0.0567266,0.07251801,0.1959394,0.0032301208,-0.012496524,0.079268396,-0.0320053,-0.06297887,0.10474195,0.055843342,0.05792673,0.14353275,0.07172745,0.117477976,-0.014994852,0.0040481477,0.030291155,0.040450394,-0.06101785,0.09320724,-0.03304851,0.0748928,0.06063943,0.09306794,0.16348681,0.15762186,0.04473086,0.19914073,-0.18926217,0.16068706,-0.028842684,-0.020972032,-0.15250844,0.028913453,0.005086165,0.020938117,-0.04236522,-0.01715769,-0.0015790883,0.10080316,-0.012869444,-0.008468749,0.116345026,0.12984604,-0.050264113,0.016776394,-0.0419531,-0.025600666,-0.0610134,0.064782366,0.06611017,-0.09408116,-0.10764951,0.021044973,-0.020891326,0.16459854,0.1695502,-0.10255971,-0.0750936,0.15761533,-0.14429441,-0.011715755,-0.0053251605,-0.121283844,-0.076877125,-0.023495143,0.1576209,-0.0026481687,0.25166863,0.033199858,0.02298453,-0.029748172,0.039405227,0.10387644,0.011078503,0.08320182,0.03633445,0.14222695,0.042307347,0.13783133
/award/award_winner/awards_won./award/award_honor/award_winner	0.09509503,0.106712505,0.083236806,-0.045111947,0.023542432,-0.1321217,-0.016374037,0.017656513,-0.0034460912,-0.042871498,-0.001631292,-0.06898736,0.14817336,-0.01793666,0.0061277933,0.079835564,0.06316806,-0.046850614,-0.040456682,-0.08982857,0.063085526,0.011065879,-0.03323362,-0.11327019,-0.029066134,-0.00443258,-0.17693499,0.12524432,-0.087440066,6.8882124e-05,0.085498095,-0.016734041,0.006934535,0.08065632,0.037982203,0.029736344,-0.026808616,-0.017154358,-0.0031207372,-0.12966482,-0.09109246,-0.07973975,-0.10347437,0.109663665,-0.10066213,0.01615679,0.0005567345,0.18332966,-0.1074589,-0.036112387,0.086882755,0.12563977,0.030889312,0.039908208,0.10199852,-0.14545338,-0.26955077,0.0010512193,-0.112162784,0.012592253,-0.081888445,-0.047916044,-0.060696244,0.048024938,0.07086032,0.031696785,0.07023351,0.08653963,-0.065923974,0.008670688,0.0063601197,-0.0431691,-0.2402276,0.11542762,-0.13272296,0.2715819,0.03689932,0.09986794,-0.053468492,-0.08091893,0.035815444,0.21476817,-0.1565729,-0.07249076,-0.0358061,-0.2328585,0.17255387,0.038234796,0.16996434,-0.09038283,-0.048000928,-0.02071131,0.14253949,0.09364745,-0.07060979,-0.12633124,0.10385495,0.15591678,-0.010925271,-0.23339617
/soccer/football_team/current_roster./sports/sports_team_roster/position	-0.102088824,-0.08008329,-0.049717125,0.049726635,0.07310882,0.074911505,-1.49380785e-05,-0.06156304,0.084311366,0.15605639,-0.015277939,0.002168937,0.13144806,0.13934885,-0.14554644,0.08964835,-0.028948274,0.16494271,0.22768088,-0.007347641,0.022956602,0.06773625,0.029654054,-0.02931266,-0.06576405,-0.06972539,0.11426577,0.0693972,0.019130157,0.1423884,-0.108156726,0.074623786,-0.13822402,0.17986088,0.06148752,0.16470328,-0.09356131,0.019600598,0.28639507,-0.013858852,-0.039873555,0.21351764,0.09211577,-0.10791816,0.08031022,0.06598838,-0.026431946,0.19463585,0.08525773,0.10497888,-0.17431629,0.0347322,-0.20941241,0.036383864,-0.124085695,-0.02643684,0.063783444,0.17239282,0.095548116,-0.023936287,-0.07982942,-0.09521171,0.093495056,0.04139468,0.039562408,-0.0017188353,-0.124795236,0.026874142,-0.06402709,-0.087624796,0.057123862,0.06918102,-0.1320255,-0.09186896,0.13731869,-0.043934546,0.059010122,0.09450271,-0.04560433,-0.1598091,0.08585467,0.09367314,0.010387516,0.018553628,0.0049338844,0.062646635,0.06901634,-0.04027498,0.17668003,0.10447999,-0.09859302,-0.049008816,-0.0064668735,-0.013093291,0.09059769,0.037534315,0.08970004,0.044950977,-0.15539756,-0.014194351
/sports/sports_position/players./soccer/football_roster_position/team	0.10552159,-0.016202966,-0.09072232,-0.12770677,-0.077452146,-0.0003816399,0.031512316,0.0575676,-0.19184892,-0.10635493,-0.032820843,-0.042501338,0.08173069,-0.04805756,0.15405317,-0.07548199,0.043932874,-0.24306825,-0.17083853,0.017441578,-0.19011249,0.025777169,0.068477534,0.10851143,0.012174622,0.0711082,-0.07189219,-0.06117468,0.13274458,-0.16141894,0.10571276,-0.12373279,0.046110068,-0.14891922,-0.0049053957,-0.111212395,0.08300897,-0.04407961,-0.24778661,-0.026127977,-0.01831035,-0.13830796,0.034640916,0.10718116,-0.048110772,-0.01785412,0.21495101,-0.2136607,-0.059650127,0.03459541,0.09226176,0.103293516,0.039308745,-0.016195066,-0.01867999,0.009652161,0.09013574,-0.0829122,-0.11327185,-0.003158017,0.12777625,-0.024651686,-0.030192917,0.035741024,0.0069040735,-0.07002025,0.18227026,0.0029048235,-0.07135255,0.0016570662,0.008153259,0.087724246,-0.015281717,0.004342753,0.083210334,0.083539195,-0.049678173,-0.079219036,-0.058340143,0.04123467,-0.21252987,-0.26920134,-0.0066984547,-0.00644119,0.071297765,-0.027360434,-0.021070627,0.10879293,0.055249278,-0.13842255,0.074247636,0.115992606,0.018702725,-0.012016982,-0.027522841,-0.02980998,0.0145232715,0.03635049,0.053621087,-0.029022586
/government/political_district/representatives./government/government_position_held/legislative_sessions	0.06346137,0.025750944,-0.025380364,-0.29299808,0.053254247,-0.0219636,0.10169959,0.064973004,0.007834189,0.13846788,-0.008940125,-0.058860563,0.02972682,0.12585832,0.014378248,-0.20603952,0.0105713,0.021719994,0.02061203,0.20626819,-0.12156256,0.2693241,-0.008487854,-0.034079902,0.059029993,0.11654687,0.061517425,0.20979668,-0.02099184,0.030920696,0.039321743,0.028720265,0.043110583,-0.026451914,0.08627366,-0.16179775,0.17640398,0.032191362,-0.045288894,0.024651635,0.021956164,0.050056964,0.0078098406,0.13869873,-0.004194488,-0.09254395,-0.1577959,0.00017283756,-0.08608963,0.015245903,-0.04385911,-0.043631338,0.040488087,-0.08700895,-0.04942069,-0.0074105468,-0.11967741,-0.032703374,-0.0050164578,0.048421636,-0.0065027173,-0.1618342,-0.018665161,-0.095713966,0.10744832,0.007138238,-0.07244729,0.12555937,0.01782633,-0.07066414,-0.1372074,0.010766829,-0.12590832,-0.0948869,0.066881925,0.100373074,-0.24361879,-0.20095389,0.07707967,-0.073378734,0.05352023,-0.06540658,0.026176369,0.05725681,-0.07919076,-0.122294754,-0.1819975,-0.058879383,-0.0052546817,0.1942336,0.06636617,0.022968378,0.16537884,0.004709623,0.051357146,-0.03880589,-0.08941918,-0.1923633,-0.080311656,0.118684955
/film/film/starring./film/performance/actor	-0.11077943,0.07985436,0.16459289,-0.07101864,0.037992343,-0.15451196,0.0652947,0.09177326,0.069571756,0.12657076,0.03453673,0.04324172,-0.21826127,-0.040800504,0.101810805,0.053930756,-0.080089405,0.007198744,0.07925676,-0.10759251,0.17174551,-0.1464015,-0.10291951,-0.08125064,-0.11762507,-0.1670383,0.06162095,0.1501121,-0.2191447,0.0561436,0.041481443,-0.036406144,-0.031477578,0.08417463,0.098062076,0.08691644,0.017391259,-0.12890281,-0.077285714,0.070067696,0.110375814,0.15050875,0.09241413,-0.025744447,0.09281372,-0.16550548,-0.09589254,0.07954707,0.112171546,-0.15190935,0.04029904,-0.009356773,0.21984072,0.041771457,0.11048543,-0.08191008,-0.11683253,0.04213644,0.07633064,-0.08133747,-0.08453887,0.0065590525,0.11378011,-0.064165264,-0.05198974,-0.020020578,0.046413533,-0.06137771,0.051845968,-0.07785844,-0.08110161,-0.19120419,0.10289744,0.039338194,0.10269489,-0.07909143,-0.08680614,0.043576732,0.17554483,-0.016354661,0.10772682,-0.0049777827,-0.011480665,0.09804647,0.08204251,0.056155566,-0.12169654,-0.21018621,-0.10839382,-0.03608106,0.08140507,-0.08683238,-0.08419856,-0.041035593,-0.15308315,-0.18096085,-0.056808263,-0.05572164,0.08739497,0.10096007
/soccer/football_team/current_roster./soccer/football_roster_position/position	-0.038102902,0.04681371,-0.046478342,0.10623307,0.195851,0.06421843,-0.07334717,-0.02319585,0.06964944,0.007941293,0.09678942,-0.09487598,0.13155478,0.16192074,-0.067936815,0.07338722,0.030627655,0.041884057,0.10581697,0.06326111,-0.037857957,0.02675295,0.10452378,-0.047135733,-0.009298308,-0.19438984,0.09553529,-0.085083894,0.007300299,0.059337582,-0.19927682,0.041902598,-0.05755981,0.11905016,-0.105938,0.11967189,-0.10200168,0.05696797,0.06756965,-0.032360345,-0.11353052,0.06370896,0.0033780143,-0.100020394,-0.0036026842,-0.0041035,-0.22287244,0.10731744,0.011932652,0.07880385,-0.14013016,0.055381794,-0.16539733,-0.107548155,-0.0109914215,0.057437357,0.08370829,0.42282572,0.15715265,0.038160093,-0.06066566,0.01744181,-0.035264056,0.085196316,-0.022085756,-0.11849889,-0.13977155,0.017598566,-0.046542034,-0.08024643,0.1149379,-0.09795449,-0.0162575,-0.067569904,-0.09087963,-0.0545718,0.17623271,0.13086738,-0.072813734,0.012232969,0.047711097,0.12461903,0.032640614,-0.08008495,-0.08800175,0.022502448,0.07521161,0.070117004,0.084914915,0.13923521,-0.09430101,-0.057105184,0.042948388,0.1345134,0.06296658,-0.012705116,0.18670885,0.057478655,-0.051003426,-0.001897428
/film/actor/film./film/performance/film	0.04279906,-0.08408475,-0.16051549,0.02913906,-0.0131161185,0.10809753,-0.06654091,-0.080771,-0.045507595,-0.055174902,0.04465699,-0.022240393,0.20653933,0.032982722,-0.11024609,-0.025657326,0.11599889,-0.06487642,-0.008671687,0.07014351,-0.19838426,0.20084883,0.031510063,0.07554681,0.022237945,0.21489698,0.007863366,-0.21188006,0.22805876,-0.019196328,-0.009812504,0.092363775,0.0066660927,-0.17224646,-0.052568946,-0.03126188,0.023111343,0.10658365,0.06510899,-0.12418177,-0.020225668,-0.14533794,-0.11073577,0.057283275,-0.1365337,0.1541727,0.052848447,-0.14993286,-0.10958844,0.09184702,-0.03414875,0.082571894,-0.22478905,-0.049317148,-0.100190155,0.039666966,0.05021371,0.040434677,-0.09723977,0.16970699,0.08126916,0.041702684,-0.18953755,0.08173185,0.11927392,-0.031161806,-0.03783933,0.05375647,-0.10702419,0.039736744,0.117615364,0.16611715,-0.1106585,0.024678553,-0.10372665,0.039596867,0.02847216,-0.021460352,-0.07556136,0.018065648,-0.15481809,0.091077425,0.0032646977,-0.096976995,-0.13423543,-0.094328724,0.07379615,0.1906394,0.10057967,0.027101493,-0.07384759,0.085946396,0.07559873,0.039333288,0.022134542,0.04204877,0.13120684,0.017905187,-0.054273255,-0.07613696
/award/award_nominated_work/award_nominations./award/award_nomination/award	-0.17974563,0.11586285,0.103904955,-0.037500236,-0.058047514,-0.16903844,-0.07672433,0.051973477,-0.0547406,0.034420505,-0.18261027,0.15193364,-0.12355114,-0.025587277,-0.18259168,0.014304669,0.010935346,0.22831361,0.113308296,-0.13640751,0.084943,0.08192357,-0.10837005,0.052892588,0.030211465,-0.057355188,0.09016416,0.27363354,-0.019112885,0.06052217,0.09369593,0.109419435,0.087807976,-0.108680405,0.04331357,0.06504086,0.07750905,-0.021954754,0.06435279,0.027215123,0.009586653,-0.15393798,-0.16714308,-0.16807635,0.045333732,-0.025249414,0.10865669,-0.03137172,-0.063884445,-0.21078962,-0.062065,-0.024897624,0.07723964,0.053830355,0.11036407,-0.03742232,-0.04650679,0.045947034,-0.092951104,-0.09642658,0.09901909,0.060937803,-0.036482334,-0.110560514,0.15530513,-0.008000698,0.16214357,-0.08234343,0.047359265,-0.12947819,-0.01887367,-0.10354626,-0.006051291,-0.11080878,0.020304916,-0.08847062,-0.059851594,0.012984756,0.088636585,-0.033864535,0.11620152,-0.06353292,-0.03317078,-0.007030875,-0.011817037,0.09401184,-0.088449076,-0.042864338,-0.2677376,0.012556228,0.13273789,0.023229321,0.019128738,0.053909343,-0.10464151,0.030032678,-0.25049898,-0.074808404,0.014742294,-0.014771358
/award/award_category/nominees./award/award_nomination/nominated_for	0.12498018,0.027195746,0.06967282,0.02624918,-0.017973714,0.29295272,-0.12838694,-0.13057841,0.14330855,-0.09807825,0.14085318,0.14697158,0.13974093,-0.008971946,0.054146975,-0.07630522,0.058232993,-0.009507789,-0.13886929,0.076993465,-0.11011546,-0.17344263,0.15317006,-0.11695549,-0.092523344,-0.012990223,-0.16782814,0.07186423,-0.01939944,-0.17516126,0.12982471,-0.055533424,0.15847933,0.051419754,0.0035732323,0.14086069,-0.029853854,0.049928177,0.0023351265,0.13891953,-0.07822627,0.07920074,0.0058135246,0.15302306,0.008614546,0.13295557,-0.09956516,0.08774821,-0.15386982,0.17307168,0.010360675,0.040911797,-0.11296147,-0.0020602054,-0.16097918,0.023441002,-0.1381188,-0.119470455,0.021573834,0.16485031,-0.054962236,0.08630172,-0.06544737,0.039251722,-0.095472746,0.048118956,-0.033273842,0.10346497,-0.0723125,-0.020650486,-0.038284685,-0.0558562,0.13231346,0.10922345,-0.0970955,0.10085207,0.021328116,-0.056207567,-0.045310546,-0.15447725,-0.06311098,0.25089484,0.008766786,-0.061074555,-0.0065814485,0.009331758,0.1201688,0.03496209,0.09766542,0.03573848,-0.08642972,0.06365388,0.04005416,0.07232989,0.01835386,0.11983875,0.12049536,0.066489704,-0.002071483,-0.075727366
/organization/membership_organization/members./organization/organization_membership/member	0.050446585,0.07313115,0.105668284,0.042096026,-0.14234272,0.005385732,0.03143573,0.012962324,-0.20604865,-0.017037602,0.031275053,-0.14043358,0.09753373,-0.08304881,0.12506399,-0.0061940737,0.006745516,-0.09064279,0.057701364,-0.008659653,0.07196553,-0.20260856,0.13730925,-0.013322813,0.122735724,0.048162244,0.09890156,-0.030926336,0.08646265,-0.14748429,-0.09676675,-0.10329318,-0.012857692,-0.029073037,-0.16638947,-0.017049227,-0.13814768,0.10844138,0.04501504,-0.08364799,0.04782301,-0.020182103,0.07786583,0.10550802,-0.19879265,-0.09668685,0.039128434,-0.19966042,0.03633513,-0.07680985,-0.017096663,-0.048834357,0.06776646,-0.00017574395,0.013905288,-0.0055000815,-0.08025679,-0.06469914,0.1516425,0.033254746,0.022911284,-0.15377581,-0.013782673,-0.21237665,0.06339016,0.06574112,0.141077,0.06382097,0.09221113,0.16241641,0.086338736,0.0041024946,0.019046083,0.0459471,0.11707876,-0.15856361,0.0267649,-0.027524035,0.1407569,-0.12678334,0.2890523,0.09199767,0.11126853,-0.08487927,0.14996037,0.012938939,-0.14653227,-0.025059085,-0.15012334,0.05605291,-0.12248259,0.031112732,-0.06989367,0.06465355,0.07275614,0.081329785,-0.11505377,-0.1531556,-0.031665266,-0.026228212
/award/award_nominee/award_nominations./award/award_nomination/award_nominee	-0.08876647,0.04354677,0.038618848,-0.030052293,0.01765654,-0.0275277,-0.107179806,-0.016830927,0.05854576,-0.16639331,0.0912222,0.22717877,-0.07450426,0.081829175,-0.011217568,0.0039574085,-0.03079616,-0.0581413,-0.25581798,0.103057444,-0.14039518,-0.059251357,0.160951,-0.0018117438,0.04112727,0.03211763,-0.09062008,-0.22034317,-0.090092264,-0.047487453,0.010742714,0.05337558,0.1263374,-0.054573823,0.089348145,0.0044691656,-0.051029608,-0.0990467,-0.14125553,0.020679409,0.04872271,-0.04073399,-0.1022872,0.05189228,0.026362138,-0.18175076,-0.1243698,-0.061328705,0.007316377,0.08840758,-0.027379986,-0.01746853,-0.1066028,-0.25558594,-0.11374144,0.11644214,0.08179033,0.09082165,0.039708905,-0.108231016,-0.10416234,-0.1526215,-0.059868373,0.07791266,-0.010479926,0.0035301796,0.015134739,0.2942922,0.07843882,0.07258499,0.03038169,0.034612432,-0.022332683,0.11468619,0.076130405,0.08893893,-0.13649367,-0.017138293,0.046261605,0.009877741,0.065068305,0.12404588,-0.00810413,0.016716935,0.089618936,-0.13557738,-0.27094486,0.15234497,-0.050262462,0.026391208,0.07029929,0.099101186,0.050336227,0.007966439,-0.033688094,-0.015526836,0.045371793,-0.1563175,0.112457946,-0.07915964
/olympics/olympic_sport/olympic_games_contested	0.010265859,0.025513284,0.0015477452,-0.037722085,0.09927497,0.06470249,0.16161084,-0.12696937,0.048902307,-0.133297,-0.029730808,0.048954852,0.03905228,-0.08245728,0.027671574,0.056890313,-0.1318433,0.08223507,0.10352943,-0.07806518,0.023321433,-0.062997654,0.0011497587,-0.08395453,-0.0030795068,0.050515447,0.1795664,0.0120110875,-0.25123626,0.09295516,0.129338,-0.0979162,-0.07196089,0.06778018,0.1105829,-0.03525284,0.030268844,-0.026782235,0.110184446,-0.07977723,-0.1272519,0.071029566,-0.018681703,-0.020728886,0.03916286,-0.00923485,-0.037627004,-0.069322355,0.010743664,0.09963659,-0.059167814,0.0028056027,-0.037215833,0.032077804,-0.2887606,-0.0019618373,0.047830235,-0.16555989,-0.014412318,0.05960243,-0.019647101,0.1412288,-0.029584894,0.19847077,-0.006758081,-0.004949396,-0.07105562,0.048560448,0.02355954,-0.057747595,0.02630976,0.1219053,0.05835579,-0.0996544,-0.07199292,0.11154582,0.00530795,-0.30126655,-0.1373765,-0.022196282,-0.09184808,0.026966147,0.002969495,-0.02028077,-0.10092127,-0.0020007044,0.36514387,0.012203315,0.29544654,-0.034821026,0.11902813,-0.0116772335,0.027502034,0.09092463,-0.0030920745,-0.07587203,-0.13051692,-0.067726515,-0.022795904,0.015698163
/music/performance_role/regular_performances./music/group_membership/role	0.045222946,0.058823787,-0.038633753,-0.003548131,0.03184225,-0.09819251,-0.21539746,0.11805542,-0.0394591,0.13654122,0.017305834,-0.09296356,-0.06613713,-0.157721,-0.12704337,0.015201585,0.16317962,-0.035180446,0.08072133,-0.0018067433,-0.023601925,0.20037526,-0.063997164,-0.2838822,-0.053882513,0.048490934,-0.115497954,0.14342834,0.20966002,0.033081204,-0.004292356,-0.0142047,0.02507203,0.0503481,-0.031628415,-0.04776072,-0.1167074,-0.12489329,-0.04750405,0.104015276,-0.16373733,0.049407683,-0.15018414,-0.042099405,-0.09948429,-0.11119944,0.12086114,0.013050391,0.09081704,-0.046670243,0.008050496,-0.06816392,-0.053663395,0.09846711,0.05595105,-0.03060148,-0.117587574,0.17592888,-0.06893444,0.19332492,0.2078056,-0.10265919,0.07086916,0.06768477,0.12302292,-0.0768165,-0.054082543,-0.1923747,0.008517061,-0.12649468,-0.13626376,0.120134376,-0.054920327,-0.06372912,-0.040001098,-0.074250534,-0.15063788,0.04673527,-0.010699916,0.04305859,0.067867175,-0.07411187,-0.15155233,0.060058273,0.002253414,-0.07985602,-0.03951445,0.13749394,0.0112951575,0.066000715,-0.078103155,-0.05873063,-0.038696047,0.09810858,-0.081734024,0.20240985,-0.046423722,-0.06299999,0.004850935,0.05318451
/award/award_category/winners./award/award_honor/ceremony	-0.11170298,-0.028917704,0.086393766,-0.055623595,0.23582137,0.05369908,0.07548945,0.025244962,0.06837919,0.09173147,0.086352386,-0.07199198,-0.25043127,0.019949486,0.034603573,-0.010247192,-0.14279643,0.04531643,0.012621241,0.11726442,0.25392747,-0.19342701,0.14348999,-0.010486718,-0.064166926,-0.17883167,-0.09330766,0.11510582,-0.08996403,-0.06850917,0.059074234,-0.0051851138,-0.122708954,0.20922965,0.010146215,0.04017189,-0.070786,-0.05363801,-0.046684656,0.01972696,0.06205266,0.17630824,0.11488243,0.051575337,0.016113816,-0.13426073,-0.09419776,0.06930741,-0.04665097,0.057887986,-0.14581685,0.03487814,0.09065941,-0.040708512,0.08081889,0.013144994,-0.16343056,-0.03109956,0.15086128,0.036103934,-0.063636005,0.109360635,0.22588302,-0.04608173,0.02047341,-0.002446164,-0.060918532,-0.005545962,-0.016978044,0.056246933,-0.06977508,-0.051585887,-0.10954302,-0.03822786,-0.038090404,0.18928619,-0.00048149377,-0.027752042,0.06879003,0.029785428,0.21061872,0.10219345,0.044114046,0.0752235,-0.08700028,0.09368814,-0.04896848,-0.0076597463,-0.029451638,0.09491252,0.025651893,0.0028694277,0.11318801,0.05859883,-0.05616316,-0.03165177,-0.1981078,-0.062600635,-0.007209428,0.21205652
/film/film/release_date_s./film/film_regional_release_date/film_release_distribution_medium	0.0033729512,0.07296883,-0.047130726,0.01812864,0.04681357,0.042860225,0.015453627,0.13582076,0.13284922,0.22326437,0.10008399,0.0014006544,-0.049468484,-0.11757033,0.06669159,-0.06664167,-0.110103324,-0.14074121,0.00246808,-0.11913439,-0.06991936,-0.0022710394,-0.07926935,-0.09535223,-0.04301383,-0.07839094,0.271347,-0.065944485,-0.13810517,0.19387726,-0.04291723,-0.16850954,-0.014931189,-0.03326523,0.050570816,-0.117113486,-0.10229268,-0.30544162,-0.06486448,0.046824757,0.12388416,0.093161285,-0.10122164,-0.07267924,-0.042616833,-0.11405462,-0.058529466,-0.15252653,0.12645057,-0.19064535,0.17390661,-0.14823112,-0.01786424,0.075342886,0.013001178,0.037155204,-0.19854732,-0.023167288,-0.07112947,-0.067315854,0.08816814,0.10174613,0.029995712,-0.072191834,-0.12883349,-0.15725127,0.028133236,-0.10867966,0.1261315,-0.04998139,-0.08474199,0.040932145,0.058091823,0.14362311,-0.024597026,-0.104647085,-0.03513414,0.027931249,0.087220564,0.009719412,0.076710224,0.14295943,-0.034433626,0.027552204,0.12227224,0.018451292,0.02578829,0.0060711373,-0.014309864,-0.07017513,-0.002326728,-0.14851727,0.017243518,-0.05557581,0.03216741,-0.1630718,0.016256886,0.055645548,-0.0042318916,0.062391784
/people/marriage_union_type/unions_of_this_type./people/marriage/spouse	-0.038938314,0.0903105,0.14640127,-0.09573258,0.053308465,0.10344758,0.12822418,0.035658337,0.033584204,0.0861138,0.011153459,0.05604267,-0.047289923,0.004673514,0.059825014,0.011096276,-0.051728226,0.11471635,0.026982026,-0.12708102,0.08963259,-0.1385882,-0.024228375,-0.076482944,-0.08307335,0.061347507,0.11583825,0.17817847,-0.07281744,0.005723377,0.10038563,0.06144134,-0.023009261,0.011552545,0.1381676,0.110276535,-0.04291771,-0.22614406,-0.054996915,0.08504574,-0.17554459,0.10404808,-0.029830603,0.007765655,0.074632026,0.12827598,-0.0042524324,0.08087736,0.008305745,-0.19059849,-0.15712899,-0.091580614,-0.12781301,0.16719592,0.18527065,-0.2526099,0.0013626845,-0.06612034,0.070766255,0.07539656,-0.05310727,0.02690802,0.13913937,-0.025236147,0.04446237,0.013895358,-0.035151508,0.030122781,0.033732332,-0.10919068,-0.07735829,-0.007938015,0.059591923,0.029625943,-0.0931476,-0.20294355,0.02742365,0.07300776,-0.08197598,0.072697364,0.005374267,0.16744658,-0.08386809,0.15248853,-0.03085908,0.18102643,-0.048678126,-0.13147368,0.083081394,0.009628135,-0.025935069,-0.031809155,-0.097427934,0.100507304,-0.16169839,0.24431281,-0.09830485,0.1648356,0.004894221,0.10724576
/award/award_winning_work/awards_won./award/award_honor/award_winner	-0.14723325,-0.0255685,0.03325354,-0.09493914,0.048018996,-0.21121381,0.099950284,0.089726575,0.15549596,0.114896536,-0.02259341,0.08903843,-0.23295583,-0.03611687,0.005731673,-0.031654354,0.037926134,0.113839105,0.15284085,-0.078442395,0.18770415,0.076191634,-0.1385398,0.012037533,0.0026894647,-0.10295989,0.021249011,0.012691896,0.12443844,-0.05090472,-0.0060848584,-0.16390033,-0.17277879,-0.04078906,0.010341914,-0.021098522,0.03933396,-0.030453727,-0.07369123,0.07672341,-0.1006784,-0.11206126,0.2388843,-0.13251573,0.05269395,-0.0033157663,0.02384534,-0.0328893,-0.0073436084,-0.035885975,0.10404732,0.038178362,0.077627674,-0.109408334,-0.07659583,-0.03581685,-0.041544523,0.107087314,-0.062429156,-0.16481051,0.042746734,0.16236849,0.10467832,-0.017904866,0.0010486759,0.015134115,0.0018652029,-0.17025994,0.14220269,0.0002658868,0.0034574724,-0.259648,0.07263298,-0.0040270006,0.02532089,0.013434969,-0.005452772,0.057984654,0.0046206694,0.17938384,0.13113715,-0.014998572,0.057849105,0.042344034,0.10964151,0.11315421,-0.20024008,-0.2143569,-0.14740701,0.034721065,-0.04788008,-0.16976042,-0.06938454,-0.15156813,0.069555715,0.03316772,-0.054947972,-0.032691706,0.048942477,0.08060133
/film/film/release_date_s./film/film_regional_release_date/film_release_region	-0.09972907,0.14567299,0.12381746,0.12707779,0.058354955,-0.16905479,-0.04336014,-0.006172125,-0.07261959,-0.05136791,0.061079845,-0.1034548,-0.2678439,-0.1537999,-0.026163286,-0.13510841,0.099484846,-0.10042988,0.07401942,-0.13694672,0.14124256,0.037668455,-0.07560876,0.036725022,0.19877613,-0.124878384,0.09740431,-0.018621253,-0.11595076,0.14496677,-0.1358349,-0.08787319,-0.011654788,0.028865024,-0.071043395,-0.006433399,-0.1353281,-0.023212252,0.010267878,-0.016954144,0.026832165,0.022432275,-0.0472198,-0.07550456,-0.1517778,-0.08578147,0.07020496,-0.12795755,0.0020384039,-0.12257493,-0.10633634,-0.053429276,0.032883182,0.057934105,0.21697275,0.024377508,0.08823176,-0.10882881,0.03467912,-0.14640453,-0.041351046,-0.100272976,-0.08481923,-0.118961655,-0.015558094,-0.06238926,0.05420641,-0.024249353,0.08522917,0.0078105894,-0.04974297,-0.111477286,0.06964747,0.04395437,0.049716022,-0.19240758,-0.0452052,0.12694319,0.1794806,-0.13347293,0.17730202,0.06552351,0.07590329,0.052364375,-0.025687976,0.0021848532,-0.17567942,-0.006698996,-0.17421557,-0.07101357,0.0322637,0.059007548,-0.2264445,-0.007959861,-0.024881788,-0.030623633,-0.059991527,-0.07743894,0.045577355,-0.06277372
/film/film/language	0.10188291,0.14575158,0.13415928,0.008890574,0.06871716,-0.09080537,-0.13683991,0.07983715,-0.10514248,0.01877368,0.054912068,-0.01797696,0.002063018,-0.039547842,0.016261267,-0.08849166,0.14985088,-0.0894652,0.029219953,0.1269513,0.08365735,-0.0463612,-0.06767284,-0.0053576767,-0.040478352,-0.17879003,-0.0051571466,-0.18507229,-0.13483311,-0.07481877,-0.15226167,-0.2993693,-0.06895749,0.045942087,-0.021364244,-0.11849502,-0.012747731,-0.07212762,0.011165183,0.039777298,0.10551771,-0.07835276,-0.068703875,0.03052005,-0.06315067,-0.21214552,0.035146233,-0.037938688,0.16239204,0.06778109,0.00843207,-0.03980858,0.30141652,-0.004981174,-0.0015346787,0.04112248,0.039489247,0.002440269,-0.042458236,-0.13162918,-0.045362793,-0.067439355,0.035602678,-0.102095,-0.07959993,-0.021368988,0.08614867,-0.15081078,0.019128408,-0.06457127,-0.13086323,-0.09098843,0.07594766,0.08089199,-0.010521434,-0.11995973,-0.21705964,0.022203727,0.11512223,-0.03255751,0.11975796,-0.07100014,0.06295246,0.103654094,0.10239121,0.07151226,-0.053613126,-0.08546171,-0.23127674,-0.088358454,-0.026791068,0.16101182,-0.047344625,-0.032377254,-0.054370504,-0.19420804,-0.07616403,0.015292587,-0.028657096,-0.056933887
/music/artist/genre	-0.032388628,-0.016799958,-0.011340711,-0.15214647,-0.002051919,-0.13399588,0.018524962,-0.057910156,-0.119449496,0.0316092,-0.07736115,0.012251833,-0.033391654,0.031931195,-0.12286422,0.0381583,0.016850587,0.12597163,0.08601157,0.12501085,0.05251198,-0.09808639,-0.053971626,0.10812904,0.17368065,0.04296021,0.08288545,-0.048186257,0.040968023,0.21370016,-0.0055189217,0.014525009,-0.13652554,-0.028645378,-0.013830444,-0.12597314,-0.08744262,-0.066502534,0.10631869,-0.043010797,0.09826334,0.08475767,-0.06038845,0.22436209,0.0801687,-0.15760545,0.13661453,0.07082122,-0.24310157,0.08074247,-0.044436652,0.042855896,0.0030521445,0.017954897,0.0920089,0.0047841994,0.17123963,-0.054250147,0.062438916,-0.12233882,0.17288046,0.014127291,0.19295125,-0.013318785,0.09738573,0.16906974,-0.096122876,-0.08338278,0.005858426,-0.028092634,-0.20645341,0.095538884,-0.029600317,-0.18800078,-0.112677656,0.0074115032,0.004897478,-0.004198967,0.16676949,-0.007277984,0.023051715,-0.0069398466,-0.12117907,-0.15766916,0.118268386,0.003462657,0.07037948,-0.07850009,0.026310667,0.18243091,-0.10602327,0.019822136,0.13816115,-0.08360202,0.018331332,0.010045633,-0.023497898,-0.23133048,-0.027004795,-0.01301644
/location/location/containedby	0.06525056,0.12280705,0.01957594,0.07108029,0.032259263,0.13848431,-0.26899624,0.006770256,0.0816672,0.018643407,0.006830592,-0.14755736,-0.00953613,0.046675023,0.015916735,0.06967812,-0.011639449,-0.1189248,0.012309496,-0.1130317,-0.09029997,-0.05094658,-0.042579547,0.056947242,0.013088715,-0.023966167,-0.023953786,0.012797545,-0.09029,0.031176507,0.18493578,0.03624688,-0.12963901,-0.002116302,0.11895334,0.16786298,0.011031243,0.04546916,-0.069349594,0.06770502,0.031037914,-0.04295839,-0.15166655,-0.07471741,-0.18855537,0.056879494,-0.017970003,-0.12585357,-0.09853089,-0.11689179,-0.13870218,0.065705985,-0.038679086,-0.060703695,-0.038872752,-0.2530077,0.11950439,-0.12040036,0.15958469,-0.19351026,-0.105502665,0.05145787,-0.059329532,0.14685589,0.0086368695,-0.0445568,0.0010063223,0.0908963,0.2590874,-0.1384149,0.07461138,-0.04306877,-0.045923688,0.025124548,-0.20734167,-0.052815314,0.01705945,-0.08749156,-0.036016878,-0.00903641,0.050310943,0.14720698,0.03523812,-0.034296628,0.0832333,0.14749095,-0.27529526,0.019530596,-0.06522241,0.011274381,-0.077046484,-0.037936497,0.009545184,-0.106598385,0.06772036,0.07625635,0.13684562,0.04503795,0.14098786,-0.13375661
/people/person/ethnicity	0.21119602,-0.085014425,0.0013713909,0.08565522,0.08903731,-0.020300834,-0.034113802,-0.13337798,-0.17796916,-0.032823298,0.09642501,-0.100827776,0.037241142,0.06263035,-0.05393114,-0.011795228,0.15774885,-0.021854194,0.023145076,0.13742837,-0.157703,0.0795574,0.0144566,0.09007337,0.18392706,0.030502962,0.050949812,-0.24248682,-0.04041893,0.03193242,-0.16996227,0.018204227,0.0012002345,-0.07645439,-0.032753143,-0.05668981,-0.043769747,0.047936972,0.16411829,0.01606179,-0.07905843,0.14154015,-0.16274983,0.07008577,-0.12063596,-0.2189095,0.13218008,0.081078336,-0.09258244,0.062893316,0.03706005,0.04610765,0.044188976,-0.005901692,-0.0032776874,0.24962398,0.26157144,-0.11501744,-0.037915923,0.1759001,0.10552282,0.012799304,-0.12597664,-0.0109953005,-0.10293107,0.04764593,0.09689225,0.011747787,-0.055141326,0.15655547,0.039436366,0.05655155,0.096533395,-0.05346992,-0.043621026,-0.07522061,-0.058926396,0.04025536,0.08092079,0.035744328,-0.0513428,-0.11603354,-0.012318017,0.021762926,-0.10351347,-0.040726576,0.08218183,0.15244377,0.05177902,-0.13570511,0.0810154,0.06768902,0.020984348,0.07504972,0.1533728,-0.061716516,0.0046001053,-0.06681808,-0.15877719,-0.015479511
/education/educational_institution/students_graduates./education/education/degree	-0.0058888113,0.05031203,-0.0048931646,0.119780086,-0.17050725,-0.057867426,-0.122742414,0.035752695,0.045899574,-0.08199735,-0.19754627,0.056844693,-0.059165265,0.11115072,0.0052646887,-0.11980729,-0.07652335,-0.051251277,-0.056831166,-0.031111332,-0.17670274,0.031299755,-0.00762562,0.086821966,-0.11341779,-0.11462611,-0.064882375,-0.05730797,0.10211106,-0.069553,0.05532919,-0.010964576,-0.046422366,0.049868263,-0.09964809,0.071117386,0.11427926,0.0537958,-0.103223495,0.0643541,-0.08345238,-0.107164696,-0.12455,0.02313495,-0.11115137,0.03850288,0.11215001,-0.11252569,-0.15878771,0.041582927,0.045967605,0.1284305,-0.07020316,-0.088385396,-0.12447344,-0.25687036,0.008759906,-0.06039331,0.110137746,-0.12743542,-0.12025764,0.15032686,-0.10873466,-0.037213963,0.057594504,0.044973735,0.059366744,-0.05339567,0.0620759,-0.22903137,0.021730518,0.091785215,-0.09622875,0.017465714,-0.12751205,0.08638224,0.07150236,-0.15950714,-0.22749026,-0.0042425687,0.039270412,0.06018745,0.13131133,0.047475938,0.02211778,0.053780723,-0.040766582,0.05576629,-0.008525097,0.057895973,-0.08650625,0.13277228,-0.031145446,0.07536222,-0.020486614,0.1863384,0.27190617,-0.057788197,0.11192446,-0.1461636
/award/award_category/nominees./award/award_nomination/award_nominee	-0.04572032,0.057092767,0.015345446,-0.07943343,0.08640618,0.10307338,0.15418515,0.026837397,0.14250451,0.087000884,0.07307698,0.103642054,0.07599677,-0.03638237,0.043953165,0.08142683,-0.020722484,-0.09554546,-0.068664335,0.0029808332,0.052741602,-0.14823575,0.10452709,-0.13533145,-0.03559429,-0.08752287,-0.10546308,0.09766903,-0.05128703,-0.010440667,-0.008890945,0.06109995,0.10948365,0.08594557,0.04616117,0.10781968,0.16201667,-0.00016061055,0.04514858,0.17317939,-0.119694784,0.01948858,0.20778546,-0.036191747,-0.00491568,0.12885594,-0.18536282,-0.013696675,0.0010438244,0.015488742,0.030117646,0.025246272,0.060138606,0.0053601465,-0.19327208,-0.03846439,-0.22926232,-0.043290086,0.13460732,0.077861525,-0.05524534,0.011767818,0.0444018,0.050092436,-0.0063379034,0.13271174,-0.0960449,0.122610845,-0.101394586,0.16030751,-0.014959732,-0.10167724,0.030546663,0.21314731,0.16025221,0.07527182,0.0949507,-0.011565207,-0.033375762,0.042459294,0.0058876146,-0.01803516,0.13837084,-0.00080486236,-0.060472142,0.029903682,-0.11767792,-0.24148946,0.05601073,0.39910787,-0.10179794,-0.006913712,-0.044884093,-0.06461154,0.029367177,0.027015835,0.078339875,0.0063441102,0.01006322,0.06735022
/award/award_ceremony/awards_presented./award/award_honor/award	0.172646,0.024141766,0.020906664,0.25191528,0.0856564,-0.042255037,0.035454553,0.06318178,-0.3090927,0.00748131,-0.059912756,0.029094214,0.110950135,0.06228383,0.098074965,-0.029358977,0.045053016,0.007034117,-0.06182627,-0.023736456,-0.12414999,0.22705637,0.0012685384,0.14186606,0.13212357,0.0799094,-0.14180127,-0.10212503,-0.0207256,-0.036270734,-0.028897062,-0.051053952,-0.09230908,-0.14934915,0.00062147714,-0.028272938,0.04799906,0.043358296,-0.026504887,-0.08983992,-0.01815794,-0.029201139,0.015287269,-0.101178795,0.16957237,-0.079115,0.0154571505,0.054390226,0.08882891,-0.03319645,0.05309574,-0.16326398,-0.0043745353,-0.06348139,-0.10675415,-0.024351975,-0.024364466,-0.06679563,-0.08620028,-0.07392748,-0.014941069,-0.07384866,-0.047220517,-0.04476974,-0.2211585,-0.024818415,-0.14545555,-0.06835438,-0.0024274185,-0.16115995,0.09273912,-0.21485159,-0.060456313,-0.07842086,0.030188004,-0.24997859,-0.015037342,0.038130064,-0.05472359,-0.047881514,-0.18086803,-0.074966624,0.17361721,-0.10346063,0.0073516015,0.0026752048,0.01273538,0.04723801,0.0376561,-0.109094106,0.039155483,0.00091695355,-0.23751312,0.17639403,-0.045145977,0.01117948,0.13574697,-0.046792887,0.02859716,-0.03939594
/location/location/contains	0.01594067,-0.14437842,0.018633608,-0.06221919,-0.027545314,-0.01610153,0.14306891,-0.06168772,-0.034138434,0.00040023765,0.13138539,0.11020583,0.02694399,-0.14443156,-0.0066420734,-0.009332399,0.014548929,0.12320235,0.11355703,0.13091494,0.07194073,0.10580305,-0.16766578,-0.042703573,0.097723536,-0.057778884,0.002686732,-0.1048098,-0.034235094,0.025176626,-0.206072,0.0036358708,-0.022942614,0.017565202,-0.04755615,-0.14421326,-0.010191521,0.004917027,-0.012743076,-0.0806297,0.01576534,0.05674792,0.094627544,-0.011585967,-0.009836988,-0.100315735,0.08515508,0.093320034,0.06340362,0.03562934,0.1772672,-0.06951465,0.032670476,0.025972338,0.0703824,0.2364526,-0.08056127,0.17251825,-0.22990803,0.09031141,0.13376172,-0.049068693,0.07035721,-0.11938854,-0.06456979,-0.07981003,0.09429946,-0.2791005,-0.09761635,0.06058334,0.05407666,0.012533341,0.16231798,-0.05180892,0.22776218,-0.010578919,-0.0025725912,0.13905339,0.014330657,0.00010145402,-0.08282987,-0.06850978,-0.046903204,0.0003348655,-0.13660973,-0.067065485,0.18591231,0.09272203,0.10184177,-0.08657987,0.109111086,0.08696654,-0.04257806,-0.03333375,0.038867716,-0.16580497,-0.102086015,-0.008632327,-0.18445243,0.18903299
/organization/organization/headquarters./location/mailing_address/country	-0.01656107,0.04351165,0.070300676,-0.031887528,-0.12259744,0.07567316,-0.18908961,0.21317616,-0.08469793,-0.085396685,-0.12816313,-0.07422567,-0.036608994,0.10304606,-0.19996418,-0.019813111,-0.14044826,0.02661425,-0.019154005,-0.009573438,0.05302706,-0.079550914,0.013601534,0.11570511,-0.19912536,0.14323343,0.047657803,-0.15076888,-0.049679056,0.12483522,0.14912473,0.13289039,-0.034416378,0.095283486,0.028753605,0.11891496,-0.18260913,0.05670771,-0.024996536,0.14681226,0.12516814,0.1111428,-0.03209177,0.13368367,0.08134957,0.04835554,-0.2137417,0.06610517,-0.07496122,-0.020149475,-0.06863612,0.102573596,-0.05154978,-0.01904808,0.043133076,-0.22212783,-0.019445362,0.05634463,0.0937797,0.036358263,-0.07914697,0.12677824,0.083555885,0.02221687,0.08555713,0.13781151,-0.050096177,0.09465061,-0.06994865,-0.15298901,-0.12752506,0.07325607,-0.16106138,-0.14049459,-0.15524358,-0.012297604,0.07034435,-0.10165082,-0.06484316,0.15071186,0.032958973,0.024735413,-0.03111895,-0.043361057,-0.0073071364,0.04738253,-0.082393445,-0.07794756,-0.04822863,0.03545196,-0.10201315,-0.03213149,-0.0039501297,0.10978027,-0.10069768,0.052071188,0.06561444,-0.061095264,-0.076802954,-0.18186402
/people/person/profession	0.098980494,-0.019255461,-0.18149361,0.15467395,-0.04347352,0.12902443,-0.16565578,-0.13461739,-0.082923524,0.09210517,0.106133,-0.08923566,0.14027108,-0.08181593,-0.109826565,0.009290706,0.035320397,0.052046433,0.2502911,0.08476169,-0.074360214,0.03216863,-0.07950422,0.13441905,0.10990849,0.043695986,0.026031595,-0.12432058,0.017874558,0.05600103,-0.15549508,-0.04635161,-0.02750458,0.10697326,-0.07653369,-0.15390866,-0.11324334,-0.041080445,0.079190314,-0.17546996,0.111165196,-0.017050756,0.015300334,0.17462926,-0.03497454,-0.055963006,0.26987937,0.042935308,0.116741836,0.12209319,0.02165158,0.07755682,0.012292552,-0.24944845,0.09817408,0.052834634,0.15527892,0.019101406,-0.077623,0.016525509,0.086809866,0.060018472,-0.01793483,0.036300007,0.07371982,-0.049580164,-0.04622507,-0.09996775,-0.15590954,0.01038279,0.045860134,0.059162475,-0.029764928,-0.10501635,-0.07241564,-0.00262696,0.019613508,0.0013450588,0.023273753,0.09210702,-0.0694172,0.04255728,-0.081764445,-0.17663264,0.15926887,-0.2082051,0.08986579,0.023725314,-0.028060062,0.11035426,0.045335863,0.08468731,0.07506303,0.018190367,0.050322782,-0.12238199,-0.053395946,0.02215989,-0.11808523,-0.047275744
/film/film_job/films_with_this_crew_job./film/film_crew_gig/film	-0.065881744,-0.103930995,0.05273988,0.094889954,0.12835848,0.13672304,0.085120305,-0.10357613,-0.04058646,-0.04731051,-0.21253656,0.10674871,0.026897635,-0.034196306,0.02407406,0.031071777,-0.13580976,-0.10043858,-0.12345579,0.059229102,0.1192104,-0.01904586,-0.003946533,0.12241033,0.024900546,0.11462295,-0.028053187,-0.18593256,0.024644697,-0.017245613,0.046350747,0.080211334,-0.17154546,0.03483324,-0.0586723,0.06550764,-0.12771045,0.022420509,-0.035137784,-0.019954775,-0.13826081,-0.008994614,-0.0524026,0.0734639,0.008139659,-0.09308,-0.09698825,-0.07036072,-0.10766523,0.21284927,-0.05410366,0.031459786,-0.016103158,-0.16015542,-0.22041571,-0.05829792,-0.14999062,0.007263973,0.24418259,-0.054104954,-0.08970206,-0.2695223,0.11644337,-0.0036792902,0.061817862,-0.05058022,-0.027365789,0.008301435,-0.08296739,-0.029691983,0.14069872,0.05204165,-0.04895684,-0.2163252,0.08753904,0.10529712,0.13196272,-0.16438797,-0.15753093,0.061501034,-0.06493812,-0.073450595,-0.12073286,-0.14718954,-0.00083242427,0.115541354,-0.028132668,-0.022613402,-0.015439873,-0.0129308,-0.07752368,0.070657484,0.07776072,-0.027346838,0.1349705,0.14278081,0.0050699757,-0.030960558,0.050878942,0.014733337
/people/profession/people_with_this_profession	-0.020545438,0.18696055,0.13947782,-0.14219354,0.24106598,-0.0802485,0.06855202,0.062130798,0.082894705,0.0127594005,0.094199955,0.08333975,-0.15852204,-0.11323778,0.04352846,-0.06419375,-0.013228847,-0.055523075,0.03238915,-0.0841347,-0.03784169,-0.035064906,-0.041865602,-0.15303269,-0.15441778,-0.06473379,0.06193937,-0.050250135,0.0132242255,0.020129595,0.1486148,-0.09436217,-0.10160209,-0.1269696,0.028753433,0.0648719,0.064895175,-0.001514533,-0.021603072,0.110459164,-0.23870932,-0.12357908,-0.06547146,-0.10199632,0.124895684,0.11313078,-0.15456133,-0.090920694,-0.00013866136,-0.27425745,-0.0028079234,-0.022276858,0.015872411,0.14794806,0.08266056,-0.05318396,-0.15497778,0.02683325,0.08842609,-0.05683269,0.035817023,-0.008372514,0.14652745,-0.084504694,-0.09325619,-0.0067435442,0.044332378,0.013084802,0.14195362,-0.02696115,-0.11567305,-0.1178319,0.05758279,0.1531906,-0.037620902,0.08380805,0.035716314,0.021362457,-0.020254094,0.006483991,0.05160445,0.04845725,0.2088043,0.10066326,0.0027895407,0.12587515,-0.048779562,-0.111460626,-0.11213033,-0.06923025,-0.11100859,-0.16565739,-0.117603436,-0.056788772,-0.0704535,-0.045286555,0.17007528,-0.045534067,0.164972,0.056830127
/film/film_costumer_designer/costume_design_for_film	0.122801125,-0.13891983,-0.026826162,0.0714005,-0.11403646,-0.0733882,0.034872063,0.0617271,-0.038329456,-0.03492272,-0.023900764,0.004842235,0.09816663,-0.009730425,0.0305828,-0.018816868,-0.2462701,0.062689535,-0.07050218,-0.010608784,-0.033676285,0.023007073,0.05912507,0.15709773,-0.048536964,0.05719614,-0.10501322,0.03484636,0.009379519,0.009756557,0.03748932,-0.050209813,-0.03394775,0.13913603,-0.17227225,-0.108141,0.053272896,0.064972565,0.023298394,-0.11002139,0.079375066,-0.18454215,-0.0669501,0.13561277,-0.03354664,0.06480861,-0.049309555,0.083799005,0.052323297,0.22871529,-0.12595539,0.14376205,-0.061098367,-0.07218863,-0.098400585,0.16481243,0.068637006,-0.057108097,-0.091785446,0.18848222,-0.057182804,-0.09549283,-0.1660844,-0.104083054,0.012481243,0.0053194687,0.05659309,-0.18020667,-0.13963988,0.07976085,0.16824703,0.061331674,-0.035266347,0.27446562,0.12251925,-0.022145744,0.07625258,0.07225984,-0.13145287,0.028243294,-0.079960704,-0.0760184,-0.085733846,-0.06817508,-0.016800756,-0.050659176,0.081858285,0.11108792,0.008121464,-0.15779147,-0.0839953,0.008837245,-0.0168641,0.12892665,-0.21756516,0.19228129,0.0708372,0.025489297,-0.017030632,-0.0519822
/location/statistical_region/religions./location/religion_percentage/religion	0.055378925,0.032322686,0.091071896,0.0021226194,0.07318066,0.31643018,0.102314636,0.11505796,0.06958659,0.044844218,-0.003618437,-0.16704914,0.11829995,-0.0078021595,0.034876462,-0.054805208,-0.31909022,0.13504013,-0.15969478,0.12653488,-0.01243164,-0.022021282,0.086329915,-0.020396335,-0.088351,0.09987226,0.007203602,0.0660212,0.22708227,-0.07403437,0.14559919,0.0232578,0.05071821,-0.16517064,0.062885456,-0.05333722,0.08734813,-0.026619384,0.034966327,0.13038616,-0.087462835,-0.0025373949,0.07639286,-0.14908059,0.08956968,0.009670995,0.018481065,-0.084609054,-0.028908517,-0.015609035,0.11588653,-0.004824868,0.21942313,-0.018986488,-0.17176357,-0.06702527,-0.08763727,0.2478298,-0.103302896,0.052484576,-0.01607041,-0.08115798,0.0151488,0.117417045,0.024739241,0.008179966,-0.08036957,0.009043491,-0.13850527,0.07567463,-0.030483603,0.18879133,0.029079156,0.04047008,0.072918594,0.024411382,-0.018203372,-0.12391763,-0.10161263,0.04082443,0.030805485,0.011860614,0.061108015,0.019878851,-0.030468592,0.049330328,-0.10073507,-0.032099277,0.009299948,0.08352554,-0.052346352,-0.10335641,0.03479046,0.20535061,0.017057471,0.052803975,-0.105107,-0.023982769,0.121570185,-0.049844887
/film/film_genre/films_in_this_genre	-0.12328258,0.015287929,-0.07216949,0.11589751,-0.00091675634,0.06917545,0.039984003,-0.051049247,0.08090844,-0.018198203,-0.026961528,-0.1429552,-0.004038559,-0.037105467,-0.021373037,0.14149526,-0.14730178,0.060153868,-0.15396371,-0.07153946,-0.058587175,0.022207405,0.3324238,-0.122443765,-0.03903243,0.027158953,-0.062729746,0.012677353,0.040554285,-0.0006088044,0.08720737,0.20159437,0.22904356,-0.10020629,-0.0074924473,0.073398426,0.07496624,0.21255375,0.03979341,0.09107189,-0.06664804,0.06814145,-0.011532187,0.09644148,-0.020385545,0.2079252,-0.09572065,-0.058042135,-0.19861506,0.05335376,0.0021948256,-0.0052545723,-0.057853952,0.009309103,-0.16493657,-0.021785064,0.11427302,-0.05982401,0.17883521,0.18003964,-0.13213395,-0.19552805,-0.1169886,0.03723471,0.067084946,0.020497276,-0.07829104,0.16829371,-0.015876861,0.08586454,0.057006866,-0.105041526,-0.013542867,-0.009383822,0.051767454,0.053634565,0.17717697,-0.052532025,-0.12919722,0.0028591638,-0.024424205,0.0045191254,0.046361655,0.016892266,0.109347604,-0.020948619,0.065539174,-0.06129538,0.10211233,-0.08924162,-0.11424075,-0.070533395,0.11586875,0.0027225956,0.010274608,0.14452718,0.10658224,0.08205391,0.09847339,-0.064428374
/tv/tv_genre/programs	0.05198901,0.05626456,-0.038962606,0.1633958,0.08673502,0.047041215,-0.03045397,-0.080824815,0.04781651,-0.018896442,0.08079931,-0.07377112,-0.19071554,0.16464822,0.046599697,-0.13710643,0.0063641705,0.05973038,-0.09072448,-0.013963195,-0.16448408,0.092711195,0.08862291,-0.16510563,-0.08883584,-0.058709692,-0.04438623,-0.07930052,-0.06858745,-0.16680536,0.00567844,-0.17422365,-0.108387664,-0.04929581,-0.12419545,0.082333595,-0.2080893,0.026674889,-0.0074569206,-0.04157819,-0.062422633,0.1620017,-0.08232159,0.14462917,0.007894529,-0.07131606,-0.09427977,0.060547348,0.0741249,-0.058429003,0.033650406,-0.17819355,-0.07638414,0.10075816,0.06589677,0.14445287,0.15214916,-0.014445878,-0.021171603,0.07926314,0.06943961,0.056908883,-0.00093473314,-0.094405875,-0.22036804,-0.08056489,0.052567657,-0.101711564,0.034789898,0.07265194,-0.08348075,-0.07540752,0.040530853,-0.024620535,0.15023704,-0.10745216,-0.18451354,0.07492591,0.0062535442,-0.23167174,-0.039694514,0.07506953,0.1499533,0.161695,-0.09089933,0.074287176,0.15253642,0.17977743,0.099705786,-0.040294796,0.079917714,-0.09531064,-0.064720176,0.069904186,0.08906408,-0.012570911,0.10190194,-0.015637517,-0.043994993,-0.04926776
/award/award_nominee/award_nominations./award/award_nomination/award	0.12857008,0.005525534,-0.06852769,0.074678734,-0.06823056,-0.1761235,-0.099733986,-0.07338691,-0.19977185,0.0513766,-0.06426771,-0.12424677,-0.04236913,0.06588195,-0.11039325,0.086517915,0.014352394,-0.014156808,0.009147531,0.07123331,-0.035630826,0.23366748,-0.066295445,0.15889227,0.11570917,0.12684421,0.14048657,-0.13108653,0.05851728,0.015458535,-0.0012258292,0.02879001,-0.049272414,0.0037052566,-0.14275745,-0.017612949,0.043410506,0.082529016,0.03471063,-0.20544676,0.17575653,-0.037151575,-0.20348893,-0.04132202,-0.08270036,-0.0989643,0.1973868,-0.028434835,0.00586144,0.033073515,-0.05387246,0.101422325,-0.10044719,-0.008140681,0.22259088,0.043248136,0.17514516,-0.059045706,-0.1279095,-0.048922848,0.25932035,0.078044236,-0.06476117,0.047116846,0.03273602,-0.13825148,0.016138632,-0.017314954,-0.015528622,-0.07837887,0.09852702,0.037481785,-0.15384139,-0.16638698,-0.033716336,-0.11547482,0.06955281,0.021692146,-0.049182512,-0.019880103,-0.10441589,0.039383553,0.04005627,-0.08070118,0.09089729,-0.031610623,0.11974826,0.13911173,0.11047024,-0.16900955,0.13382326,0.036641672,-0.060159188,0.06529572,0.072001405,0.011529561,0.054245323,0.060845904,-0.048444327,-0.11619984
/music/genre/artists	0.03263978,0.13985513,0.010481309,0.13971072,0.12921688,0.06874424,-0.005294642,-0.03727921,0.103818126,-0.1189447,0.1278298,0.02067072,-0.0042721494,0.04486873,0.07161714,-0.15858951,0.048629537,-0.11266032,-0.142419,-0.058854207,-0.11637172,0.12652428,0.004979683,-0.08270657,-0.0068644746,0.06371346,-0.17644215,0.0259122,-0.096753724,-0.15681913,0.051502693,-0.0032305038,0.14679733,-0.0321001,-0.056820765,0.15017891,0.10608847,-0.023900926,-0.07521233,0.051247012,-0.11727567,-0.13108052,0.073529966,-0.20406994,-0.034095537,0.13692181,-0.19597234,-0.0661699,0.13715398,-0.048265312,0.0103176525,-0.14917757,-0.082779124,0.04207565,-0.28789142,-0.044700276,-0.088994764,-0.0039347108,0.063212514,0.06439606,-0.09007576,-0.0029203203,-0.22932668,0.016911533,-0.18145372,-0.070934616,0.07970536,0.0329054,0.038375877,0.072165206,0.08532841,-0.047125567,0.0469429,0.2410695,0.12455683,0.058530442,-0.06122881,0.096916035,-0.1323889,-0.060442217,0.031051435,0.012321272,0.09602764,0.046511352,-0.10564092,0.11334975,-0.0022531115,0.10122617,0.045635723,-0.0753022,0.07598872,0.002781574,-0.10677577,0.03640417,0.061930824,-0.07760506,0.17288643,0.12111169,-0.008482327,-0.0016017222
/influence/influence_node/influenced_by	0.0095878495,-0.0006082067,0.2890105,0.17730589,0.015124739,-0.1286217,-0.08376481,0.006462952,-0.13817422,-0.0130569255,0.03978364,0.038738865,0.12922366,0.043230683,0.07838952,0.06433256,0.08125843,-0.12415921,-0.08080027,-0.046968296,0.044215623,0.1675741,-0.21531186,0.0130542135,0.036192894,0.1548151,-0.038222536,0.015022821,-0.057729464,-0.14227276,-0.042401258,-0.01727116,0.01419509,-0.021026954,-0.04147269,-0.014811347,-0.081542976,-0.14109789,0.042937007,-0.20482261,0.03338537,-0.10110804,-0.09381348,0.016166802,-0.008107236,-0.022856116,0.17251533,-0.07595119,0.029660296,-0.036437497,-0.17352913,-0.002638536,0.1330153,0.014076435,0.16721024,0.117483824,0.048021138,0.0595467,0.030130994,0.14626597,-0.02926006,-0.052290834,-0.05980069,0.0042261267,0.05427112,-0.0036867927,0.077243984,-0.026547803,-0.0047043725,-0.06791931,0.12511268,-0.09197829,0.1263978,-0.10741595,-0.106647134,0.019696664,0.014426819,0.21252598,-0.15153083,0.115088485,-0.020455925,0.114700004,0.119610295,0.02347161,0.061335243,-0.17350762,0.17825809,0.041693248,0.22152208,-0.084166594,0.0119993845,-0.06509697,-0.08484624,0.036097247,-0.14613374,-0.060245067,0.057003673,0.11506555,-0.13787329,-0.13037758
/education/educational_institution/students_graduates./education/education/student	0.01390285,0.13836938,0.11457564,-0.03141694,0.031356093,-0.008758107,-0.025365176,0.02309024,0.13925923,0.03949216,-0.11031911,-0.08420027,-0.11190421,0.057184957,0.029493978,-0.038786538,-0.051277325,0.012027049,-0.029858153,0.014181447,-0.023492923,-0.09169556,0.08924197,-0.05209334,-0.2258121,-0.15686227,0.0462343,0.14220779,-0.041354828,0.09819241,0.15523574,-0.121764965,-0.060806636,-0.027178114,0.14225195,0.13148448,-0.010940884,-0.049186468,-0.08158154,0.12854044,-0.092651784,0.08520542,-0.03372013,-0.046980076,0.05985758,0.050431732,-0.13303977,-0.12319065,-0.09602846,-0.081319794,-0.050386146,0.0047568893,0.14302164,0.034125533,-0.017810011,-0.20585302,-0.051961444,0.049983427,0.074544534,-0.15020947,-0.10063654,0.007874395,-0.009076708,0.009168614,0.064937055,0.07021537,0.022782415,-0.0076869917,0.042187326,-0.2932762,-0.14588453,-0.23068297,-0.04541799,-0.008176949,-0.123607054,-0.030004146,-0.053015474,-0.06493613,-0.075930335,0.024257585,0.114305474,0.18917805,-0.075884864,0.13213332,0.119619116,0.14826038,-0.14591429,-0.13262972,0.0041351216,0.02525975,-0.06991573,-0.13610715,-0.059421524,0.05580132,-0.118129306,0.026357109,0.21690422,0.14407775,0.13216402,-0.007555012
/organization/organization_member/member_of./organization/organization_membership/organization	-0.038780384,2.4774357e-05,-0.122204676,-0.13252468,-0.043790277,0.014854296,0.032420862,0.2047696,-0.005294374,0.0855094,0.042033873,0.05170946,0.0015387898,-0.07612099,0.120188855,-0.044602487,0.14492851,0.131127,-0.14915466,-0.050708994,-0.10076177,0.04154873,-0.074359305,0.030210247,-0.16928717,0.05316667,-0.08528434,0.048444226,-0.044021085,-0.25117052,0.20437844,-0.15439816,-0.087125346,-0.01463588,0.12421534,-0.14283052,-0.021139452,-0.16503897,-0.15508235,0.042129755,0.006105671,-0.01626117,0.054498766,0.01902646,0.1405775,0.046128824,-0.07453912,0.100142196,0.022244692,-0.076019526,0.10126845,-0.03648131,-0.05780526,-0.055883534,-0.092217386,-0.031330228,-0.048154257,-0.12605286,-0.014176006,0.16164157,-0.020281453,-0.09884329,0.012394045,0.021767039,-0.064457946,0.048543528,0.021353887,-0.019522678,0.007871001,-0.2179191,0.0019138942,-0.031607058,0.17680109,0.06968393,0.05479561,0.13216792,-0.2505925,-0.14202203,-0.029879775,-0.0342304,0.046659023,-0.072230935,0.0065107225,0.03693827,-0.11132942,0.16177186,0.17937173,0.04458319,-0.022455225,-0.02543369,0.040759254,-0.0011187939,0.19732822,0.04053066,-0.07978031,0.010476929,0.19185655,-0.19880268,0.025282789,0.08698951
/people/person/place_of_birth	0.023155576,-0.15944868,-0.13770254,0.012280054,0.03948018,-0.08331209,-0.04402437,-0.10356593,-0.18260801,0.015982144,0.10021175,-0.020864792,0.033398524,-0.080170885,0.061001845,0.20972544,-0.070399694,-0.04687557,0.1297226,0.033745192,-0.031016385,0.06331543,-0.1020975,0.06851055,0.08105592,0.10660095,-0.01739601,-0.10804138,-0.11331656,-0.0363583,-0.18856502,-0.002170092,0.0071801697,0.109428644,-0.13709836,-0.04027731,-0.19739854,0.08565992,0.06276464,-0.21733822,0.17316133,-0.07209487,-0.103318155,0.098075464,-0.12034453,-0.056017134,0.10255181,-0.08352561,0.100273915,0.022058848,-0.041256517,0.052732565,-0.13952892,-0.028029205,0.13381483,0.18296598,0.21026985,-0.114206836,-0.13011166,0.14172049,0.020602347,-0.042865086,-0.018573396,-0.23495916,-0.038907904,-0.09856488,0.050462335,-0.060754955,-0.012873378,0.03055665,0.06998213,0.03954564,-0.08678496,-0.05911897,0.058245637,-0.18040955,-0.017025372,-0.007337817,-0.079198845,-0.10600468,-0.041594557,0.017096981,-0.017268592,-0.13539992,-0.0068226964,-0.046455756,0.11444414,0.08507736,-0.0064914864,-0.11158517,0.1717572,0.1471376,-0.0405502,0.05478397,0.050841857,-0.14775276,-0.016264688,-0.020030102,-0.14564815,-0.11886948
/common/topic/webpage./common/webpage/category	-0.036379185,0.027026134,0.19969521,-0.035088535,-0.032515075,0.025350835,-0.05101685,0.0349814,-0.06227791,-0.074254245,-0.10789085,-0.09253028,-0.030641563,0.18075642,0.017254924,-0.248238,0.08600131,0.022296533,0.07709125,0.0893594,-0.080953345,-0.05839791,0.054230243,0.18998878,0.004358816,0.043128476,0.06263055,-0.039137233,0.1671958,0.14365189,-0.057495087,-0.05829663,0.014183184,0.059235435,0.0058550937,-0.01298887,0.019350592,0.04361417,-0.020737896,0.13774467,0.04239687,0.19529586,-0.0831065,-0.026317138,0.1657974,-0.060702723,-0.076475374,-0.06605806,-0.042122096,0.036159467,-0.23499788,0.17677297,-0.07878929,0.10558215,0.07974125,0.007532184,0.007928747,0.03849815,0.11387168,-0.08280982,0.08274598,0.020636925,0.044795696,-0.063731536,0.04700888,0.14392339,-0.046372663,0.03364164,0.051586084,-0.2531499,-0.28308854,-0.065347925,-0.05529756,0.028288513,-0.09339074,0.07990503,0.11128835,-0.12389744,-0.019087603,0.004575187,0.072026744,0.029623458,0.052107148,-0.07622748,0.15459079,0.11599568,-0.0038899304,-0.22356495,-0.109180495,0.122843996,-0.04721568,0.05959831,-0.032746825,0.046441983,-0.14371338,0.08272403,-0.08959518,-0.18718684,0.07549205,-0.041978408
/media_common/netflix_title/netflix_genres	0.090516716,0.14276373,0.10179075,0.064275496,0.071303,-0.024807425,-0.023129204,0.22802632,-0.026030358,-0.005528305,0.074777134,0.0046951184,0.013419837,-0.07408903,0.052314077,0.07125464,0.18203627,-0.21778256,0.052382145,0.13097632,-0.07889228,0.024819706,0.0056993896,-0.00709892,-0.02596155,-0.12908179,0.07077477,0.029013302,0.02986619,0.07486739,-0.083159275,-0.13614714,-0.0067861835,0.06802432,0.026507907,0.015945785,0.063200064,-0.08312055,0.0753591,0.028672164,0.08509965,-0.22128013,-0.08767465,0.036201857,-0.19007565,-0.033147477,-0.028327635,-0.1267275,-0.015156309,-0.11822439,-0.045957923,-0.04138163,0.12450286,0.00012210084,0.14849693,-0.09761415,-0.048031125,0.025051115,0.074393116,-0.22753198,0.068970874,-0.12415248,-0.106217936,-0.06722538,-0.018231733,-0.15056829,0.15730563,-0.10797137,0.16334407,-0.01547315,0.03552865,0.069833614,0.07408048,0.011488721,0.10132357,0.0041765114,-0.071559764,0.16092137,0.20184171,-0.22108601,0.2304752,0.024229795,0.14629807,-0.044772524,0.01933795,-0.029387807,-0.079151675,0.0826182,-0.14009063,-0.03472064,-0.031812996,0.039262123,-0.027486812,-0.11948789,0.04133814,-0.15109512,-0.13504747,0.026912073,0.042852174,0.0139240725
/sports/sports_position/players./american_football/football_historical_roster_position/team	-0.041246604,-0.022495972,-0.13621761,-0.0061073103,-0.2455828,-0.043702286,-0.122807644,0.11976092,-0.117370404,0.011277707,-0.0115806,0.034984242,-0.11285871,-0.21624298,-0.102180466,-0.22740132,-0.16292906,-0.0893627,0.09287166,0.06611427,-0.1380464,-0.06737129,0.029727148,0.032377996,-0.06413749,0.15830004,0.08382687,0.045531694,-0.067010306,-0.01513826,-0.049448963,0.0068343016,0.23493712,-0.118423335,0.0096664885,-0.16481543,0.06823625,0.07024323,-0.1027761,-0.112851106,0.15977769,-0.15410663,-0.04707053,-0.0004752418,-0.085344784,0.037098702,-0.05066849,-0.09692374,-0.013993454,-0.03237951,0.027512042,0.1003667,0.057933565,0.0035609612,0.0896628,-0.048230253,0.020646473,0.0536392,-0.045899183,0.047416426,0.24836129,-0.13027234,-0.0072225216,0.0744747,0.02874144,0.13413481,0.05001741,0.04533944,0.12384866,0.030603142,-0.04625907,0.09442127,0.027894588,0.065041974,-0.1553195,0.12304724,-0.26047018,-0.03596928,-0.078974,0.09330493,-0.17597853,-0.0145552,-0.057619143,-0.034716513,-0.005654756,-0.05294579,-0.050869983,0.08559691,0.004801209,-0.07270961,-0.0024852045,0.030133199,0.056868445,-0.032891937,-0.1219216,-0.0032748254,0.13469806,0.14088601,0.14327651,0.03809024
/film/film/other_crew./film/film_crew_gig/film_crew_role	0.029461106,0.23790182,-0.16205221,-0.03481778,-0.12949915,-0.031526163,-0.089795604,-0.051143255,0.031851422,-0.026030036,0.12877588,-0.00086380844,0.05272228,-0.07333614,0.04213168,-0.06419501,0.12538765,0.103783496,0.04818995,-0.08073003,-0.15094627,0.035590615,0.02995026,-0.12880877,-0.023358276,-0.012130841,0.03569324,0.1954355,-0.074979864,0.02248765,-0.1267453,-0.24268802,-0.035759576,-0.088630304,0.044591945,0.125035,0.19899651,-0.15810072,-0.13555393,0.041930784,0.108352475,0.1652573,-0.12879062,0.059595317,0.07988521,-0.0116350055,0.006004872,-0.041723017,-0.0004068133,-0.109392,0.13843165,-0.09697791,0.07031299,0.25179362,0.06226391,0.02418603,-0.061924387,0.03244702,-0.16055872,-0.015089534,0.0827555,-0.022588376,-0.10237403,0.02443857,0.13491681,-0.010720824,0.022520682,-0.05245579,0.073481396,-0.023178326,-0.15451719,-0.05497611,0.03085821,-0.048435796,-0.022598634,-0.02099498,-0.1758932,0.028372401,0.051237907,0.03282334,-0.10000934,0.15035865,0.0906745,0.08850345,0.024726897,-0.046221197,0.026195869,0.10730603,-0.21046476,-0.01882613,0.08383571,0.09425451,0.042289916,0.05470945,0.19822122,-0.12187559,0.010527839,-0.14808606,-0.05948321,-0.10926401
/award/award_ceremony/awards_presented./award/award_honor/award_winner	0.040661186,0.05771535,0.16013466,-0.064900555,0.17083149,-0.014564305,-0.043227363,0.015535125,0.10083743,0.005442471,-0.06291745,-0.012318971,-0.027748352,-0.03527206,0.05932201,-0.0719053,0.101991676,0.0090267155,-0.036683153,-0.11328231,-0.027930828,-0.012021837,0.00080707186,-0.13971944,-0.14417815,-0.03822585,-0.13514009,-0.020124909,-0.047567964,-0.10683293,0.1722496,0.05364374,0.12919751,0.042196747,0.10044173,0.20845102,0.15927233,0.065244995,-0.0889133,0.15292859,-0.1283766,-0.0922542,0.2373527,0.028805735,-0.013772747,0.104568474,-0.10815531,0.030540867,0.06765355,-0.048781145,0.11389981,0.032932185,0.030365007,0.02159212,-0.26639625,-0.04530806,-0.22616386,0.0036570802,0.06191897,-0.03875193,-0.10636913,-0.013532596,-0.08432758,-0.08360613,-0.13802618,-0.05190133,0.080501795,0.042598058,-0.119918406,0.05085086,-0.009923624,-0.15022442,-0.014675252,0.18026409,-0.05745675,-0.0078071775,0.102247566,0.20360997,-0.112873174,-0.11926793,0.012200702,0.052744888,-0.074587524,0.025841875,-0.12623067,-0.017195603,-0.12865923,-0.09888636,-0.10945665,0.0060807285,0.02622514,-0.11451753,-0.01326217,-0.049324866,-0.06804077,-0.0029936172,0.108220465,0.17643651,0.020886265,0.24058712
/film/film/country	0.05921286,0.11758204,0.09895113,-0.0055093886,0.04924961,-0.11435829,-0.12346442,0.068999566,-0.02941855,0.05774859,0.12287103,0.011078015,-0.11618132,-0.07152691,0.01474491,-0.08869548,0.088485,0.08986475,0.07501351,-0.05497092,0.012821122,0.010703954,-0.17406103,0.077854455,-0.089064516,-0.12711889,0.061793268,0.026192866,-0.024935436,-0.08539521,-0.13077272,-0.22432789,-0.1995815,0.072013244,0.11836541,0.014457574,0.005394014,-0.20143203,-0.024398139,0.09089493,0.021668494,0.033388045,-0.002808203,-0.07798611,-0.06261898,-0.008833237,-0.059266865,-0.0010330352,0.049945522,-0.24911079,-0.021336636,0.058191117,0.011246003,0.06372683,-0.023318147,0.031507485,0.01108517,-0.022925176,-0.050182097,-0.24787955,0.045887332,0.0754169,-0.04803329,-0.025215914,-0.03170324,-0.107459836,0.090971686,-0.077145234,0.14576955,0.034217723,-0.033485204,-0.17738178,0.11453248,0.028264886,0.056776073,-0.08047619,-0.107016526,0.12255792,0.16303436,-0.07002797,0.028648498,0.14390926,0.073297285,0.14338902,0.048182108,0.1371137,-0.046938036,-0.19805641,-0.08803327,-0.1386159,-0.0027239758,-0.18038154,-0.12908618,-0.272379,0.0009607782,-0.14448787,0.12574317,0.058102123,0.031229483,0.06309536
/olympics/olympic_sport/athletes./olympics/olympic_athlete_affiliation/country	0.047143064,-0.05817066,0.099279456,-0.09205492,0.045472525,-0.013366991,0.08469703,-0.20767483,0.000891094,-0.21656069,0.09181671,0.06909904,0.11553501,-0.0063745095,-0.06884377,0.21867076,-0.049079243,0.024121705,0.08138574,0.10292047,-0.013797423,-0.08718746,0.08844233,-0.03777212,0.09149061,-0.09342063,0.10623439,-0.012300571,-0.03949673,0.041611113,0.00058295665,-0.080061145,0.046375908,-0.17036198,0.082437135,-0.17934711,0.011889631,0.24886136,0.18535057,-0.038065545,-0.0046577156,0.010271993,-0.1433777,-0.011750424,0.008299829,-0.051517427,0.0048334305,-0.096607454,-0.23267941,-0.0254295,0.0592887,-0.04020168,0.016957894,0.15700808,-0.0732128,0.24302804,0.1012686,-0.12552373,-0.0153214,-0.08767607,0.08973863,-0.23881847,-0.039538737,-0.038899053,0.106354095,0.019183474,0.1399249,0.052211087,0.08437433,0.10233457,-0.10017775,0.18292372,-0.09505583,0.087661766,-0.0031202957,-0.08231827,-0.0045440886,0.03456918,0.06817253,-0.12631716,-0.018455373,-0.027685931,0.17525847,-0.004171514,-0.002289592,-0.16239397,0.00094220345,0.025856592,-0.037496176,0.0021142035,-0.042056706,0.06585886,-0.032958735,0.033877373,0.0071959198,0.09419609,-0.15325837,-0.16385478,-0.05607619,-0.051516097
/award/award_winning_work/awards_won./award/award_honor/award	-0.2542455,0.03879228,-0.11781352,-0.04400049,0.043991018,-0.15749785,0.11848562,0.024294142,-0.030522007,0.029067233,-0.11444948,0.106599465,0.012141645,-0.027147887,-0.1234173,0.029671071,0.012946104,0.15054911,0.15911444,-0.013442113,0.29904404,0.08018273,-0.109204546,0.0046419185,0.063525535,0.09125326,0.20974997,0.057906896,-0.017643925,0.12735777,0.0061915284,0.17488472,-0.0325526,-0.045424048,-0.016510641,0.012164385,0.05857859,0.049161773,-0.0082561625,0.044372953,0.07722214,-0.093538314,-0.07636498,-0.1360461,0.012793328,-0.12871505,0.17965694,0.0995465,0.04410187,-0.2343894,-0.051173,-0.099204704,0.1930705,0.048615906,0.16562732,-0.052474156,0.07996824,0.104212694,-0.012884499,-0.21201323,-0.040257413,-0.1346316,0.05449082,-0.06672238,0.114241906,-0.02359629,0.09613404,-0.04913165,-0.050010026,0.048275217,0.090646245,-0.06920277,0.11714118,0.017638458,0.10887896,-0.035905644,0.09677146,0.08784908,0.034739845,0.1239581,0.052361935,0.07017485,-0.051440023,0.03744502,0.02181657,0.004736184,-0.0950898,-0.08536307,-0.079017244,0.016236028,-0.020422574,-0.20418994,-0.15826784,-0.07822967,0.013346883,-0.08837455,-0.10102146,-0.050561223,0.044376306,0.08359633
/base/schemastaging/tv_actor_extra/regular_dubbing_performances./base/schemastaging/tv_star_dubbing_performance/program	0.19936545,-0.16422953,-0.06813983,0.20984447,-0.037368424,0.030072188,-0.008150266,-0.020496678,-0.05272391,-0.028214378,0.08870636,-0.07101445,0.01782866,0.23549947,0.15748319,-0.024258703,0.0073602977,0.10932788,-0.05057777,0.09243873,-0.06776095,0.058937613,-0.10785672,0.09957546,-0.02249019,0.016012253,0.015524327,-0.25948095,0.03053404,-0.14704871,0.048452083,-0.124350145,-0.0046678153,-0.07725969,-0.124334164,0.0728399,-0.17194805,0.1635891,0.070525974,-0.059712783,-0.12114783,-0.017128244,-0.15026458,0.11106935,0.038058616,-0.044757806,0.06530547,-0.12641074,-0.080577575,0.11354598,0.044442497,0.07093432,-0.17108311,0.06722841,0.09829918,0.07961477,0.1304509,-0.08082653,-0.08608482,0.22174329,-0.016455522,0.06652808,-0.1568246,-0.12415619,-0.02264433,-0.08409288,0.013884805,0.016203284,-0.017349146,0.03502038,0.17468561,0.012295634,-0.09594888,-0.088447765,-0.02044074,-0.21660967,0.025121972,0.07040591,-0.06673418,-0.17224896,-0.11411463,0.043689474,-0.02241934,0.020803945,-0.044807695,0.094864726,0.18419535,0.072992176,0.096953474,-0.047034685,0.07438205,0.053162657,-0.054839548,0.04368842,0.04136557,-0.03334314,0.04698864,-0.03877247,-0.055796973,-0.10742424
/film/film/genre	0.055627827,0.11321527,0.044277422,-0.14499745,-0.034863375,-0.05980703,-0.12895757,0.29144505,0.02080718,0.036667325,0.13901857,-0.071011394,0.08571257,-0.06667441,0.12126996,-0.042011693,0.16751444,-0.050117593,-0.0027131003,0.021685142,0.015670808,0.00854826,-0.17778102,-0.0947829,0.09896146,-0.09259252,0.018314736,0.04995438,-0.09443219,-0.009780529,-0.086874396,-0.109704316,0.1294484,0.011721844,0.14037625,-0.067294754,0.11258415,-0.22299695,-0.082564905,-0.07389883,0.14895171,-0.02241751,0.03066241,-0.07710248,-0.1275343,-0.023774259,0.06655223,0.02029703,0.14513354,-0.14554317,0.10698358,-0.24008049,0.24798061,0.12238744,0.118086986,0.016010873,-0.05387368,0.031966645,-0.08705059,0.10659866,0.20130292,0.0032691688,0.04617164,-0.08416417,-0.0669873,-0.007800132,0.0669397,0.028112361,0.05465876,-0.057405826,-0.06381785,-0.14087024,0.10036946,-0.01786983,0.017267244,-0.13425162,-0.13272135,0.15261129,0.16837996,0.046329048,0.014789961,-0.030914506,0.09439146,0.10067375,0.07435796,-0.07004365,-0.12766732,-0.03166663,-0.05152419,-0.048992723,0.0872235,-0.10977932,-0.027875867,0.020141942,-0.0016989344,-0.15553679,-0.051167406,0.020198025,-0.093645066,-0.0018471904
/award/award_nominated_work/award_nominations./award/award_nomination/award_nominee	-0.19497725,0.10188762,0.15956035,-0.0784281,0.108510464,-0.17814362,0.045206778,0.11270896,0.15044163,0.016201543,-0.16214283,0.042301204,-0.09446437,-0.059194267,-0.030658126,-0.042559393,0.10641017,0.1142239,0.06700377,-0.011019523,0.21913698,0.0033219098,-0.102777585,-0.06606569,-0.11312339,-0.23174742,0.07298217,0.12674813,-0.04016358,-0.013439346,0.050592743,0.017403405,-0.09023263,-0.009153077,0.044421136,0.020151652,0.13492024,-0.060193002,-0.046140864,0.12195841,-0.08481989,0.032822642,0.117447674,-0.10212931,0.018045058,0.04488724,-0.018870948,0.05911394,0.049636804,-0.14871836,-0.018819662,0.049428444,0.14013186,0.05736412,0.0036350235,-0.16124861,-0.065130726,0.12927784,0.13029513,-0.2568074,-0.040986884,-0.03827059,0.074077755,-0.012825993,0.09175648,-0.018999128,0.11544488,0.01394301,0.007894444,-0.023076085,-0.089790285,-0.17598258,0.1083941,-0.043921374,0.12278801,-0.03458943,0.0028430142,-0.038097825,0.015169425,0.06558438,0.10074251,-0.07461014,-0.003418851,0.14541,0.07435456,0.12163632,-0.120876595,-0.09387667,-0.13117015,-0.08112957,-0.06614773,-0.13315432,-0.10044355,-0.060389347,-0.13616283,-0.02312311,-0.08735246,0.047786776,-0.027119877,0.24697848
/film/film_distributor/films_distributed./film/film_film_distributor_relationship/film	0.103545696,-0.040589795,-0.09516728,0.013737522,-0.066658266,0.16956624,0.009302358,-0.031113215,-0.024713986,0.03666401,0.0042970357,-0.089600146,0.35876134,0.20787913,0.048490133,0.028260361,-0.028619926,0.1804684,-0.07695333,-0.03834298,-0.14806238,-0.037232056,-0.0187964,0.06925535,-0.046614658,0.12091484,-0.011136352,0.12059002,0.14176205,0.012320267,0.032084968,0.05718845,0.15060803,0.052637238,-0.01787044,-0.062110852,-0.01022152,0.10485857,0.02938604,-0.080473706,-0.061787706,-0.03978852,-0.13453571,0.17876351,0.06266609,0.05963876,0.16173431,0.09021968,-0.0855019,-0.012557885,-0.028302878,0.008766929,-0.10095957,0.07698996,-0.091558576,-0.0015583421,-0.02131513,-0.05173293,-0.063153945,0.3062593,0.017425653,-0.0014485543,0.035025015,0.004003767,0.044277493,-0.0019221897,-0.017799836,0.101772174,-0.029559035,0.08887978,-0.06653689,0.28376403,-0.030259488,0.10156256,0.22913961,0.06708755,0.045130767,-0.07291827,0.012333844,0.015666008,-0.0546389,-0.008889555,0.036109928,-0.065389924,0.16016182,-0.16094075,0.123328,-0.059446514,0.046573225,0.012620568,0.050657034,0.044706803,0.1820089,0.12240419,-0.07901771,0.11315126,0.16726808,0.013065547,-0.045701683,-0.053207844
/location/statistical_region/rent50_2./measurement_unit/dated_money_value/currency	0.17562948,0.048020937,0.06268878,-0.07192808,0.00014605663,0.069627605,-0.11135047,0.13270895,0.028591907,-0.012907994,-0.05885056,-0.21306702,0.09718896,0.1517395,0.0075028013,0.00453448,0.15848716,-0.048317257,-0.042748183,0.13079523,0.08173277,-0.08378991,0.14337583,0.109759085,-0.012167457,-0.0367612,0.10184518,-0.024157988,0.02056563,0.045448802,0.06433159,-0.060969118,0.075531855,-0.09378762,0.030062234,-0.10289106,-0.20658512,0.15499827,-0.034876265,0.18742011,-0.0052751615,0.038234286,0.18628061,0.19284315,0.07493189,0.009056446,0.030207196,-0.07611485,-0.012438723,0.119243726,0.0668043,-0.020325629,0.28915748,-0.1410737,-0.035452373,0.001601799,0.0560489,-0.09171488,0.0045993878,-0.09073402,0.10835736,-0.18783727,0.08063539,-0.07443034,0.062091976,0.07868077,0.045149222,0.033722155,0.027826007,-0.02993382,-0.10653018,0.09439353,0.0832563,-0.036589675,0.11079101,-0.10972039,-0.012411121,-0.07390954,-0.076588854,-0.020638105,0.038097117,-0.14010234,0.06501653,0.027439533,0.12039515,-0.043309983,-0.022605982,-0.1029218,-0.054367594,0.10808303,-0.09292661,0.08604161,0.003630911,0.09688674,-0.16113302,0.038882066,-0.09856501,-0.30973032,-0.039799795,-0.07869958
/film/film/estimated_budget./measurement_unit/dated_money_value/currency	-0.09221907,0.037249245,0.01648109,0.04560243,-0.04439591,-0.0785998,-0.25852492,0.14138693,-0.23850657,0.10859346,0.037989993,-0.011043805,-0.112358175,-0.06325542,-0.004293566,-0.021602813,0.17753366,0.016692264,0.04004042,0.11237824,-0.16673665,-0.004778756,-0.057931524,0.05126636,-0.04994535,-0.036540616,0.03166015,-0.12415808,0.0019264895,-0.024076767,-0.2662902,-0.22431412,-0.095764294,-0.03840283,0.11034421,-0.11321843,0.015905542,-0.13639118,-0.04796689,-0.017090058,0.10142092,-0.17030326,0.035426766,-0.05007739,0.012081949,-0.08481877,0.08354355,-0.012722488,-0.18860598,-0.07591507,0.12066077,-0.03463195,0.18894312,-0.04072485,0.12411957,0.0027000322,-0.011673325,0.01496519,0.023537984,-0.029579587,0.11821208,-0.008371698,-0.021316705,-0.04816426,0.07894527,0.048934855,0.12764834,-0.08958994,0.073110595,0.062700465,-0.100544766,0.006298371,-0.11483733,-0.011208985,0.14073601,0.012151069,-0.07453796,-0.015150826,0.045873877,0.19717866,0.008369969,-0.12007065,-0.079638794,0.13970914,0.17563538,-0.07081251,-0.050165832,-0.12298245,-0.0925599,-0.11017003,0.06296275,-0.049233925,-0.1452196,-0.123928696,0.11594511,-0.1253122,-0.06819006,-0.08015613,-0.10783408,0.0831745
/location/administrative_division/second_level_division_of	-0.012626588,0.07066779,0.11119222,-0.005697068,-0.004667869,0.010649764,-0.0925761,-0.011787366,0.056709774,-0.2235928,-0.08693016,-0.27441496,0.1119855,0.16426592,-0.037290934,0.09746764,-0.033295102,-0.0965586,-0.008343785,0.10537953,0.00034020105,-0.058473088,0.059534755,0.0059524286,-0.055350006,0.018346425,-0.073291674,0.020665566,0.06811661,-0.034649584,0.23786356,0.031508043,0.011833982,-0.07971728,-0.08765157,0.120424785,-0.13669688,0.10048136,0.15153027,0.07585941,-0.15876578,0.00060256885,-0.0059633194,0.024565477,0.10097892,-0.035520576,-0.14063628,-0.11401096,-0.13953668,-0.011458337,-0.07481964,-0.039441846,0.06936518,-0.10334333,0.03325552,-0.20212744,-0.0016743332,0.022107352,0.15805167,0.050196216,-0.06357274,-0.051324937,0.055638608,0.117828906,0.12790436,0.11699159,0.04130723,0.22177315,0.030072588,-0.068845786,-0.10027725,0.10464357,0.04983837,-0.022521148,-0.036172967,0.010552135,0.0956661,-0.046823785,0.05127336,-0.06531426,0.1860107,0.059595753,0.028608726,0.07304222,0.044014372,0.06303394,-0.15726118,-0.014329705,-0.018730357,0.14908265,-0.1072687,0.12444009,-0.10479535,-0.08149431,-0.04847597,0.16171081,-0.06877924,-0.13425484,0.24176429,-0.113532424
/government/legislative_session/members./government/government_position_held/district_represented	-0.083972804,-0.009763913,-0.05644305,0.34858948,-0.047858614,-0.05869885,-0.13694285,-0.05709018,-0.0064256554,0.015982058,0.20233834,0.041655466,-0.050411258,-0.16369328,0.0024515777,0.17091328,-0.0070351954,0.120152354,0.036654904,-0.06591784,0.04797473,0.10831391,-0.131548,0.001338039,-0.09123495,-0.101938844,-0.11819405,0.00876415,-0.030097306,0.012951772,-6.873629e-05,-0.08897501,-0.04650704,0.089815736,-0.035898633,0.10155869,0.025542686,-0.04726391,0.07287472,-0.126039,0.052495975,-0.012049823,-0.08636795,-0.26875007,-0.13612032,0.0135441655,0.07886641,-0.102828175,0.06538164,-0.06635764,0.021776242,0.05089606,-0.0706856,0.041452803,0.10681484,0.0004873709,0.1914967,-0.14905757,0.049025446,0.00048246802,-0.1611551,0.15130237,-0.046258796,-0.031460017,-0.17400788,-0.1814847,0.19579238,-0.18403424,0.035697214,0.08193499,0.14943,-0.063637145,-0.027226754,0.0007208257,-0.03761466,-0.07164726,0.089700095,0.12403995,0.022063578,0.0326771,-0.04817705,0.07218703,-0.041854993,-0.061539665,-0.06945681,0.0065782736,0.04661599,0.03116445,0.021564648,-0.15362346,0.034869514,-0.002960848,-0.041319035,-0.039611522,0.002854014,-0.011646066,0.2345404,0.13611372,0.06329265,-0.09530862
/sports/sports_team/roster./american_football/football_historical_roster_position/position_s	-0.1307563,0.12867579,0.036487564,0.032362595,0.14323422,0.2013291,0.050865084,-0.0039039939,0.061200477,0.0179952,-0.068863966,-0.0015822616,0.037675597,0.118164405,0.12400799,0.11990222,0.13566779,0.06192457,-0.02004971,0.033860702,0.015278266,-0.026433684,0.32112604,-0.019812092,-0.12249085,-0.065637566,-0.0065675355,-0.028079888,0.05821474,0.13956816,0.09511411,0.026082385,-0.087006554,0.22593033,-0.14540127,0.022373574,-0.15196097,0.029241426,0.08966331,0.0113028055,-0.1843406,0.13388035,0.10015763,-0.08016259,0.181632,-0.028626509,-0.09921763,0.014317572,-0.0933647,0.032043867,-0.047653906,-0.032224942,-0.073628336,0.01170726,-0.047958616,-0.00010551439,-0.0032861817,-0.008244477,0.036959402,0.014372085,-0.038258106,-0.21291865,0.19222109,-0.1244669,0.017281141,0.09514651,-0.14207032,-0.084008746,-0.008585568,-0.12523289,0.051631447,0.11009954,-0.10788728,0.0050843367,0.022470994,0.0059885764,0.2744496,0.08433284,-0.046473607,0.110518694,0.06480667,0.028384404,-0.03304551,-0.026196633,0.015063273,0.18677142,0.08397079,-0.08582629,-0.09104387,0.026698757,-0.12758042,-0.031864796,-0.040424917,0.05128438,0.058763865,0.08852083,-0.072376214,-0.17035519,0.08471943,-0.056977767
/government/government_office_category/officeholders./government/government_position_held/jurisdiction_of_office	0.12160366,0.1538746,-0.03885855,0.102597885,0.0065975892,-0.16752806,-0.07382575,-0.14681078,-0.19047904,-0.15332447,0.04757121,0.038333405,-0.032199368,-0.0685453,-0.12127956,0.09552951,-0.0834939,0.008593011,0.16332717,0.0035876816,-0.09593782,-0.039773583,-0.025795054,0.113947354,0.07153206,0.016434414,0.038873225,-0.121279545,0.020522252,0.063829176,-0.07511091,-0.16496857,-0.040923562,0.10429499,-0.115857586,0.0004772647,-0.055670798,0.07838994,0.11759931,-0.033003993,0.081607066,0.025867078,-0.046272404,-0.02727386,-0.048373867,-0.047805946,0.135881,0.023189014,0.03961766,-0.06488783,-0.12716149,-0.023926016,-0.092551865,0.082202405,0.039251167,0.07605264,0.21400127,-0.09259534,0.10585662,-0.06679815,-0.022126611,-0.06452749,-0.05926772,-0.04909865,-0.09843045,-0.051850136,0.059451412,0.0032064086,0.013457858,0.048756994,0.078141145,-0.054256137,-0.10897666,-0.14744343,-0.06865137,-0.10982684,0.0692417,0.075005725,0.12976265,-0.27601242,0.17929946,0.08292687,-0.079118416,0.059214868,0.24300934,-0.052229542,0.017769506,-0.068050325,-0.09286039,0.03305222,0.071508035,0.079487614,-0.11830201,-0.014227674,0.020699285,0.068707645,-0.113614306,-0.051699337,-0.35571137,-0.08626676
/award/award_nominee/award_nominations./award/award_nomination/nominated_for	0.20157008,-0.0767637,-0.074118905,0.17849877,-0.022686476,0.050115976,-0.059443403,-0.22286892,-0.1773443,-0.011980298,0.11980267,-0.08023139,0.12689163,0.11860477,0.010301793,0.003063259,0.041976172,-0.024415161,-0.046640243,0.050411724,-0.22265275,0.07744062,-0.03598787,0.05964505,-0.0041255797,0.14247589,0.07338011,-0.102252685,0.09871778,-0.00028602546,0.05711433,-0.000894182,0.023961198,-0.068403356,-0.057540342,0.07140904,-0.001258362,0.06957285,0.069571756,-0.14847693,0.054578245,0.10355527,-0.029686186,0.07687227,-0.07026101,0.12171528,0.031702694,-0.074509226,-0.02297664,0.10969446,-0.09274319,0.12993844,-0.18753418,0.018189939,-0.06300661,0.07473601,0.087807834,-0.09633742,-0.11275451,0.17256883,0.014578187,0.08078287,-0.045774795,0.027878776,-0.15619446,-0.022094755,-0.13460366,0.07683267,-0.1802178,0.07681433,0.04250686,0.17246911,-0.05198173,-0.021228867,-0.06246337,-0.14544423,-0.0012121351,-0.005775053,-0.054766025,-0.17539944,-0.098711856,0.023420267,0.08583219,-0.09630148,-0.1487039,-0.026828758,0.20399454,0.22097798,0.1810182,0.007533983,-0.015390059,0.09558303,0.083049774,0.0065881484,0.057098016,0.02005641,0.22314596,0.042898633,-0.048288684,-0.05437378
/people/deceased_person/place_of_death	-0.055345327,-0.15719049,0.018913647,0.12298431,0.16868131,-0.060004268,-0.033622887,-0.22801274,-0.017393408,0.030689457,0.07281845,0.032948725,-0.07266889,-0.15189388,0.12411678,0.09686862,-0.14077115,0.0471406,0.0067640007,0.0047942195,0.04616609,0.05781499,-0.093747154,0.021446044,-0.0105146505,-0.09990332,-0.25475055,-0.06848106,-0.062261753,-0.118237175,-0.071687266,-0.030457119,-0.054015394,0.14673087,-0.1061417,0.0009914647,0.018788982,-0.032771777,-0.17443937,-0.018354852,0.055607785,-0.037141047,0.20460226,0.08827974,-0.17750125,-0.05809463,0.08570182,0.09115789,0.26847535,-0.10896422,0.068901084,0.077102,0.0058590765,-0.06369571,0.012727879,0.07944262,0.1152925,0.031470045,0.025504587,-0.04400783,-0.032882612,0.11151304,-0.06718455,-0.0040116776,-0.1520761,-0.07441766,-0.039968163,0.04057376,-0.11284023,0.18238293,0.030025916,-0.20151536,-0.044390693,-0.107921384,0.020497328,0.017466228,0.03259083,0.06918996,0.13409615,-0.09942068,0.020154426,-0.1308768,-0.07597065,-0.14087999,0.11621707,-0.01939094,0.0704184,-0.040475857,0.05859691,0.014784733,0.32706156,-0.042813543,-0.041617148,0.022574542,0.055404764,-0.06998044,-0.008043683,-0.08895651,-0.042577792,-0.02697031
/music/group_member/instruments_played	0.045142487,-0.10384103,-0.16372529,-0.0315586,0.09235306,-0.065470695,-0.26369092,0.012076704,-0.10621342,0.063451216,0.03568522,-0.06123219,-0.057651408,-0.11025184,-0.07129453,0.03345967,-0.030002277,0.078590475,0.11325377,0.08694473,0.04172189,-0.17988038,-0.113607116,0.014288716,0.034666445,0.13912807,0.16627741,-0.11786774,0.077522844,0.14144109,0.0305952,0.05735572,-0.072959274,0.046918318,-0.03599704,-0.040971275,-0.20870876,-0.026935816,-0.077583075,-0.07008885,-0.11750225,0.067595184,-0.026677426,0.0778683,0.026016226,-0.17635424,-0.01312212,0.124685735,0.113904364,0.042107057,-0.08435512,-0.019371549,0.08829122,-0.0062854756,0.254394,-0.00734487,0.08205917,0.010457392,-0.11370862,0.13985017,0.1901483,0.108355656,0.15178168,0.06706129,0.15981983,-0.0041917292,-0.13613617,-0.1356686,0.15654686,-0.12868245,-0.07062134,0.17682704,0.080541015,-0.21580842,-0.084064335,0.06853222,0.0127232345,-0.022166992,0.12109445,0.03265652,-0.009766096,-0.098571606,0.0023553458,-0.09014049,-0.055518236,-0.018446935,0.042319294,-0.1070844,-0.0065171444,0.13441396,0.03131777,-0.08258994,0.16374569,0.02719016,0.049452886,0.035172086,-0.09528193,-0.056091707,-0.018812962,-0.012091683
/film/production_company/films	0.05119461,-0.09231193,-0.12561914,-0.10623246,-0.109611005,0.14503881,-0.1709547,-0.030148206,-0.1092874,-0.10676788,-0.0328668,0.10273879,0.12731762,-0.030131456,-0.06619059,0.14237843,-0.21561162,-0.01597601,-0.07236043,0.067748986,-0.046049446,-0.19830595,0.022913894,0.1270812,-0.01415599,0.13955437,-0.07073251,0.026144857,-0.0648277,-0.14401075,0.08158677,-0.003763124,0.076927744,-0.064038396,0.04131819,0.046672218,-0.05144519,-0.01816931,-0.02788469,-0.041713674,0.023824902,0.07984382,-0.13533592,0.15745659,0.12138512,0.03379243,-0.12736702,0.08024418,-0.07392198,0.1846595,-0.05883371,0.10664336,-0.19947815,-0.041417323,-0.012906064,-0.06186482,-0.02377015,0.016678477,0.031972874,0.22670934,-0.050742395,-0.063997954,0.021815093,0.08982071,-0.025447257,0.15949182,-0.20330973,0.13212113,-0.13427614,0.03784671,-0.015149842,0.14288542,-0.06608259,0.037869908,-0.20812018,0.04406095,-0.026429022,-0.09535407,-0.26815367,-0.10903569,-0.07969744,-0.07777734,-0.026597181,-0.0878556,0.006591727,0.017594116,0.10767142,0.04036714,0.037456024,0.0033311406,-0.07386759,0.10961868,-0.025768027,0.11366092,-0.1371455,-0.034390282,0.08996488,-0.0041792663,0.10976719,-0.11006705
/sports/pro_athlete/teams./sports/sports_team_roster/team	-0.038228396,-0.047367044,-0.07276975,0.025309628,-0.24548419,0.005540351,0.0125449,-0.0135925645,-0.1634226,-0.0109262215,-0.09060943,0.064447895,-0.17748448,-0.035789642,0.13695934,-0.05502343,-0.04981635,-0.14906548,-0.1996538,0.10173952,-0.036183286,-0.021074329,0.105713904,-0.005702351,0.049192194,0.017870698,-0.20663351,-0.018841153,0.24592985,-0.07329006,0.047298085,0.023565121,0.15516815,-0.13612635,-0.07167815,-0.08257635,0.18745574,0.00750258,-0.2144596,-0.012183888,0.025272738,-0.09625585,0.0084785195,0.052238338,0.016810039,0.08714026,0.07773107,-0.086439595,-0.10816728,0.06252905,0.040694,0.026273472,-0.04938298,-0.057604622,0.097946584,-0.049872242,0.12611413,-0.21183869,-0.1018829,-0.015571249,0.1379351,0.051954113,-0.037026476,0.14046246,0.08668691,0.07838337,0.075589515,0.006260825,0.021141596,0.022451889,-0.09160501,-0.03517923,0.04656143,-0.0012867689,0.041628625,0.12657678,-0.118237056,-0.06616123,-0.104498595,0.15965219,-0.15293115,-0.1458347,-0.13230476,-0.07509881,0.13109021,-0.10675854,-0.06679905,-0.02207395,-0.18399943,0.013848359,0.055787675,0.15770295,-0.004737182,0.06958039,-0.15982363,0.18058185,0.0147508485,0.01756856,0.11551408,0.004696416
/base/schemastaging/athlete_extra/salary./base/schemastaging/athlete_salary/team	-0.028802002,-0.11991418,-0.0062604686,0.102466375,0.30553344,-0.01994578,-0.26719117,0.054889336,0.16572824,-0.056392092,-0.08827573,0.09231211,-0.109698415,0.0027911158,-0.029686637,-0.072454296,0.17044382,0.1577293,0.14448711,0.06275562,0.046787255,0.032609753,-0.047022957,-0.003545873,0.058284834,0.095096536,0.15648586,-0.19910492,0.058594078,0.04577051,0.013290469,-0.00953951,0.041158475,-0.08774075,-0.21088468,0.1010436,0.04707338,0.064474955,-0.030630719,-0.2014586,-0.017537178,0.09083882,-0.0228703,-0.13606569,0.04172527,0.063594215,-0.13338634,-0.02596528,0.1760911,-0.044910226,0.10322654,0.048143882,0.19713916,0.030985897,-0.1196531,-0.01456766,0.0379572,0.11146687,-0.10426053,-0.12504499,0.15625632,0.13218383,-0.0011921092,0.10745757,0.032474402,0.030384736,0.036170952,-0.005224105,-0.0018890641,0.052956253,0.033727057,0.06775412,0.17061904,0.2246957,0.012995673,-0.07175348,-0.054885376,0.028413914,0.048118215,0.09570298,0.039888665,0.057674978,-0.07939467,-0.08452295,-0.0148940245,-0.034527738,-0.10039962,0.08407699,0.07112659,0.03888622,0.13509595,-0.040570967,0.030638747,-0.018821329,0.071633644,-0.08214579,0.021886813,0.15133463,-0.05566597,0.03594097
/music/artist/track_contributions./music/track_contribution/role	-0.00695806,0.14373693,-0.09768755,-0.12307302,0.101849146,0.0246887,-0.149085,-0.051440585,-0.07914688,-0.106902204,-0.058250535,-0.048078135,-0.055060353,-0.0035674875,-0.035944592,0.05627684,0.010902125,0.059374794,0.06484521,0.039421886,0.09803838,-0.103655286,0.1472687,0.02500078,-0.094331145,0.011378683,0.32443798,0.007072089,0.11839225,0.11997958,-0.061370943,0.02761075,-0.019202434,0.13101548,0.024173182,0.022261009,0.04545823,-0.086365275,-0.013715096,0.060519114,0.05681396,0.10585804,0.06752567,0.14512937,0.09025059,-0.16758265,0.115468316,0.18957904,0.06374256,0.07530445,-0.059273954,0.022059608,-0.035500955,0.08848086,0.10112089,-0.11440088,0.00998202,0.020089386,0.02319942,0.03577255,0.12307588,-0.080611564,0.22470422,0.1087436,0.10032847,-0.001972545,-0.064991176,0.06787064,0.15396336,-0.1610686,-0.15427819,0.08506155,-0.123773895,-0.15821853,-0.16509424,0.1784906,-0.06864022,-0.10940981,0.053223737,-0.032406915,-0.023395877,-0.024466304,-0.08865384,0.092394784,0.0969157,0.177586,0.015898267,-0.12341234,-0.08894821,0.18040498,-0.1722047,0.012113655,0.12086096,0.09211624,-0.02795851,-0.049735036,0.13307486,0.015481143,0.00055645884,-0.07107796
/organization/organization/acquired_by./business/acquisition/acquiring_company	-0.009864873,0.19183658,-0.102488846,0.023164649,0.34275308,-0.18201739,0.04319896,0.040915933,0.01983101,0.011758597,0.04626612,-0.08964677,-0.150753,-0.14287652,0.06487075,0.22068805,0.29258853,-0.186226,0.056902476,0.049120348,0.07090818,0.009123047,0.06187443,-0.072064966,0.050156843,-0.15198718,0.08136005,-0.14841917,-0.0390923,-0.021146363,-0.07524036,-0.04881278,0.0644285,0.049224343,0.02966225,-0.035529483,-0.01394075,-0.041933406,0.0466532,-0.07323863,0.20911987,-0.028223408,-0.022261923,-0.109643236,-0.102012746,-0.13671906,-0.0043923156,-0.0058638817,0.19815779,-0.025832476,0.036023945,-0.056774177,0.096505344,0.07173831,0.014982129,0.12177904,-0.056487344,0.06082003,-0.09688244,0.012493956,0.08957477,-0.09571713,-0.07039631,-0.036701035,-0.09687573,0.0065354803,0.07356683,-0.09774048,0.12973781,0.097264715,-0.07456919,-0.10265242,0.0065526883,0.061783228,0.21214227,-0.053641845,-0.099318005,0.04288115,0.13764633,-0.056393288,-0.12805724,0.009959816,0.025225386,0.048833333,-0.0061835265,0.11533417,0.013659277,0.046151865,-0.021548437,-0.049817663,0.101712815,0.032402806,0.0065377294,-0.08449074,0.03502203,-0.07523548,-0.020674033,-0.14750989,-0.03494947,0.17073654
/music/instrument/instrumentalists	0.024294265,-0.14251222,-0.07145791,0.14516371,0.038318302,0.08275558,0.013089156,0.026386015,0.07322922,-0.014040707,0.098743744,0.08400125,0.07318024,0.016785745,0.036600385,-0.10849374,0.10539247,-0.1226441,-0.21804562,-0.006344203,-0.08774292,0.16331485,0.07170742,0.03465597,0.019889357,0.10416876,-0.21024317,-0.027655099,-0.1100852,-0.22106794,0.016531717,-0.035714142,0.10360717,-0.10517746,-0.12630929,0.01700943,0.13112466,-0.08295051,-0.07330443,0.0258542,-0.0022829187,-0.11412326,-0.20319796,-0.08537816,-0.11880953,0.12694858,-0.06118013,-0.116677485,-0.06587603,0.043627713,0.07625433,0.053584404,-0.04264282,-0.06148318,-0.21100284,0.04172161,-0.021797009,-0.0011301413,-0.07453057,0.04591294,-0.15228724,0.07453918,-0.24223922,0.00016463047,-0.077215135,0.019903133,0.061432943,0.13949941,-0.2123575,0.15527602,0.08974603,0.05399686,0.17661938,0.15521687,0.18947543,-0.03550978,0.009891763,-0.017509783,-0.06670324,0.054894116,-0.09448574,0.0064776023,-0.011574635,-0.05111059,-0.13497606,-0.12588678,-0.055976216,0.15901315,0.0020264052,-0.09106817,0.09424445,0.046462912,-0.04214206,0.038046602,0.008331023,0.08290233,0.025354812,0.13009031,-0.035281107,-0.0035695028
/military/military_combatant/military_conflicts./military/military_combatant_group/conflict	0.10860437,-0.020836039,-0.10450568,0.13517447,0.14187306,0.023889648,0.04637158,0.08853638,-0.020222794,0.13250352,-0.096469805,-0.047213875,-0.015045701,0.00058508426,-0.079092115,-0.099293664,0.10121532,0.10627636,0.010775773,0.048160702,0.003329817,-0.04260474,-0.07309999,-0.028927796,-0.032798193,0.026032025,0.04346724,-0.010969306,-0.14884175,0.05595333,-0.015772901,-0.113728456,-0.07870644,-0.059585884,-0.030810492,0.03149208,0.0062557505,-0.005514614,0.07693941,0.06200992,-0.058880515,0.101965286,0.011911872,0.13342954,0.04116715,-0.09549489,0.05218228,0.02971875,-0.07303813,0.0010653582,-0.080564916,0.08216312,-0.13960305,-0.07955322,0.007540596,-0.1102806,-0.0052452865,0.09306833,-0.14172247,-0.08143621,0.07977,0.08179657,-0.118165426,0.12836431,0.055105668,0.11128577,0.037707802,-0.033414982,-0.16813739,-0.099794716,-0.115401044,-0.06535001,0.099577345,-0.24280573,-0.12929937,0.06566519,0.08336471,-0.020569,-0.016152462,0.23628484,-0.16645852,-0.08477542,0.022798603,0.23953892,-0.031136982,0.21899937,0.18938714,0.0877892,0.20269182,0.041142862,0.13786744,0.07583381,0.036107775,0.17424639,0.011678879,-0.1398276,-0.020899622,-0.10771303,0.2568854,0.030370004
/people/person/education./education/education/institution	0.096503474,-0.09609424,-0.044556696,0.03000604,0.066897444,-0.03270687,-0.08624172,-0.16734505,-0.08595023,0.03358163,0.106413275,0.12964812,0.07338398,-0.103634,-0.052188747,0.008300174,0.05313992,-0.033766292,0.08371849,0.10036033,0.019796016,0.15653223,-0.17026629,-0.014940092,0.24572752,-0.01364697,-0.015000208,-0.14022385,-0.053165484,0.0041805343,-0.19215904,0.05162812,-0.013380119,-0.067730494,-0.05925938,-0.11424186,0.013402777,0.03897311,0.051521555,-0.18142183,0.178049,-0.07584651,0.06312089,0.005302586,-0.03426529,-0.13010305,0.1111684,0.06563339,0.046077624,-0.013560015,0.106920704,-0.11978501,-0.06867073,0.028347552,0.049482852,0.1575556,0.09930784,-0.06957707,-0.13278598,0.14332929,0.107275404,0.008936209,-0.019860594,0.047316976,-0.11700566,-0.05459069,0.064111724,-0.11071152,-0.033190966,0.04915731,0.022729075,0.03229235,0.045716103,-0.14951086,0.03342185,-0.039976254,0.033225805,0.096349,0.19718021,-0.05064858,-0.098627724,-0.098758,-0.027585333,-0.13582018,-0.0677769,-0.14500728,0.19251135,0.15659347,0.17700851,-0.15173598,0.12696493,-0.025427304,0.11125255,-0.021602513,0.11391192,-0.0916619,-0.23422077,-0.011972368,-0.16204752,0.005094221
/award/award_category/winners./award/award_honor/honored_for	0.12995647,-0.10783984,-0.1324219,0.11789638,-0.050066564,0.24301654,-0.07706763,-0.15298165,0.05744159,0.016159188,0.07904714,-0.033048935,0.076611966,-0.018339066,-0.0980101,-0.046663977,0.022464339,0.027655173,-0.07704554,0.14178796,-0.10214495,-0.15264946,0.025646169,-0.04711103,-0.039399546,-0.03766858,-0.21959223,-0.14076126,0.15201329,0.041594356,0.12216791,-0.036843248,0.026161445,-0.08993905,-0.022307757,-0.047552183,0.05750075,0.099522814,0.08372633,-0.06287115,0.07175698,0.008568062,-0.104003824,0.07692199,-0.1026861,0.1201459,-0.08532187,-0.05705019,-0.019664215,0.13869652,0.027453741,-0.0024660344,-0.14588349,0.0109035885,-0.1910418,0.024299735,0.026112262,0.10496306,-0.047726918,0.23350112,0.008668557,0.013830766,-0.12421261,0.009173534,-0.049834512,0.13039993,-0.032208897,0.11832429,-0.029235274,0.021756666,0.014908246,0.08769565,0.08886549,0.068348296,-0.08081293,0.09082564,-0.12922882,-0.19726463,-0.16960122,-0.06494156,0.07841325,0.10494608,-0.03331913,-0.11698736,-0.003379556,-0.02825053,0.22960031,0.11086139,0.2744776,0.10805611,-0.09690295,0.12924509,0.09025168,-0.027703496,-0.0527992,0.03153393,0.09739416,0.049478263,0.007304668,-0.0896684
/people/person/gender	0.027285475,-0.09412034,-0.11091905,0.11882484,-0.09673026,0.2561617,-0.023434931,-0.16322896,-0.042658094,-0.06867485,0.0065059136,0.07788235,0.08835713,0.026495593,-0.20505005,-0.07009871,0.04930253,0.02317522,0.061117288,0.0627109,-0.052144945,0.1510287,-0.08929327,0.1380617,0.048687894,0.095378146,-0.059798338,0.01598834,0.06552397,-0.09439329,-0.13594288,0.08851203,0.21750864,-0.005774202,-0.08022564,-0.10085999,0.12157159,0.11372931,0.06068018,-0.12819932,0.08682695,0.011411799,0.0880748,0.026302962,0.0062524527,0.07987299,0.16132246,0.06573786,0.03455106,0.09307888,0.062109705,-0.023598423,-0.021529717,0.04648611,-0.04794508,0.11711417,0.16027284,0.06525063,-0.016411573,0.24594453,-0.0044160457,0.07135611,-0.114773475,0.20174171,-0.021967359,-0.06928216,-0.11546715,0.07949642,-0.17725742,0.08462861,0.08965551,-0.09018806,-0.038533144,0.035541333,0.012225797,-0.05313561,0.09767177,-0.04117897,-0.09981163,-0.009071962,-0.13827594,-0.015669283,-0.042211294,-0.0435334,-0.021073611,-0.113028616,0.20076413,0.023414558,0.10357859,0.07073571,0.013090853,0.17910025,0.0389554,0.07349036,0.2251433,-0.011648648,-0.069449,-0.0764292,-0.18323885,-0.05135875
/business/job_title/people_with_this_title./business/employment_tenure/company	-0.07683635,0.069650136,-0.027514772,0.03583206,0.13715658,-0.1579489,-0.07243881,-0.059860934,-0.04302487,0.016232138,0.024341423,-0.074336514,-0.014550501,-0.11089059,-0.020106522,0.17735606,0.16011707,-0.06441469,0.09903733,-0.03080118,0.12119946,0.03766402,-0.09575607,-0.14683771,0.15745386,-0.005767782,0.014608471,-0.1329272,0.019440945,0.05786362,-0.11309793,0.091949694,-0.057958085,-0.08502737,-0.036684163,-0.15251477,-0.057400443,0.03452766,0.04801079,-0.12264451,0.09169872,-0.0044430587,0.11790544,-0.14498658,0.058464043,-0.16989936,0.04768778,0.035985783,0.045208577,0.00070786546,0.09426587,-0.127876,0.1332972,-0.08631789,0.1946632,0.24944183,0.019800661,0.033848573,-0.18887784,-0.014588776,0.17157368,0.010770335,0.11201058,0.023403915,0.01249467,-0.12684193,0.13372137,-0.13834229,-0.12989627,0.17082937,-0.016785247,0.038557936,0.09651294,0.024286984,0.20034882,-0.08145098,0.052244112,0.07968639,0.25498185,0.023846837,-0.12141097,-0.021113196,-0.002064807,0.054819707,-0.094910674,0.029137501,0.011049409,0.048931066,0.08172756,0.094688036,0.15315975,-0.04827142,-0.0023595954,-0.16413912,0.11485787,-0.02546669,-0.0601192,0.021200242,-0.04698418,0.11600456
/base/popstra/celebrity/friendship./base/popstra/friendship/participant	-0.027236125,0.0757061,-0.13302958,0.16800421,-0.056601517,0.17952532,-0.04454925,-0.014286375,-0.025892919,0.07040898,-0.082828544,-0.1407008,0.17314456,-0.0062021515,0.038101308,0.13409719,0.08756781,-0.10493256,-0.036185805,-0.21973968,-0.03919369,-0.0033643686,0.11347853,-0.039323784,-0.04765621,0.06382826,0.1038864,-0.07081332,-0.05060914,-0.17819284,-0.037935097,-0.031137446,-0.13606839,0.021440037,0.17128032,-0.04858401,-0.031212978,0.022322848,-0.05266709,0.06036975,-0.041701112,-0.0066732406,-0.14920497,-0.019425547,0.154802,-0.010586661,-0.10163713,-0.06673463,0.029119635,-0.112222716,0.120887645,-0.0011392004,0.18065074,-0.09075963,0.18129206,-0.18903992,-0.09788762,0.1644856,-0.16031398,-0.0069524613,0.020399874,-0.20030288,0.11209522,0.10024113,-0.24497949,-0.015445089,0.0015329182,-0.0023797834,0.037169077,0.09345548,-0.12851448,0.082446665,-0.0931697,0.035879362,-0.08395835,-0.026824351,-0.021374296,-0.03124552,-0.010184984,-0.017014716,-0.12827066,-0.013163173,0.057331756,0.15581295,-0.025095701,-0.034846764,0.099812455,0.020166315,-0.05479112,-0.061186314,0.009078965,-0.05351965,0.038489398,-0.16489358,-0.0636981,0.009270148,-0.18029137,0.15591736,0.19764487,-0.07359405
/fictional_universe/fictional_character/occupation	0.018827042,-0.10504639,-0.07847893,-0.14526334,0.020736992,0.019794405,-0.044416502,-0.078283705,-0.014217068,0.1632983,0.015632443,0.11788542,-0.017924223,0.0671453,-0.014036958,0.15290874,-0.04592022,0.14157069,0.049223177,0.056011636,0.12158502,-0.040083576,-0.12238606,-0.039063837,-0.047840513,-0.10071747,-0.049087636,-0.010661127,-0.1181964,0.013130659,-0.11099846,-0.2116444,-0.17125991,0.03260486,0.013122411,-0.03581535,-0.03310868,0.055671174,0.0006449724,0.022854455,0.08943971,0.09795665,-0.00645,0.051820707,-0.04635674,-0.19077109,0.027032068,0.02897107,-0.018384134,0.06639226,0.0033729833,-0.049955484,0.020409904,-0.011571972,0.12193714,0.29288942,-0.20731123,0.09121731,-0.10716105,-0.08753742,0.08692737,-0.20527768,0.060001545,-0.049291406,0.004634081,-0.0337457,0.052401382,-0.13190141,0.05895268,0.027199576,-0.1074499,-0.07262934,0.02760772,-0.19130713,0.041835487,-0.23834455,0.028959887,0.13833542,0.18108405,-0.13480344,-0.058637083,-0.08774325,0.073864534,0.0012657869,0.09645781,0.044941336,0.035548262,-0.061934054,-0.028309114,-0.16048521,-0.041904036,-0.024419872,-0.052529674,0.15158212,0.013515922,0.02454174,-0.19331403,-0.16265747,-0.030285953,0.20536117
/education/field_of_study/students_majoring./education/education/institution	0.07719843,0.15462996,-0.1013034,-0.16741344,0.051708795,-0.07829522,0.084963985,-0.15258697,0.07757303,0.046138614,0.17423214,0.10094525,0.06357294,-0.07964496,-0.06154475,0.10981668,0.1413601,-0.010548381,0.16051112,-0.28114176,0.17961377,0.08463752,-0.09863,-0.15472972,0.16514212,0.118001394,0.031532582,0.14428002,0.07970257,-0.05580856,-0.14745568,0.10838131,-0.032402262,-0.09002752,0.047218423,-0.035091884,-0.023471383,0.01387157,-0.019444488,-0.0975876,0.017175276,-0.02601425,0.03534427,0.10529084,0.020585196,-0.036517404,-0.12643838,0.051840432,0.08251369,-0.046440095,0.060211312,-0.056438796,0.09204822,-0.03720164,-0.009169392,0.14265381,-0.018324552,0.09779996,-0.25302526,0.010957691,0.09523464,0.12768836,0.021556456,-0.018924337,-0.08586832,-0.07431998,-0.03320637,-0.114401005,-0.026166484,0.098854855,-0.012363299,0.008273013,0.0613,-0.02653816,0.12944868,-0.059318036,0.018811015,0.18640767,0.15611103,0.030808765,-0.049043193,-0.060908217,-0.017883124,-0.0026344575,-0.10440036,-0.13916291,0.041158445,0.17072782,0.1946199,-0.10684187,0.022764742,-0.048321914,0.0033669807,-0.19533911,-0.046921935,-0.1499759,0.066372044,0.048639026,-0.033998925,0.065009154
/business/business_operation/industry	0.054130353,-0.029918918,-0.01993704,-0.10026343,0.04846163,-0.046293307,-0.11405252,0.16509077,0.05990669,0.10519026,-0.009541319,0.044932544,0.15731466,-0.017056132,0.14174461,-0.021778652,-0.06955313,0.057370827,-0.123213865,0.016615462,-0.16133484,-0.1960433,0.0027776202,0.2342622,0.066197634,-0.0007037201,-0.019206773,-0.011057668,-0.10516331,-0.078943424,0.19790289,0.027339643,0.15489587,0.025766468,0.06991875,0.015171943,0.044865694,-0.0167229,-0.16623725,-0.06502349,-0.081360765,0.05650599,0.017330222,-0.012295876,0.08787126,0.11979616,-0.028052637,0.13623175,0.15427159,0.018783024,0.006144963,0.07611919,-0.08302788,0.16871008,0.041062932,-0.16827603,-0.07884196,-0.004625679,0.0559442,0.24960902,-0.09170875,0.0027602357,0.22614479,-0.05624296,-0.11021228,0.14343292,-0.035993088,0.10444601,-0.083877146,-0.10945267,-0.12518269,0.021038307,-0.010891857,-0.012121552,-0.07957099,0.022066973,-0.08055212,0.123095736,-0.15426913,-0.028406331,0.23274113,-0.00484007,-0.020054942,-0.03126016,-0.0018050153,-0.039291203,-0.112704314,-0.055316117,-0.13496651,-0.043814283,-0.019736309,0.16728486,-0.14703952,0.02779985,-0.042903677,-0.07265324,-0.076801375,0.0204755,0.077881336,-0.17916037
