1345 100
/location/country/form_of_government	0.07360771,0.14063184,0.030159017,0.22745101,0.012449127,0.056660485,0.034203958,-0.11158032,-0.059337344,0.07116659,-0.07142317,0.16253497,0.06461752,-0.21126969,0.049414933,-0.052426215,-0.05222508,-0.037493043,0.0035829786,-0.04791274,0.03521656,0.095302455,-0.018288102,0.21106759,0.25275415,-0.068372644,0.05836668,0.0015593136,-0.090885535,-0.13441414,0.096083276,0.020567033,-0.050919343,-0.059982307,0.043613885,0.05436469,-0.15612109,0.07306638,0.026361763,-0.050158758,-0.3130033,-0.049769007,0.093922764,0.16633436,-0.022066046,-0.052572284,0.05310801,-0.026170503,-0.043780573,-0.00458001,-0.09541467,0.01904588,-0.075429484,-0.04138893,-0.03469434,-0.13866991,0.035143908,0.057242937,0.14652969,0.030385224,-0.014468615,0.026858658,-0.123583406,-0.12303387,-0.06676178,-0.07368152,-0.06440261,-0.09331471,-0.015766036,-0.07412506,-0.015325147,0.10840315,0.11051185,0.009488038,0.03241907,-0.052076124,0.035389014,0.08696651,-0.016725324,0.06554705,-0.08986258,-0.11993587,-0.19851966,0.07398819,0.04950817,-0.03310682,-0.033089466,-0.07070256,0.22009611,-0.011241684,0.03675551,-0.12206975,-0.024595788,-0.10714685,-0.049642663,0.07980725,0.20082827,0.12903576,-0.038833175,0.10998046
/tv/tv_program/regular_cast./tv/regular_tv_appearance/actor	-0.06586161,0.119174264,-0.011891678,0.019074848,-0.046717573,-0.106374055,0.09182734,-0.074750215,0.14284156,0.15913942,0.040105764,-0.043864787,0.03495842,-0.102879874,-0.04104798,-0.034131978,-0.048938103,-0.1396349,-0.012164541,0.113124534,0.17383665,0.0650812,0.04305441,0.09494769,-0.081331216,-0.06885974,0.12807313,0.20001006,-0.015728414,0.071667045,-0.07197646,0.09443047,-0.11011452,-0.14543693,-0.06975695,-0.084503055,0.07815015,0.2656222,-0.11560063,-0.017690467,0.05039827,0.0036899997,-0.14064157,-0.08634648,-0.06627396,-0.06444542,-0.00129007,-0.21173221,0.08080055,0.05067197,-0.00489351,0.056728713,-0.13365872,-0.011120635,0.15206452,-0.09651949,0.045274414,-0.070634484,0.03446347,0.14887576,-0.075932875,0.023058563,0.045856655,0.07894543,0.17391722,-0.047130052,0.18426062,0.05524335,-0.04899623,-0.04582234,0.07110132,0.1673465,0.05464755,0.14948663,-0.0977227,0.0596913,-0.04824943,0.06444117,-0.12920055,0.0011489638,-0.010819827,-0.121764086,-0.062764026,0.009338026,0.114659876,0.05208008,0.032573327,0.032960147,-0.17430086,-0.092303574,0.22114152,0.04758824,-0.2336104,-0.05875371,0.07303169,0.056374747,-0.094633214,0.155047,-0.082025304,0.06029176
/media_common/netflix_genre/titles	0.009522332,0.015386944,0.010725068,-0.29065603,-0.04270739,0.0797209,0.12434132,-0.030905101,0.0018742166,-0.17231241,0.08698412,0.043250155,0.025646789,-0.009547096,0.10486687,-0.05405622,0.10536027,-0.049191188,0.031644113,0.03419924,-0.06905895,-0.084824026,0.052706335,0.24719043,0.017324196,-0.06651342,-0.11049211,-0.03060674,-0.07664767,-0.015166204,-0.20806907,-0.08800913,0.0566797,0.14810717,-0.040455576,0.11528337,-0.109390385,0.026358474,-0.08854249,0.13525508,0.073588595,0.057455998,-0.08223474,-0.13585827,-0.041005105,0.041553143,0.018938642,-0.051743146,-0.047107365,0.039297435,-0.10532603,0.01836381,-0.12599114,-0.08162718,0.13611993,-0.15798263,0.12986758,0.09507011,0.09543233,-0.24502535,0.1538893,0.007149994,0.16827095,-0.000590208,0.0677356,-0.11354987,-0.17283763,-0.027049253,0.044268675,0.029318897,-0.027011072,-0.056101173,-0.07933669,-0.039262965,0.07480377,-0.044462577,0.07085869,-0.01012003,-0.04558961,-0.027728742,0.028322665,-0.2638201,-0.017615465,-0.039068293,0.11247766,0.05811498,0.037779402,0.017959328,0.18653254,0.19737998,0.157225,-0.019857045,0.047610346,0.1247266,-0.14604978,-0.07228233,-0.04211537,-0.13205832,0.08029001,0.0031439434
/award/award_winner/awards_won./award/award_honor/award_winner	-0.09135513,-0.04436612,0.08739509,0.11348945,-0.12354409,0.030698407,-0.06677715,-0.08806371,0.05280296,0.1338636,-0.0984273,-0.060409356,-0.1361581,0.1760252,-0.12574331,-0.16768202,-0.047711577,-0.022241872,-0.046158206,-0.04435832,-0.074692376,-0.041683946,0.12265182,-0.09264299,-0.13701591,0.009221894,-0.16697177,0.021590872,-0.21994224,-0.03711911,0.17257482,-0.0468017,0.15983455,0.022764618,0.11445633,-0.07095377,0.11087393,-0.20707546,-0.023290427,0.07373688,-0.17287391,-0.1850479,0.085398845,-0.044815637,-0.1192107,-0.10789612,0.026348723,0.10456782,0.041654762,0.15117875,0.01632506,0.055791095,-0.20489797,-0.029766291,-0.036061194,0.028038722,0.043703984,-0.042797316,0.05425755,-0.18800154,-0.04615214,-0.051509663,0.08218774,-0.027586043,-0.046431225,-0.005148426,0.048901252,-0.00517008,-0.15061425,-0.07581543,-0.063235916,-0.003405648,-0.003179986,0.014869086,-0.1530595,-0.16305184,-0.12885416,0.053196333,-0.11540526,0.11086579,-0.0021693571,-0.00067538256,-0.024687022,-0.10563266,-0.023929814,0.04581625,-0.016268183,0.10315664,0.051817816,-0.18086006,0.14118668,0.06891351,0.12952031,-0.027922833,-0.1072699,0.14878792,0.030768326,0.09008237,0.016259855,-0.11079006
/soccer/football_team/current_roster./sports/sports_team_roster/position	0.011413429,-0.1523466,-0.065245144,-0.12578848,0.11797289,0.204214,0.15645333,0.10478037,-0.03289704,-0.013460686,0.04749581,-0.018227652,-0.046347164,-0.06650201,-0.003949155,0.05557565,0.121732675,0.12619664,-0.124131285,-0.07743029,-0.042494524,-0.2284581,-0.017136386,0.3434567,-0.08897533,-0.044227175,-0.03956059,0.011655508,0.05936539,0.032169756,-0.07341325,0.04617911,-0.13949504,-0.030770918,0.08383993,-0.091511905,-0.014912989,0.080506295,-0.011213906,-0.03309056,-0.06867337,0.030604208,0.218833,-0.06626127,0.18490416,0.049502037,0.13181384,0.053836826,-0.016597044,-0.24787056,-0.0062887715,0.15806778,-0.0433445,-0.042466477,-0.036674313,0.20878589,0.024481194,0.20607299,-0.0840098,-0.041013874,-0.015303756,0.052324977,0.095306024,-0.041415222,-0.11836003,0.011541849,-0.018957917,0.039965313,-0.043994207,-0.028475,-0.00078722835,-0.10682132,-0.014926007,-0.011940639,-0.076888725,-0.07112297,-0.14943992,-0.0046025966,0.028220005,-0.023570316,-0.13338988,0.0015688068,-0.11048848,-0.20978531,0.023071585,-0.07632944,0.06539012,0.13864307,-0.047243197,0.030111413,0.033141933,-0.013472489,0.029286152,-0.13302359,-0.19504598,0.105079845,0.11060166,-0.049912013,0.096924335,0.010555743
/sports/sports_position/players./soccer/football_roster_position/team	-0.026319528,0.0783765,-0.020882066,0.16188368,-0.004274694,-0.03862852,-0.017442897,0.18512398,0.18030201,0.0718881,0.07526503,-0.04657972,-0.09574653,0.14020674,0.13893233,0.051293302,-0.120337754,0.14604655,-0.0965161,-0.1233723,0.05357739,0.113825336,-0.11115001,0.12777737,0.09882765,-0.031434406,0.026680917,-0.04695362,-0.06607927,0.08325987,0.08234862,-0.06606333,-0.074993216,0.19548881,0.17538346,0.051041212,-0.021627132,0.030840524,-0.06447692,0.060930006,-0.24757515,0.0037693675,0.2245804,0.15847157,-0.018179536,0.04732953,0.06333707,-0.095555805,0.099668466,0.122340344,0.16092485,-0.10922865,0.028321486,-0.12336131,-0.0037942373,-0.0348768,-0.0048057204,-0.18777801,-0.014001025,0.07750929,-0.09078923,-0.006388505,-0.053078305,0.16326307,-0.13294375,-0.14982605,0.08173213,-0.061969716,0.07223372,-0.09391868,0.09204419,0.06434223,-0.04741324,-0.022119924,-0.006745848,-0.064263135,-0.0012866699,-0.05992047,0.21345252,-0.12626223,0.03264699,-0.028994739,0.10943709,0.021963889,-0.007142203,-0.08259999,-0.03146067,-0.07954143,-0.03195417,-0.14173403,-0.01682648,-0.08860358,-0.11928986,0.041268863,-0.012648972,-0.16351311,0.10247312,-0.10584336,0.20731416,-0.10330424
/government/political_district/representatives./government/government_position_held/legislative_sessions	-0.1122333,-0.00051619904,-0.018878981,0.027419731,-0.033946175,-0.028478993,0.09021357,-0.14307086,-0.017051967,0.23354258,-0.19104673,0.14746836,0.008632619,0.044066157,-0.13057813,0.053072497,0.11735273,-0.019998655,-0.06562994,0.049816567,0.054981213,-0.061965436,0.09778407,0.21055432,-0.09079459,0.09470349,-0.050739307,0.024228549,0.18659833,0.09321704,-0.06330526,-0.043321613,-0.05452149,0.021018563,0.10962845,-0.23738253,-0.11054595,0.18823116,0.11224972,-0.12144384,-0.1197066,-0.049139243,0.07334586,-0.0013899088,0.06492215,0.047168877,0.042221367,0.14523208,-0.0119845085,0.1968134,-0.1172453,-0.09935479,-0.044106144,0.0057789925,0.11279729,-0.1716052,-0.12977205,0.14591071,0.13623951,-0.007355351,0.18083403,0.14548972,-0.045175098,-0.015886066,-0.16062887,-0.11000629,0.016329743,-0.042870212,0.008484936,0.009013217,-0.083153896,0.06844717,-0.11065909,0.1322642,0.003564792,0.018383069,0.023329124,-0.057943024,-0.060835212,-0.046841964,0.1404535,-0.029476004,-0.006870524,-0.12007139,0.1670248,0.16810197,-0.019846711,-0.008759927,0.10797753,0.042525318,0.086464725,-0.026989542,0.077131465,-0.0022667607,-0.020936515,-0.0925921,0.016354965,-0.068959504,0.19359057,-0.02325874
/film/film/starring./film/performance/actor	0.11226766,0.048325896,-0.058888305,-0.15720333,0.14960934,0.2294624,-0.1832346,-0.10845622,-0.020678144,0.010867734,0.107756525,0.016615316,0.08372476,0.12115158,0.048129726,0.016062222,-0.011969015,0.122445986,-0.022746474,0.017515352,0.04730998,-0.022035178,-0.030495994,0.13203102,-0.022509508,-0.0047304686,-0.071367376,-0.10022352,-0.08809887,0.02188667,0.09778934,0.02061412,0.08402056,-0.13896944,-0.095896356,-0.013687146,0.017872091,-0.007302403,0.03541096,0.01949371,0.16780595,0.0078087063,0.116640754,0.039654188,-0.1544646,-0.046795323,-0.0064952774,0.01187697,0.14646614,0.14737825,-0.14830452,-0.046402644,0.045952052,-0.07208619,0.1127821,-0.039853062,-0.015729232,-0.042453542,0.053885303,0.10296109,-0.1386743,0.033152856,-0.052120026,-0.0037568081,0.012608981,-0.20845665,-0.21128245,0.21528132,-0.19488512,-0.042219993,-0.25824425,0.1499815,-0.15172678,-0.091399096,-0.004999541,-0.09188707,-0.22034034,0.02505045,0.0053066937,-0.037203155,-0.03959265,0.01073821,0.009159493,-0.122236766,-0.009722533,0.05363163,-0.23942171,-0.08273372,-0.1251736,-0.038349185,-0.014602542,-0.04767841,0.21481994,0.08158897,0.058139216,-0.0075345603,0.007846205,-0.036738385,-0.01795651,0.011527092
/soccer/football_team/current_roster./soccer/football_roster_position/position	0.14490479,-0.07797236,-0.16420574,-0.0737378,0.035999592,-0.05675376,0.075771324,0.074980855,-0.017325357,0.16120063,-0.02640163,-0.07506483,0.12673597,0.17713049,0.042087104,0.07803829,-0.21403566,0.18817294,0.12112288,0.12869415,0.0425349,-0.10135254,0.026771555,0.14897537,-0.12963933,-0.22682421,-0.010362012,0.07896177,-0.0855296,0.12733321,0.043583356,-0.11583361,0.11601188,0.08051189,-0.15947919,-0.02571205,-0.05402374,-0.105814315,-0.086977415,0.11035431,-0.013436106,-0.15532927,0.13943464,0.05383335,-0.22890832,0.1421314,0.01563942,0.0067123715,-0.016960751,0.10222752,0.07259626,0.05894289,-0.08502035,-0.08323712,0.022591177,-0.076325096,0.12082981,-0.014368064,-0.055403713,0.029661153,-0.14520036,-0.0019915393,-0.09576824,-0.07193234,0.21290813,0.13232884,-0.09522927,-0.2216476,-0.067522675,-0.15300171,0.008956667,-0.057012264,-0.0782125,-0.041762546,0.11186387,0.08000877,-0.051294446,-0.021698402,-0.040769022,-0.13769467,0.04615275,-0.05293933,-0.0047205836,0.0125797745,0.10687096,-0.096516006,-0.011819756,-0.07666802,-0.011585588,0.1187816,-0.021221181,0.031418636,0.087982714,0.066921316,-0.07552781,0.09035931,-0.16140264,0.05034948,-0.07274743,0.042263247
/film/actor/film./film/performance/film	0.01690165,-0.035348866,0.030331993,-0.012504084,-0.10653641,-0.14538072,0.06785392,-0.15315366,0.17401609,-0.01812475,-0.051083878,0.0030792428,0.1165422,0.10019247,-0.061058503,0.032493252,-0.14146486,-0.16938367,-0.0798624,0.03562137,0.09825779,0.088186875,-0.13535222,0.012652544,-0.013454459,0.03656527,-0.011644183,-0.0040927795,-0.04951483,-0.10917869,-0.0017262055,0.10387505,-0.17233545,-0.027774896,-0.12799618,0.10866384,0.024363216,-0.054090492,0.1381549,0.10640017,-0.14769024,-0.019310163,-0.13561775,0.14724402,0.05956922,-0.022818483,-0.054385897,0.22341241,-0.2554276,-0.030236,0.08943995,0.017689884,-0.031880233,0.13938779,0.030080844,-0.17732774,-0.13664211,0.106213,-0.057765048,-0.107994534,0.03219983,0.033046767,0.018977337,-0.085469,0.15120894,-0.07987977,-0.13550417,-0.014999377,0.09294306,0.06355424,0.11009091,0.068831824,0.00393325,0.0016393517,-0.25382066,0.07023562,0.18752314,0.0024387357,0.14044616,0.16473468,-0.16296265,-0.103984036,0.0009852506,-0.036891706,-0.047097772,0.031571962,0.04050613,0.0025260928,0.07982751,-0.05868768,0.04524919,0.046604674,0.079419576,-0.0697308,-0.08968847,-0.17304926,0.0040351734,0.050258372,-0.15173815,0.070971064
/award/award_nominated_work/award_nominations./award/award_nomination/award	0.031009495,0.18589415,-0.05732094,-0.063955,-0.1511003,0.08157915,-0.07686782,0.098985486,0.039258704,0.15316276,0.18155274,0.095832676,-0.15981825,-0.12169219,-0.0012306218,-0.2737599,-0.06881231,0.019361371,-0.16459447,-0.026946167,0.03455049,-0.028538091,-0.18904695,0.038314525,-0.088497356,0.08290895,-0.034693222,-0.008788129,-0.04553637,0.17410238,-0.08989531,0.060205497,0.0100554,0.09693137,0.026279792,-0.04048921,0.013692484,0.010977965,0.0021360763,-0.048447814,0.019757722,0.02351323,0.051485546,0.08406566,-0.13185282,-0.009580669,0.008282501,0.116273604,0.08770665,-0.026008818,-0.05579418,0.05228928,0.061892767,-0.11962952,0.19602019,0.049289506,0.027682729,0.03954062,-0.09866839,0.08646598,0.16827048,-0.12400919,0.16164598,-0.2501025,0.21269327,0.027874803,0.07417412,0.064779595,0.08381638,0.04500388,0.09687293,0.054711822,-0.0809566,-0.061469022,-0.036032636,0.021120505,0.0107478425,0.099761225,0.11265812,0.057250146,0.07208289,-0.009981494,0.042997908,-0.002634433,0.03676581,-0.07684071,0.25177717,0.03484775,-0.14435425,-0.0059322137,0.06333774,-0.09719282,-0.026589721,0.048246037,-0.25013077,0.109786645,-0.1877857,-0.04119176,0.020245988,0.03002193
/award/award_category/nominees./award/award_nomination/nominated_for	0.05137335,-0.070097424,0.019828469,-0.102651104,0.088330194,0.083215,0.08592717,-0.10300471,-0.033552643,-0.033432167,-0.08813536,0.06495708,-0.13381696,0.093195066,-0.12164851,-0.12163937,0.10680611,-0.068833254,-0.014734665,-0.11449844,0.12958057,0.082771525,0.09112118,0.102883436,-0.028299248,0.04661065,0.069153585,0.24062663,-0.1795341,-0.005269202,0.021267442,0.045437425,0.10472198,-0.06348465,-0.13168097,-0.07100251,0.19932063,0.005189073,-0.0340474,-0.07802259,-0.08486016,-0.07256482,0.12484896,0.13020793,-0.00573336,0.021472601,-0.10646239,-0.02582885,-0.10882206,0.017615514,0.20928654,-0.102198966,0.048696093,-0.15735587,0.031402025,0.14993495,-0.017040487,0.26313588,-0.026360732,-0.013219576,0.045543138,-0.026310634,0.02346948,0.11592951,-0.14889051,-0.078239046,0.083893456,-0.17200778,-0.056436345,0.05590244,-0.11743535,0.14479041,-0.117941566,0.0011198395,0.12903246,-0.018888365,0.10171188,0.14548649,0.09164244,-0.059705023,0.073786736,0.002741125,-0.077580556,-0.19558033,-0.05128162,-0.012357973,-0.21651998,-0.03013556,0.13063991,0.09531572,-0.01782128,0.11824145,0.20559244,-0.022838635,0.032715894,-0.1070278,0.021175826,-0.0504917,0.11247516,0.018964497
/organization/membership_organization/members./organization/organization_membership/member	-0.09220017,-0.1273442,-0.06456505,-0.084866166,-0.3209827,0.06541996,0.08940694,0.20113632,-0.010275046,-0.051609904,-0.083302446,0.06682618,-0.07136517,0.0047207605,0.035052884,-0.14971071,0.034713443,-0.044831228,0.031548325,-0.07660755,-0.04281431,0.048338436,-0.064399555,-0.08681837,0.11601353,-0.055437878,-0.09549631,-0.10614107,0.00073046284,-0.01696686,-0.058404688,-0.07918829,0.055971704,0.05519239,-0.14214419,0.10997127,-0.05608112,-0.009074011,0.010150268,0.06265623,-0.006490916,-0.14322993,-0.15414044,0.20668657,-0.13783433,0.15059295,-0.043315854,-0.10920713,0.07501456,0.15438835,0.1689031,0.04229602,0.19243564,0.012117002,0.036522213,0.06029783,-0.055709608,-0.004392026,0.03583935,-0.00493575,-0.013879429,-0.117042884,0.1535639,0.11846521,0.0067737,-0.05994002,-0.07467745,-0.15616553,-0.053682443,-0.17515118,-0.035589408,-0.0031441594,0.017268827,0.0335656,-0.15671356,0.10604663,0.08001625,-0.028220445,-0.096019424,0.11333979,0.012455815,0.08410961,-0.019399855,-0.08898454,-0.00969344,-0.109834075,0.024812186,-0.20120993,-0.015606993,0.12425514,-0.056378163,-0.0019973756,-0.116272755,-0.2780127,-0.1772906,0.045424607,-0.010443531,0.066484936,0.08069149,0.06762639
/award/award_nominee/award_nominations./award/award_nomination/award_nominee	0.03345289,-0.09961147,0.013851374,0.05430219,-0.06772231,-0.24211025,-0.25739896,0.14305252,0.06664711,0.096805714,-0.030507278,0.16961983,0.08217141,-0.05150056,0.06571918,-0.072126545,0.09522416,0.009288498,0.1915273,0.046710808,-0.061928257,0.05146707,-0.09679584,-0.0020182352,-0.04557872,0.11638921,0.10889413,-0.14955774,-0.14760262,0.15590933,0.18567708,0.070521824,-0.065315634,0.09696564,0.065205045,-0.10033101,0.055065256,-0.07606858,0.043130584,-0.10694444,-0.1017122,0.16700056,0.031738434,-0.122069776,0.009672405,0.07555731,-0.015634265,0.02160241,-0.021022454,0.014876192,0.022816533,-0.11991742,-0.14523959,-0.06002501,0.119568184,-0.0017503281,-0.06538343,0.16504431,-0.04684787,-0.15715571,0.23253095,-0.031810857,-0.0567453,-0.0297588,-0.035268005,-0.19863924,0.050716512,-0.0066911876,-0.111983486,0.13030523,-0.0049147606,0.20549452,0.01787787,-0.089343734,0.044441037,-0.05722001,-0.059366982,0.031348832,-0.041506756,0.029825058,0.024670353,0.015498445,-0.01499137,-0.14732558,-0.12489111,-0.0011811852,0.04458195,-0.075528696,-0.113954335,0.13290435,-0.05666999,0.03495549,-0.017474432,0.06670662,-0.1304144,0.016631871,0.23175946,0.060573284,0.03908538,0.047461063
/olympics/olympic_sport/olympic_games_contested	0.06439834,0.112325996,0.059097458,0.12153945,-0.08538604,-0.04772265,0.1368973,0.052485984,-0.019778153,0.08260912,0.1926763,0.15637387,0.016402576,0.15116246,-0.07910903,-0.0050029214,0.019779082,0.037132293,-0.15537494,0.22134356,0.042872604,-0.066264346,0.011766186,0.0630078,0.027375959,0.14847957,-0.023892082,-0.0511539,0.039003827,0.15081526,-0.111459464,-0.10312305,-0.11315757,-0.027652845,0.065459624,-0.19854161,-0.09885749,0.15387559,-0.029338893,0.054017775,-0.07011008,-0.22014722,0.013405763,-0.00184733,-0.08761101,0.1625682,0.09948889,-0.015508519,-0.012970967,0.07342469,-0.021349704,0.06427772,-0.09549206,-0.051070016,0.067594975,0.112300664,0.030620962,0.005462798,-0.07462059,0.067257814,0.19773325,-0.26341704,0.0011894242,-0.08924463,-0.02766269,0.15137541,0.1307981,0.02794109,-0.090787046,0.063399985,-0.0792702,-0.14337711,0.065135755,-0.041768223,0.08106831,-0.095498204,-0.096050076,0.017662466,0.10837232,-0.088804856,-0.009330943,-0.01786526,-0.030154936,-0.14927918,0.12084503,0.11486441,0.020076802,0.10958092,-0.11961566,0.020756908,-0.09268233,0.08412474,0.03424111,0.10228308,-0.09963639,0.090793446,-0.16413449,-0.078759775,-0.0047357585,0.21241857
/music/performance_role/regular_performances./music/group_membership/role	0.019929392,0.05457895,0.17727953,-0.046663135,-0.019147724,0.048328746,-0.16474482,-0.08180596,0.11649907,-0.13288435,0.10120799,-0.055099078,0.026277212,0.116541386,-0.09544533,-0.008172285,0.0026774101,-0.17685705,-0.09600269,-0.03611903,-0.10231884,-0.012409832,0.04650526,0.0387884,0.09625201,-0.10816527,-0.10912689,-0.2461723,0.08378088,0.064209044,0.13788122,0.05270389,-0.10206079,0.21394661,-0.06174673,-0.0752426,0.036006406,0.19442873,0.055089794,0.16915067,0.011312399,-0.006931274,-0.25058046,-0.07677254,-0.0063513867,0.050931156,0.10167354,-0.009851534,0.027660457,-0.008428891,-0.021207547,-0.016952168,-0.08393595,-0.09976161,0.16357836,0.01608539,-0.09294566,-0.032525197,0.07630104,0.112373434,0.071329966,0.25387838,0.028590478,-0.11399402,0.047984526,0.052393563,-0.0606368,0.03330528,-0.22431831,-0.0841544,-0.016025579,0.09735841,0.16367742,-0.13782685,0.03871039,-0.12713738,-0.043538857,-0.0016247206,0.116266325,-0.04704633,0.16626851,0.04109626,0.0007413801,0.08220354,0.14945497,-0.014497943,0.027220415,-0.08040011,-0.050380714,-0.021118168,0.14585632,0.028394522,-0.09829463,-0.07574149,0.02062933,0.06530276,-0.06259275,-0.16558754,-0.03886829,-0.014718519
/award/award_category/winners./award/award_honor/ceremony	-0.29503742,0.053682573,-0.15890506,-0.04070611,0.040563315,0.041492216,-0.005271513,-0.023156708,-0.04739994,-0.032245446,-0.06450791,0.09081531,0.14037608,0.048248935,0.041212708,0.020819498,0.013743213,-0.05777026,-0.12075591,0.016944401,0.05592984,-0.06363896,-0.0026111098,0.16198148,0.09890744,0.063462175,-0.09825648,-0.043089002,-0.1348581,0.12932052,-0.16140309,0.16171697,-0.15576509,0.016840484,0.19179428,-0.0033684764,0.027329765,0.2679223,0.17062971,-0.09942554,0.094756514,0.17502446,-0.13832483,-0.061496798,0.079061106,-0.1466187,0.16318995,-0.10260725,-0.0017281077,0.040966764,-0.063819595,0.121647164,-0.08913648,0.099372946,0.08616592,0.03717354,0.1955613,0.0068891887,-0.11288426,-0.043860387,0.103181094,0.014424522,0.08264438,-0.07513001,0.059651434,-0.012573276,-0.042394415,0.011871744,-0.029323975,0.1322675,0.02493044,-0.04108403,-0.1787165,0.0030580296,-0.17535603,0.044841126,0.019472256,-0.05164279,0.14603598,-0.079154864,-0.11645055,-0.014429554,0.08237069,0.06912213,0.08093935,0.12788674,-0.009239528,-0.039531354,-0.06453891,0.18171568,0.01530234,-0.01519076,0.015706291,-0.027146243,0.052383948,0.13062365,0.08319458,-0.14333911,0.07016568,-0.053388387
/film/film/release_date_s./film/film_regional_release_date/film_release_distribution_medium	-0.20676838,-0.0538411,0.079220906,-0.038346507,0.05018955,-0.27623874,0.06702266,-0.037054576,-0.19048086,-0.051720943,-0.039770342,0.107536264,-0.16201656,0.010386625,0.0412949,0.058856845,-0.04554743,-0.020465247,0.025385182,0.00800793,0.07541965,0.13464804,0.064088374,-0.06533641,-0.17997666,0.110111825,0.02602691,0.09082736,-0.18152048,0.10037117,-0.045868732,-0.06131804,-0.09883162,-0.12585814,0.034100346,-0.04839495,0.056727014,0.10477954,0.12954146,-0.0967838,0.12793359,-0.09426153,-0.12797473,0.030452855,0.15239282,0.052472953,0.023102913,-0.020658694,-0.07750475,-0.0065491037,0.04951839,0.022633124,-0.0025875308,-0.13847926,-0.021948865,-0.077818125,0.12796785,0.04113602,0.11251229,0.0017974079,-0.069677114,-0.11705804,-0.23319708,-0.18985565,-0.10465439,-0.021181647,0.004173632,-0.054466832,0.034811944,0.21753955,-0.046485886,-0.019902969,-0.017309643,0.05107069,-0.112842254,-0.017044662,-0.16448182,0.15963764,0.020503236,-0.13192762,0.0009287009,-0.010606799,0.049152516,0.092758104,0.052804194,0.072172984,0.20685525,0.11536304,-0.10399571,-0.09568995,0.17730263,-0.028738482,-0.12996005,0.038552962,-0.06768049,-0.025316292,0.057577435,0.1257309,0.13425015,-0.12790218
/people/marriage_union_type/unions_of_this_type./people/marriage/spouse	-0.17400077,0.22325386,0.1471944,-0.007790689,0.13602352,-0.109287746,0.02712593,0.0820465,-0.06054682,0.06337248,0.044509385,0.052782085,0.037575424,-0.013077671,-0.002094579,0.1106669,-0.13343577,0.083640374,-0.08605789,-0.09364786,0.024091734,-0.13770089,0.13102694,-0.078956306,-0.13351467,0.044295788,-0.00823573,0.010384303,-0.12764665,0.10914832,-0.16913602,-0.015412923,-0.009978537,-0.034698967,-0.023667531,-0.12664565,0.12273351,0.008476557,0.006070507,-0.04988649,-0.023108322,0.065804735,0.1403342,-0.093497954,0.1427047,0.07891169,0.07407818,-0.053391933,-0.07233433,0.05281298,0.03808124,0.041974187,0.09178446,0.00990499,-0.29031363,-0.15088284,-0.01989824,-0.045199413,0.039260246,-0.11204866,0.047217675,0.056767397,-0.12000667,0.18502684,0.16520073,0.07332949,-0.0018719309,-0.05460932,-0.14683393,0.10725361,-0.03305136,-0.07027062,0.03187716,0.0017774499,0.054455295,-0.044039857,-0.025494277,-0.102314495,-0.044020135,0.01538842,0.033806846,-0.046839595,0.2628372,0.11992714,0.02808083,0.047758,0.003336516,-0.23803194,0.07436852,0.16730869,0.005094835,0.00556642,0.05473558,0.23137546,-0.09954299,0.13797216,-0.15998688,-0.019677227,-0.025639772,-0.083250426
/award/award_winning_work/awards_won./award/award_honor/award_winner	0.06131233,-0.07383923,-0.10519503,-0.06403893,0.115155146,-0.03583741,0.06218978,0.0027106726,0.0013437497,0.09459288,-0.012712404,0.0046150372,-0.13914509,-0.008931302,-0.0714151,-0.12981588,-0.09644747,0.026278872,-0.042999264,-0.15747976,0.037406426,0.025803898,0.093707375,0.09226413,0.044292808,0.21966666,0.03886238,0.13301924,0.0204606,-0.02889555,-0.18833812,0.10613488,0.105883,-0.018549139,-0.10605935,0.033159893,-0.22721882,-0.16256279,0.015428437,0.06087444,0.0065523037,0.11158155,0.064401425,0.059155215,-0.14536034,0.04698283,-0.062837884,0.21366273,-0.14161102,0.067249656,0.112830676,-0.009777537,-0.14651188,0.046082925,0.068727896,0.025222193,-0.007580568,-0.06806209,-0.017711608,-0.14041184,-0.01942888,0.0108570885,0.08597699,-0.075663455,-0.090498686,-0.05142097,0.0762125,0.01304169,0.012717262,0.101907566,-0.11530126,0.07331505,-0.016224863,-0.12934981,-0.21854205,-0.085067354,0.07597089,-0.23147522,-0.1692827,-0.14236182,0.0413768,-0.07059561,0.03812258,0.22537963,0.010880586,0.10483808,-0.06249045,-0.11348793,0.05052271,-0.012744591,0.069133215,0.10652592,-0.09272039,0.14879827,0.002079202,0.184404,0.006238493,-0.1030772,0.11942193,0.061086234
/film/film/release_date_s./film/film_regional_release_date/film_release_region	-0.14315465,0.058441475,-0.021363236,-0.068202116,0.036341883,0.090162836,0.04590184,-0.009848855,-0.046416868,0.06144485,0.16243742,0.037311617,0.011986004,0.10110362,0.061355505,0.017240483,0.06260929,0.044805974,0.0557272,-0.14234392,0.1519075,0.058257904,0.035171352,-0.010405527,0.02600664,0.044408657,-0.1542495,0.05987627,0.07848109,-0.024486942,0.059890393,0.13140677,-0.20220067,-0.005457465,0.011716463,-0.09659495,0.16569279,-0.08291695,-0.092034586,0.0004023048,0.06763568,-0.054259054,-0.084262714,0.053865355,-0.0072585414,-0.056562576,0.117987335,-0.012841315,0.004279639,0.0027288336,-0.051229574,0.1936276,0.012668157,0.037637055,-0.004412273,-0.0049129166,0.11479084,0.0024216752,0.10573415,-0.13686045,0.26526132,0.008214271,0.07604484,-0.05356673,-0.0066583464,0.13393168,-0.021470182,-0.03922577,-0.18169777,0.08818405,0.0016896902,-0.04485549,0.13339114,-0.19438197,-0.18623549,-0.122006886,0.13819382,-0.29303688,-0.12877059,0.060341705,-0.09113235,-0.08399221,0.15442482,0.0011181182,-0.05811989,0.04702488,-0.109841324,-0.08844201,-0.01462176,0.0018708395,-0.017695695,-0.21840765,-0.051517807,0.13270688,0.10500399,-0.0028478405,-0.12405621,0.038572144,-0.23826459,0.036521245
/film/film/language	-0.08736426,-0.07844543,0.12716861,-0.07175204,0.09018869,0.046748247,-0.122822836,-0.010530952,-0.17773913,-0.035304803,-0.055851996,-0.06668465,-0.12581354,-0.024115931,0.06594999,0.10888639,-0.07011704,-0.15091611,0.12843233,-0.004667372,0.20345987,-0.008824315,-0.10713804,-0.27913302,-0.00565069,0.11486733,-0.03266233,0.09966847,0.22049339,0.010385945,-0.11909763,-0.02185763,0.19869237,0.11343207,-0.062237717,0.01222281,0.09206477,0.0071289716,0.0027388278,-0.07301007,0.01694905,-0.06702117,-0.0027182861,-0.12140617,-0.07094123,-0.116500504,0.07866596,-0.17496088,0.10462954,-0.020011172,-0.1576516,-0.049935512,0.12436478,0.07181806,-0.08982165,0.07891693,-0.026777925,-0.013925061,0.08114869,-0.12149947,0.021802898,0.094743624,0.086967126,0.05535307,-0.07934631,-0.06467883,0.017500013,0.06690711,-0.007571351,0.054285064,0.050136022,0.047694996,-0.113086686,0.07666265,0.10373554,-0.006436608,-0.055458006,0.04702084,-0.18314938,0.08248488,0.029588081,-0.025326015,-0.06241067,-0.23591283,-0.14854807,0.02276323,-0.006617398,-0.10697336,-0.059508517,0.038606886,0.1423454,-0.014894874,-0.12910703,-0.07898352,0.12602125,-0.17819762,0.2667495,0.0040837126,-0.09623542,0.0031177914
/music/artist/genre	0.11235443,-0.18002397,-0.06668615,0.065981016,0.116196245,0.029721392,-0.113625444,0.16819045,0.10320554,0.025962247,0.016190857,0.002851728,0.0028290795,-0.02587705,0.16224891,0.03214668,-0.033763733,-0.028368019,-0.012668412,0.03188819,0.07458917,-0.011361228,0.07962446,0.038057182,0.12242421,-0.041348163,-0.104329124,0.095766306,0.13507803,0.12948759,0.05576058,0.023291426,0.08135238,-0.030852975,0.06463135,-0.09668511,-0.17173961,-0.068964735,0.17042415,0.11072393,-0.052910447,-0.05067724,-0.16277832,0.0036586234,0.060896136,-0.08125566,-0.04264938,-0.18614423,-0.011405707,0.07407249,-0.029231414,-0.101089716,-0.0148813855,0.078285255,-0.16388528,-0.01571675,-0.11477614,0.044563748,-0.114175394,-0.24675937,0.1546426,0.11562823,0.047374457,0.058971938,0.0010970337,0.18416706,0.24157438,-0.023204865,0.08185038,0.18374632,-0.04919559,0.028234651,0.121117145,-0.14051779,0.012829601,0.036872506,-0.094356984,-0.05245865,0.06654461,0.23882262,-0.060670096,0.078473635,-0.06224246,0.13867936,0.14241168,-0.0720896,0.06313128,0.045309156,0.08755789,-0.0028264713,-0.022998624,0.1632474,-0.044152066,0.011882609,0.17427586,0.15071395,-0.08419511,-0.040065035,0.1068299,-0.048832834
/location/location/containedby	0.041472733,-0.022338158,0.056148928,-0.035775024,-0.029985406,0.079327784,0.052640967,0.03303559,-0.05170854,0.119894974,-0.2005615,-0.07538583,0.09974108,0.030570649,0.05409368,0.08156412,-0.17028068,0.12451416,-0.090840794,0.11196293,0.029927287,0.14460637,0.2553903,-0.11792032,-0.028237833,-0.03890613,-0.076439664,-0.11743137,0.18904747,0.13497715,0.054508902,0.08007773,0.04971256,-0.07809776,-0.13811311,-0.021805488,0.13232873,-0.18669155,0.0007355005,0.08441307,-0.060870975,-0.07245393,-0.037382666,-0.0659383,0.02186983,-0.16739932,-0.053824533,-0.03431001,-0.047929905,-0.06494412,-0.13663241,0.03747345,-0.18369015,0.0022347025,-0.08199137,0.17629436,0.044556744,0.043167323,-0.040178284,-0.21268979,0.05625162,0.007536747,0.12707637,-0.1057957,-0.08497127,-0.094755314,-0.030076979,-0.06828303,-0.0613143,-0.11502566,0.17210585,0.18614563,0.019490201,0.16546024,-0.121040426,0.013134823,-0.10057946,-0.08741072,-0.0083618965,0.04628654,0.0077928174,0.047202293,0.11119802,0.13443513,0.0091168955,-0.013108101,0.120299436,-0.03844203,-0.017327918,-0.13339032,0.14325413,-0.037777264,-0.08474161,0.16458924,-0.13402902,0.058220003,-0.10227983,0.15533301,0.0072583715,-0.028219836
/people/person/ethnicity	0.037585936,0.05139324,-0.1430908,0.026619226,-0.10732441,0.053200938,0.17094904,0.06734912,0.14936079,-0.017093524,-0.12403781,-0.0010679316,0.10701004,-0.063661054,0.083938755,-0.1203559,0.10056916,0.026322208,-0.07263643,0.030625537,0.1292375,0.1058714,0.12611134,0.025787901,0.013030343,0.18921849,0.03735608,0.08369352,-0.17416194,-0.029899677,0.10324581,-0.07525831,-0.16724317,0.041116152,0.053507727,-0.070249334,0.00056186784,-0.046144187,-0.0794642,-0.03995187,-0.13624291,0.053260025,-0.27965268,-0.032662526,0.20701091,-0.058267754,0.09154297,0.062663116,0.062935494,-0.012464704,0.026202431,-0.08282295,0.033004258,0.18587995,-0.1604879,0.017157888,0.01908628,-0.12315664,-0.0048531233,-0.15291227,-0.14177157,-0.092047475,-0.008787636,-0.13502191,0.023570875,0.058448467,0.1170425,0.005125441,-0.017357264,-0.054131404,0.07188658,-0.1403164,0.16392049,-0.062017117,0.027524037,0.0012662907,-0.054233152,0.09173218,-0.073849104,0.011166823,0.0640357,0.086028844,0.12293215,0.19886655,0.02545445,0.13651483,0.13304013,0.13644662,-0.112803556,0.13418134,-0.10854126,-0.14109918,-0.0913795,0.16150601,0.09803647,-0.025162159,0.12401006,0.033692293,0.031973835,-0.09493967
/education/educational_institution/students_graduates./education/education/degree	0.055981897,-0.017910963,0.0006044726,-0.2371197,-0.0009336411,-0.06123961,0.13017395,0.02873861,-0.1150892,0.08372933,0.15595585,0.0941174,-0.13653554,0.07477598,-0.1497666,-0.16716214,-0.0017665059,-0.019066881,-0.019274067,-0.03866303,-0.10075184,0.035500217,0.06562155,-0.052167043,-0.007327715,-0.137402,-0.07526165,-0.008199079,0.009980617,-0.05287837,-0.027998153,-0.09091261,-0.02510016,0.13395402,0.15312396,0.07132883,0.0144885415,0.095042326,-0.098251425,0.05404687,0.0008955238,-0.07976547,-0.08875113,-0.031480562,-0.05706163,-0.14004563,0.21730274,-0.036747515,-0.006730728,0.04951614,0.090210885,-0.05578656,0.07253618,0.1311945,0.19464706,-0.06321044,-0.018202689,0.15461089,-0.073991135,-0.1482611,0.02714259,-0.23184748,-0.07553115,-0.00264299,-0.09061121,-0.097719885,0.005772836,-0.021907784,0.061420355,-0.058845494,-0.009169699,-0.052594107,0.20606971,0.061087683,-0.17450124,-0.19079621,-0.109544985,-0.10595856,0.09864655,-0.12593517,-0.108986296,-0.06784019,-0.0478177,0.057258133,0.04784909,0.16209559,-0.1951223,0.015561281,-0.095965125,0.116664246,-0.021921083,-0.06499091,-0.01723566,0.16286556,0.033957504,-0.07304019,-0.14107978,0.15479845,-0.06664618,0.17015585
/award/award_category/nominees./award/award_nomination/award_nominee	-0.12824818,-0.023158187,-0.17127639,-0.124752484,0.10927334,-0.05164432,-0.041285247,0.19143517,-0.07389699,-0.026287373,0.017215112,-0.10721304,0.03432877,0.06656016,0.08027524,-0.12623258,-0.025370324,-0.063896455,-0.05261395,0.1082531,-0.06722203,-0.13672699,0.06570851,0.065,-0.1644219,0.0672234,0.1478553,0.09433186,0.1421593,-0.05517951,-0.053967908,0.09865141,-0.03753163,-0.06425638,0.00042885914,-0.077586606,0.08608633,0.0472477,-0.15221909,0.09369192,-0.071462706,0.010453662,-0.06680535,-0.023905909,-0.043772697,0.2535256,-0.06995003,-0.0981961,0.1213316,0.1805314,0.18352808,0.008969668,0.14646998,-0.06805678,0.11133662,0.018457744,0.031012356,-0.016275583,-0.20982713,-0.055266716,-0.036054924,0.004927832,-0.17863733,0.22914664,0.034603648,-0.008258576,0.087158464,0.048186474,-0.21369518,0.027547047,0.014537183,-0.11613127,-0.0020144298,0.012096968,-0.09475814,-0.059524655,0.07972426,-0.019523997,0.037465848,-0.21423759,-0.040076047,-0.032592222,0.08394599,-0.0060658203,0.12345262,0.0070435116,-0.034500577,-0.08212754,-0.02790272,0.018477349,-0.172569,-0.10400399,0.17329714,-0.110462815,-0.04085216,-0.0512633,0.03810075,0.20724285,0.047500208,0.091318965
/award/award_ceremony/awards_presented./award/award_honor/award	0.18566689,0.03678364,0.015490858,-0.1547255,0.07447071,-0.051763546,-0.012520399,-0.082641795,0.0075067095,-0.11371445,0.10572121,-0.045475814,-0.24709776,0.015181671,-0.1315122,0.09809077,0.09434486,-0.12816283,-0.047509763,0.018073034,-0.1020277,-0.13004595,-0.017479524,0.112052664,-0.21957158,0.13221948,-0.020238364,0.13469073,-0.0057740216,0.0070144576,0.09735383,0.1769155,0.0789392,-0.014643317,-0.0493225,0.024694318,0.15338716,-0.11597242,-0.21042724,-0.0033963877,-0.075262055,-0.015008403,-0.08321685,0.08668662,0.0017311936,0.01800771,-0.118830465,-0.035428584,0.076652445,0.0011976659,-0.12585707,0.112815745,0.12283881,0.02462424,0.043671854,-0.26439708,0.020614835,-0.03442583,0.16502714,0.09547543,0.01677003,0.010709924,-0.09122802,0.07244019,-0.19210987,0.051315438,0.08478064,-0.056067035,-0.019574065,-0.09219757,-0.064779826,-0.109714724,-0.016324304,-0.019708393,-0.030781984,0.074082226,-0.036574725,-0.09882691,-0.08876167,-0.09790356,-0.10715636,-0.006283912,-0.074975744,-0.16043548,-1.0737916e-05,0.054681428,-0.03906228,0.06407057,0.052823793,-0.103116244,-0.08666547,-0.108943716,-0.015164351,0.07490289,0.068913616,-0.028474834,0.15348849,0.17905,-0.25438598,-0.017142415
/location/location/contains	0.09251943,-0.010383147,-0.033271816,-0.060194876,-0.04493374,0.17114285,-0.07636057,-0.05729995,0.01453638,0.11752422,-0.087277696,0.06354933,-0.052840818,0.14082767,0.06893201,0.14432718,-0.13766555,-0.13996549,-0.03783389,-0.0075214338,0.09937018,0.14678328,-0.10799094,-0.031393837,-0.0027531541,0.111661844,-0.06292767,-0.06391903,-0.06712398,-0.1789775,0.048515376,0.10022234,0.05307045,-0.056339163,0.044179764,0.08452989,-0.022813486,0.040637005,-0.0825674,0.16339247,0.035959616,0.038667068,-0.08670616,0.2470554,0.11330512,-0.033892818,-0.12229204,-0.0051924717,-0.16379559,0.14214933,-0.0021846404,-0.03356816,0.24893112,0.021321094,-0.020790612,0.108937174,-0.020337354,0.15203477,0.06941766,0.10776665,-0.08886352,-0.09777583,-0.10603645,0.039429717,0.009366971,0.04774499,0.0255379,0.11889947,0.2179896,0.044902407,-0.017884621,-0.0029707327,0.13220486,0.019945536,-0.022638727,-0.11847176,-0.09857142,-0.09636315,0.09412173,0.16447255,0.17617628,0.13609554,-0.041304205,-0.06759011,0.110294364,0.18192443,0.042816874,-0.09023826,0.09957082,0.011897512,-0.042477835,-0.049585856,0.15588701,-0.21482581,0.124844305,0.03953487,0.08283339,-0.07781579,-0.004546318,0.07002033
/organization/organization/headquarters./location/mailing_address/country	-0.071104065,0.003765876,0.17295891,0.02305813,0.15165512,-0.03435112,0.1042946,-0.058985934,0.1416744,-0.034415957,0.23272824,0.07444618,-0.0060480856,0.17361513,0.07268585,0.15097077,-0.059771262,-0.13193417,0.08688292,-0.052614726,0.03202543,-0.041242484,0.057094466,0.050146233,0.059154995,0.12866099,-0.11088337,0.006052601,-0.0996329,-0.1122034,-0.11215125,0.10555202,-0.004503267,0.16311793,0.04238918,-0.07880897,0.08012028,0.1153334,0.097126395,-0.03975844,0.04981353,0.054503594,-0.08120522,-0.061815437,-0.031010875,-0.17393783,-0.0013484079,-0.05141321,-0.050712038,0.052574173,0.10147591,0.13128716,0.13090584,0.019458555,-0.088449515,-0.052867714,-0.022364702,0.06644232,-0.09881354,0.23994677,0.17457421,-0.03581309,0.02942279,0.13769685,-0.017699232,-0.14678493,-0.0029309378,-0.082171716,-0.0407716,0.13147916,-0.15098828,0.08763536,0.10179914,0.17626624,-0.008959333,0.008460138,0.16459641,-0.21386588,0.07421737,-0.015173716,-0.08770316,0.098109305,-0.18096805,0.00448751,-0.07507525,-0.11841295,-0.043044586,-0.04550552,-0.13123679,-0.16850583,0.021517698,0.011137465,-0.034242626,-0.011790164,-0.118348636,0.07846069,0.12419548,0.08894213,-0.016076416,0.11363583
/people/person/profession	-0.17116113,0.10655134,-0.088648625,-0.09041562,-0.02716548,-0.20872264,-0.28527075,0.008460655,0.0030104057,0.032997653,-0.002794015,-0.13946795,0.08801764,-0.078923,-0.01707024,0.20058134,-0.09074148,-0.048719835,-0.020201534,-0.2375905,-0.020155525,-0.010265217,-0.032265093,0.07561887,0.09167103,-0.11418902,-0.10152007,0.018857801,0.10139527,0.10549872,-0.011272605,-0.016440697,0.040021114,-0.11909198,-0.08456739,-0.0123263635,0.00013291696,0.08791214,0.120233506,0.1479471,0.1294767,0.06594744,-0.062281992,0.13081877,0.12504853,-0.13281491,0.09425469,-0.039228253,-0.05674509,0.013564766,0.009719957,0.1637938,0.054358087,0.05960108,0.020535437,0.10040104,0.18016721,0.028706387,0.13542312,-0.084788255,-0.097271055,-0.045917895,0.18308677,0.15385398,0.09558946,0.12440284,0.099354096,-0.07482406,-0.061674707,-0.09127386,-0.039055325,0.085795015,0.09819475,0.07853254,0.023736916,0.0791277,-0.084631905,0.02512301,-0.180347,-0.0942798,-0.013859302,-0.0018534891,-0.03472726,-0.06766293,-0.16928598,-0.0093939435,0.16594997,-0.03568091,0.19062434,-0.052309345,0.14854425,-0.09563123,0.024242837,0.07156481,0.032781366,-0.08286247,-0.005899596,0.063080415,-0.1243886,-0.06425573
/film/film_job/films_with_this_crew_job./film/film_crew_gig/film	0.06633441,-0.14446521,0.08232082,0.05693752,-0.16669756,-0.15727298,0.003856908,0.1080692,-0.11949559,-0.10516825,0.0441307,-0.024544416,-0.28232402,-0.008271873,0.20640977,0.07689241,0.059840724,-0.109856926,0.13345228,-0.10128105,-0.0057624066,-0.056794316,0.08724438,-0.059030663,-0.035461783,-0.22126894,-0.1537777,0.09495,-0.0403142,-0.1286115,-0.01636017,-0.21312417,0.07913408,-0.009995022,0.17598243,-0.047003336,-0.09810886,0.06867071,0.015152829,-0.041803032,-0.06685885,0.029164623,0.008263078,-0.048556257,-0.04227617,0.110108584,0.007888155,-0.05601486,-0.00063808146,0.002795192,0.069238774,-0.025158184,0.13445169,0.09121124,0.027004912,-0.036994178,0.02127515,-0.021951629,-0.15110546,-0.021730402,-0.020762563,0.1092952,-0.06755793,0.044622365,0.12497139,0.25778696,-0.06551189,-0.0019014517,0.05149068,0.0123021435,-0.132109,-0.053559933,0.04523621,-0.08650528,0.0050657005,-0.067494564,-0.11564281,0.018831916,-0.035450935,0.03538755,0.12085376,-0.021813225,0.15307756,-0.15241873,0.12994464,0.030314926,-0.07586285,0.12652063,0.11747598,0.07724264,-0.07261614,-0.06889083,-0.19042778,-0.0784821,0.115337126,-0.038450714,0.012724902,-0.0787413,-0.1576117,0.20979576
/people/profession/people_with_this_profession	0.08409898,0.079540275,-0.020909997,-0.17142959,0.035569318,-0.030640362,0.08002404,0.08796152,0.028400123,0.06107893,-0.11299842,0.24061254,0.022668818,0.07597623,0.099184334,-0.086050496,-0.096809715,0.031324223,0.030027512,-0.06377836,-0.092229314,0.007031731,-0.08753659,-0.0049714595,0.21207996,0.026308792,0.03485232,0.09937458,0.16094647,-0.033496387,0.018940777,-0.08429197,0.015271958,-0.11763963,-0.11920502,0.033060133,-0.03047237,-0.053014074,-0.07234832,0.062136017,-0.07739313,0.111785404,0.09003872,-0.102255106,-0.022127775,-0.103410915,0.10082357,-0.021907056,-0.0649538,-0.012390933,-0.017455587,-0.01042611,-0.24011613,0.05925549,-0.037561085,0.08929092,0.04452661,0.1726648,0.08627641,-0.07623411,-0.017714966,-0.10911813,0.015044726,-0.094278075,-0.17516176,-0.021171253,0.13301739,0.04682268,-0.01415406,0.07927349,0.15709472,-0.006434083,0.028963506,-0.014154765,-0.13217166,-0.036580432,-0.00080491276,0.22285004,0.059427816,-0.17149343,0.13459925,-0.14735007,0.085207514,0.057438415,-0.13067776,-0.10156004,0.048263095,0.021270718,0.17829119,0.17020403,-0.009794249,0.14867653,-0.1506768,-0.09878404,-0.13565384,-0.15364414,0.109919146,0.04957084,0.083643675,0.10084148
/film/film_costumer_designer/costume_design_for_film	0.061579276,-0.108130425,-0.063064426,-0.07019208,0.07449865,-0.07256384,-0.046496876,-0.06915116,0.034041986,-0.023045704,-0.10062194,0.05280676,-0.03158761,-0.031818185,0.0739953,0.058906633,-0.07453564,-0.16449949,0.067870095,-0.18554343,-0.10553912,-0.072935924,0.058863338,0.05026919,0.18906628,-0.028377535,-0.20557909,-0.10803287,-0.117186055,0.037353795,-0.0071287174,-0.030471727,-0.042206295,-0.080147535,-0.05115056,0.07951884,0.111596085,-0.094362915,0.031722285,-0.049139045,-0.059948016,0.075693734,0.098799616,-0.00225226,0.21022996,0.010635819,0.028003339,0.08526944,0.041206144,0.156742,0.11610828,0.02970972,-0.032516424,0.065685056,0.16028018,0.0014038556,-0.014649356,-0.047528107,-0.011969587,0.15995407,0.19825262,-0.005855815,-0.1608034,-0.056728393,0.19747753,-0.15076216,0.256458,-0.0078499,0.09006373,0.12526181,0.003358067,-0.025005322,-0.10798106,-0.069637015,-0.015586078,0.10146309,0.05914416,0.050513387,0.19824228,0.07101447,0.13922203,0.115150616,-0.045051567,-0.10465792,0.04712195,-0.06490822,0.03354588,0.21212943,0.15170754,-0.020061076,-0.25247753,0.07889414,0.1406951,0.034196414,0.12512597,-0.027798839,0.06542596,-0.014264441,0.087496676,0.03463918
/location/statistical_region/religions./location/religion_percentage/religion	0.031637114,-0.0142471595,0.16722518,0.11228969,0.016450668,0.16811632,-0.021019332,-0.12007208,-0.010060734,0.015260763,-0.01281778,-0.038345717,0.03889178,-0.11140155,-0.049128346,-0.09862548,0.08726892,0.05643354,0.044547215,-0.011614475,-0.08296428,0.19892888,-0.1951584,-0.021298919,-0.027575059,-0.05877117,0.18374941,0.12759815,-0.06566505,0.1304086,0.010331131,0.0055585126,0.0056486055,-0.004822283,-0.14911832,0.03910287,0.086242184,-0.19031079,0.050789893,-0.14699355,0.23686229,-0.017400885,0.10733104,0.13958307,0.023090892,-0.11530325,-0.103112265,0.016633868,-0.0052910447,-0.07575123,0.044581365,0.015042245,0.086847186,-0.08938423,0.20961781,0.10891323,-0.011990823,0.011217825,0.08096641,-0.13438845,-0.061038986,0.20394899,0.08526708,-0.04726919,0.10919172,-0.067875884,0.07201613,-0.0739772,-0.0047145854,0.058576595,0.077896655,-0.09695629,0.03138535,0.11349678,-0.070129804,0.1711205,-0.06019825,0.20416059,-0.014831073,-0.18936211,0.006375146,0.0013577556,0.15878594,-0.022705298,0.021403551,-0.12955761,-0.020003842,-0.08740884,0.12779184,0.040144328,-0.014137808,0.055767246,-0.0013159118,-0.107496746,0.16857703,0.049635302,-0.17028038,0.0456097,-0.009318416,0.12248512
/film/film_genre/films_in_this_genre	-0.17751524,-0.03728372,-0.13192502,0.013934684,-0.041891485,0.07792942,-0.08896521,-0.2992381,0.08537826,0.043847177,-0.06726293,-0.04550693,0.19039656,-0.06323609,-0.092208676,-0.11574597,0.00036520977,0.034462,0.022156902,-0.12431987,-0.07179117,0.02370819,0.15824713,0.10973587,0.06979345,-0.056617953,0.111542776,0.09783784,0.07468792,-0.02688347,-0.0019188421,0.11747329,-0.068340674,0.071600094,0.16454911,-0.022490816,0.0136148855,0.012698845,-0.018657235,-0.0003451914,-0.17738758,-0.16946283,-0.026819136,-0.06261409,0.09140434,0.24394041,0.044095285,-0.059319723,0.057584766,0.16738367,-0.17052405,0.020102303,-0.100562945,0.12583184,0.0902605,0.0012006582,-0.14148325,0.063012086,0.04329634,-0.12753445,0.049266618,0.09781797,0.07544807,0.058739744,-0.07797729,-0.06328739,-0.18596761,-0.0813634,-0.110433325,-0.07459229,0.040232137,0.0142275,0.11906226,-0.10406178,0.18762624,-0.029563637,0.045637097,-0.021658948,-0.10905428,-0.08414718,0.08630138,0.092956014,-0.019612668,-0.014276346,-0.062044982,0.11809845,0.047998752,0.08883081,0.055082895,0.0038037503,0.07378206,-0.02794535,-0.075281456,-0.0640511,-0.0035782654,0.08573684,-0.07588996,0.0540641,0.22959916,-0.22219338
/tv/tv_genre/programs	-0.11393557,-0.010866627,0.11108285,-0.14339921,0.024077147,-0.049746383,-0.030986685,-0.119556904,0.0054913955,0.046735115,0.07533255,0.12879826,0.0646964,-0.004641509,0.100216284,0.06917507,-0.1865438,-0.07476106,-0.33695582,-0.108616166,0.048966076,0.23477088,0.15990935,-0.05890693,-0.1354512,0.09504446,-0.1131012,-0.06928151,-0.13773893,0.064546905,0.08923551,-0.022206753,-0.1224814,-0.16409582,-0.08625889,0.045534473,0.033628017,-0.075528935,-0.14125597,0.116664484,-0.19940893,-0.0070930095,0.015181171,0.04669181,0.08445357,-0.17727086,0.0031919484,-0.041460473,-0.1076351,-0.052737404,0.13163617,0.16102281,0.16950297,0.041850038,-0.010278245,-0.06801819,-0.07292832,0.15947486,-0.05211628,-0.13439457,0.15687145,-0.06021208,0.09617929,0.042840105,-0.15564598,0.0819287,-0.11258687,0.12996466,0.029064162,0.0025560143,-0.07530493,0.041057263,-0.11441069,-0.02813412,-0.12486564,0.020437974,0.041946586,0.026924744,0.090339035,-0.057761088,0.023003533,0.055503316,-0.10280049,-0.075257875,0.059138212,-0.08292918,0.0031698863,-0.06623468,-0.08168649,0.07746168,-0.02989917,-0.12070665,-0.11823128,-0.002276516,0.086455576,-0.035426695,-0.095960334,0.067126304,-0.10339283,-0.043046135
/award/award_nominee/award_nominations./award/award_nomination/award	0.06677538,-0.057933148,0.029392486,-0.061867066,0.037815467,0.10089262,-0.023673268,-0.12345576,-0.0795616,-0.02539427,-0.034945976,-0.08210615,-0.08663928,-0.15289412,0.04634337,0.0037530647,-0.22110735,0.12409432,-0.10129321,-0.11326073,-0.018135572,-0.19471237,0.038470924,-0.038627744,0.06043239,0.16909179,0.085440256,0.025842765,-0.08639893,0.069725566,-0.038645796,-0.023914631,0.06393702,-0.054321546,0.04682828,-0.12666842,0.09226493,-0.1022991,-0.07674078,-0.09879708,-0.14986533,-0.17455508,-0.12082054,0.08279501,-0.027247818,0.054825917,0.023362229,-0.18134342,-0.09459742,-0.02296785,-0.028201643,-0.03592574,0.023229543,0.049601167,0.16678646,0.18372309,-0.20000961,-0.12173596,0.04675988,-0.031312253,-0.078591,-0.03129286,-0.103491835,-0.14982289,-0.056120638,0.07440524,0.05951726,0.074390166,0.07646031,-0.12599316,-0.005195321,0.028253732,0.12407639,0.1740756,-0.065287724,-0.21934739,-0.11200018,-0.0030095503,-0.09477172,-0.16313325,-0.12502033,-0.042329986,-0.024083208,-0.051632795,-0.047824923,0.07339298,0.10655625,0.013956446,0.059797227,-0.063256055,0.02962859,0.12410659,0.028692435,-0.14050442,-0.0018383167,0.054224983,-0.068024576,-0.08332051,-0.34961945,0.07667278
/music/genre/artists	0.06299383,0.14832844,-0.0769911,0.08924815,-0.13051069,-0.00826688,-0.09385312,-0.11500896,0.10166698,0.01970046,-0.07394136,0.06046806,0.09716793,0.16205744,-0.10095339,-0.024508547,-0.20177613,-0.01823368,-0.0533025,0.018714987,0.075607255,-0.06300178,-0.11511275,-0.15582463,0.00041202357,0.13473524,0.08886879,0.045677308,0.062944576,0.13584957,-0.06688698,0.03238171,0.020938726,0.13137046,0.043313455,0.05520158,-0.0029604249,0.025476363,-0.030439964,0.0042197434,-0.03937806,-0.059178937,0.151003,-0.19004482,0.24542741,0.09285942,0.018117987,0.108846806,0.16819102,0.022042196,0.13671292,0.17173803,-0.018678507,-0.0062239007,0.028757367,0.08376242,0.0905063,0.04713853,-0.036467735,0.12302934,-0.039053686,0.19109474,-0.12539211,-0.14345975,-0.0071954792,-0.04556941,-0.12192298,-0.075699106,-0.026278153,-0.07675272,0.07755155,0.15462935,-0.17337026,0.092369966,-0.07456919,0.1366731,-0.18122014,-0.15498337,-0.09529836,-0.0030029977,-0.043657128,-0.036062658,-0.11432112,0.15524857,-0.071636826,0.055073854,-0.12536769,-0.103204615,0.17008944,-0.009679263,-0.037345074,-0.079370156,0.03797759,0.06464299,-0.00063866377,-0.07024636,-0.0625512,0.12925448,0.044697236,-0.026625533
/influence/influence_node/influenced_by	0.11035533,0.08087519,-0.30435756,-0.11550145,0.017054351,-0.1486627,0.01967604,-0.0074345246,0.2344978,0.04358646,0.06991644,0.058632582,-0.03227629,-0.019995283,0.10217749,-0.07189946,-0.05709218,0.06763562,0.055911135,-0.069205485,0.08877549,-0.049061295,0.003808272,-0.09619873,-0.053023946,-0.1395653,0.039898798,0.15650211,0.074335776,0.043931328,-0.045381617,-0.18511917,0.093903005,-0.13343541,0.12341268,0.09740951,-0.06207906,0.16306257,0.06474035,-0.36468422,0.04069129,-0.10660249,0.025261687,0.0065116216,0.03738024,0.06897438,0.12458933,0.17758262,-0.05496918,0.10817383,0.012092197,0.07135213,0.059436157,-0.019375408,-0.0008209988,-0.052020986,-0.06802687,-0.0676668,0.05855331,-0.15181874,0.04456688,0.02743796,0.1068163,-0.18811129,-0.05156361,0.015405076,0.12253487,-0.0077294777,0.020352945,-0.027959794,0.015822642,0.023257699,-0.07702031,0.05424375,-0.14635308,0.14268623,-0.08476027,-0.048715208,0.12551627,0.008646986,0.16475174,0.030325562,-0.050529305,0.07591696,-0.05345357,0.1037825,0.05056635,-0.037167527,-0.072061695,0.12538409,-0.19279154,0.11285658,-0.08220167,0.046268307,0.049769763,0.07175695,-0.041068252,-0.054807313,0.047235623,0.11345236
/education/educational_institution/students_graduates./education/education/student	0.17630427,0.03935126,-0.070696615,0.19109912,-0.09537675,-0.014508039,0.1339609,0.060123947,0.07721094,-0.0777834,0.047775015,-0.120586656,-0.09323589,0.018660907,-0.00014284719,0.12295658,0.03936535,0.0688006,0.13206396,0.09260032,0.1378227,0.10964247,-0.09108206,0.03181611,0.017442055,0.09295661,0.09448148,0.0015761177,0.17940111,0.021257266,-0.012856854,-0.13828802,-0.03728402,-0.10275112,-0.13826632,-0.1508338,-0.2611336,-0.1321574,0.109892495,0.110304266,-0.03691887,0.010743704,0.22052148,-0.16972102,-0.08870475,-0.13500863,0.018089512,0.12756394,-0.026334368,-0.08100339,0.031551756,-0.0253215,-0.061241843,0.071098134,0.17533892,0.030973952,-0.20187996,-0.03196472,0.03553349,-0.007822616,0.009726994,-0.05313346,-0.096978635,-0.080555506,-0.0040577487,-0.17809922,-0.0009660558,-0.1125207,0.08574694,-0.017358985,-0.041818682,0.16405368,0.010575449,0.097836934,-0.03549575,-0.02898383,-0.032853123,-0.07971378,-0.09586482,0.043619934,-0.14851108,0.00018513622,-0.01774835,-0.028578686,-0.014803168,-0.07133201,0.00011257478,0.048502453,-0.11595744,-0.12940429,0.11573697,0.08693194,-0.061286453,0.019479401,-0.103913076,0.020929307,-0.10400035,0.038560234,-0.032434173,0.18005273
/organization/organization_member/member_of./organization/organization_membership/organization	-0.022761729,0.18812081,0.14560409,-0.028067851,0.07604526,0.19621293,0.058403697,0.3429764,0.015129683,-0.021705147,0.095836386,-0.17620304,0.07220121,-0.013325829,0.016495598,-0.01627992,-0.08247642,0.17437829,-0.021697091,-0.08590397,-0.13004842,-0.14878243,0.059269402,0.12323992,-0.08314561,0.008108409,0.05411256,-0.15459092,0.051052857,-0.18317704,-0.11119858,-0.1283609,-0.082076356,0.12978609,-0.054248005,-0.06489808,0.06625161,0.19999768,-0.08069529,-0.052431792,-0.009900746,-0.06667462,0.06133118,-0.0007618555,-0.031797532,-0.08911315,0.022937188,-0.06542771,0.0044058925,0.13556308,-0.04024631,-0.018367007,0.0900841,0.16651858,-0.057455145,-0.07587401,0.0918272,0.10471511,-0.19128704,-0.008712985,-0.002916805,-0.07154411,0.08760301,0.08243202,-0.036914717,0.09439951,0.15223706,0.07577476,0.010397881,0.14968468,-0.053177316,-0.012868181,0.064660355,0.1820372,-0.21007103,0.0141871935,-0.14816453,-0.017632527,0.05995078,0.0825149,0.08618495,0.070494115,0.026550274,0.09362236,-0.04467435,0.031088678,0.06812136,0.0022452457,0.023749582,0.04241308,-0.058250137,0.08388146,0.012094407,-0.05140879,0.105664335,-0.12855595,0.0997097,-0.14568543,-0.040910833,0.098321125
/people/person/place_of_birth	-0.053795107,0.17734146,-0.092176154,-0.022632016,0.08962732,-0.009700288,0.0012150233,0.024988525,0.006300976,0.0058789616,-0.01516323,0.07205107,0.15820351,0.02337762,-0.10751338,0.0206181,0.11635271,-0.16475475,-0.027366845,0.0999476,0.010755773,0.087211795,-0.028311871,-0.0994519,0.1177113,0.011388255,-0.0036782664,-0.060075637,-0.16141905,0.020062543,0.03166865,0.018232197,-0.07134304,-0.03794938,-0.1513852,-0.042755447,-0.18556124,-0.11335715,-0.038004402,0.007432509,-0.1335155,-0.2273773,0.0050881486,-0.15649213,-0.20951706,-0.079388246,0.18484107,-0.09982858,0.044471595,0.05233813,-0.0014557817,0.012851994,0.117833376,0.13856614,-0.264365,-0.049566347,-0.1588295,-0.031841133,0.009786282,-0.15511866,0.13010095,0.09622862,0.045336068,0.048330124,0.05845691,-0.108118124,0.074087635,-0.03584688,0.0016509971,-0.05761493,-0.10404942,0.13255423,0.050878335,0.05394752,-0.0878668,0.05880073,-0.09651846,-0.06748618,0.12299263,0.09522518,-0.2398097,-0.023412377,-0.080418676,0.19871598,-0.029864263,-0.27990752,0.035221435,0.04839403,0.017719656,-0.061722968,0.07751938,0.034751475,-0.0073558385,0.002428129,-0.068685904,0.018581323,0.087167926,-0.094324484,-0.040981907,0.08040111
/common/topic/webpage./common/webpage/category	0.0008851313,-0.0046229097,-0.072589606,-0.023940412,0.027094275,-0.015199424,-0.03617461,-0.2238877,0.13680437,-0.11097005,0.07221711,-0.009810942,-0.045306467,0.20103016,-0.030452145,0.019861627,0.05994966,-0.026166556,-0.020647008,0.012740172,-0.058939088,0.0130242715,0.001020893,-0.01975975,-0.04401209,-0.040338937,0.0021708552,-0.23565759,0.11763628,0.0011138747,0.0071792854,0.15438706,-0.039741065,0.17188074,-0.10842423,0.15168464,0.04485855,0.122008726,0.09121947,-0.07068145,-0.2369305,-0.15494426,-0.16709639,-0.0024637962,-0.014322616,-0.23645826,0.186486,-0.1377989,0.0014765393,0.03205948,0.06582549,0.066184595,-0.027942237,0.029220464,-0.0029191459,0.097686715,0.0333486,0.0623361,0.15006852,-0.07115671,0.094655395,-0.01828821,-0.033074778,-0.08432778,0.025481809,0.14057039,0.19270113,0.048420213,-0.03534181,0.024738897,0.16349824,0.21033922,0.05944395,0.10140448,0.10813152,0.010236541,-0.103426956,-0.006923114,-0.023596976,-0.025771957,0.09590583,-0.044948574,0.08924477,-0.0004825876,-0.17113589,0.1063383,-0.013797451,-0.006175131,-0.03584057,0.03509149,0.17169318,0.06320065,0.19179156,0.04732386,-0.04413737,-0.007213914,-0.18915002,-0.08412304,-0.21509111,0.042409666
/media_common/netflix_title/netflix_genres	-0.07711972,-0.0037334303,0.045171883,0.076103605,0.07385417,-0.15975496,0.09740886,0.20869939,-0.12607865,-0.18158826,0.0332483,0.12549,-0.012905454,0.041539524,0.008608732,-0.19567715,0.120120436,-0.095206045,-0.071393445,-0.028550284,0.05582196,-0.13743824,0.0028545763,-0.02270879,-0.1124964,-0.19954406,0.07960049,0.008425598,-0.035535872,-0.019958997,-0.3173057,0.0267009,0.036780678,0.012479145,0.098947614,0.055463713,-0.010218328,-0.08247724,-0.00014611403,-0.107925616,-0.0151284505,0.013361368,0.008479017,-0.15629958,0.0048327628,0.10592098,0.17245251,-0.03146793,0.15252961,0.13678,-0.0021113763,0.04037237,-0.11155971,0.07964916,-0.01908142,-0.19950055,-0.013955323,0.0061985245,0.08434298,-0.08727469,0.15365298,-0.16934437,-0.0057558883,-0.05792833,-0.07803199,-0.078916244,0.033115704,0.019836932,-0.12320129,-0.12268925,0.1907342,0.15379357,0.07964717,-0.032300822,0.038185645,-0.0010281713,-0.08868036,-0.21971668,0.023742536,-0.12410062,0.10993072,-0.038022447,0.06938577,-0.006645807,0.050242856,-0.09968093,0.10209694,-0.23062363,0.011153426,0.08372572,0.08454412,-0.07783404,0.021253504,0.0016466706,-0.035268817,0.085904256,-0.033083938,-0.07572207,-0.06072425,0.04296507
/sports/sports_position/players./american_football/football_historical_roster_position/team	0.122555934,0.0044052494,0.088414416,0.09852505,0.16885324,-0.008735999,-0.06766724,0.11166,-0.062370937,-0.07058268,0.052949,0.19539778,0.030291943,-0.04538512,-0.15444157,-0.26836526,0.0471051,0.05270622,0.14579213,0.017457355,-0.10136108,0.048274137,-0.03328462,0.037958626,0.08146153,-0.08747108,-0.14889339,-0.11964901,-0.17767188,0.10790125,-0.021580644,-0.1490354,-0.0034582305,0.19046485,-0.058977798,0.11439874,-0.007586351,0.0747342,0.06883522,-0.042667307,0.14793092,0.068851,0.07873999,0.06290449,-0.11896257,-0.013829174,0.047174625,0.0041207573,0.2482464,0.094802774,0.013859235,0.14414717,0.15370747,-0.09190829,-0.10128573,-0.07380071,0.06334971,-0.10633516,-0.14974715,-0.0628381,-0.0148564605,-0.07585733,-0.14073044,0.02077108,0.049800105,0.029679734,-0.094344616,0.13683039,0.020021083,-0.06836945,-0.115454175,-0.030070923,-0.029114088,-0.066198714,0.14610906,0.09308528,0.09837174,-0.008006699,0.00674174,0.028523471,-0.043702874,-0.11941772,0.079928435,0.09748956,0.056729767,-0.25486588,-0.07512268,-0.092751846,-0.07011693,-0.037779544,0.06637269,-0.09087235,-0.064196646,0.017352154,0.15518764,0.038010675,0.17004955,0.05371123,-0.14844212,0.06599292
/film/film/other_crew./film/film_crew_gig/film_crew_role	0.118696764,-0.15137887,-0.040831905,0.12649295,-0.039898224,-0.15310122,0.020552678,-0.059188977,0.21822314,0.021909956,0.08188089,0.13883507,0.068051465,-0.01724403,0.02040817,0.030139616,0.08741443,0.16089907,0.00813961,-0.152769,-0.02895336,-0.2922148,0.03680548,-0.035580173,-0.021740595,0.013134705,0.055835754,-0.03781496,-0.0058278176,0.012118428,0.11073309,0.015409175,-0.006627375,-0.014460706,-0.04988671,0.041111663,-0.09149673,0.04632441,0.14339042,0.14480776,0.061971836,0.0063121337,0.18260944,0.1614213,-0.09625235,0.06338361,0.010457446,-0.06342535,-0.008386188,0.11304987,0.18782909,0.095700726,0.09154954,0.09086404,-0.1066166,0.20879939,0.039587196,-0.041013975,0.09085319,-0.019048817,-0.13150227,0.083102874,0.010981946,-0.14143646,0.029953748,0.008001726,-0.171587,0.04881518,0.03256071,0.055609085,0.22633511,-0.008381812,-0.094130926,0.14666758,0.12755015,-0.08026903,-0.00026899157,0.0036545745,0.09092539,-0.074273795,-0.07936651,0.11280918,0.10342637,0.027518965,-0.059801735,-0.08601992,-0.03373116,-0.04757286,0.16160972,0.019270906,0.23890941,-0.10603675,0.02291149,0.060967956,-0.21651968,-0.0060304124,0.09882218,0.06385339,-0.032751095,0.06441904
/award/award_ceremony/awards_presented./award/award_honor/award_winner	0.12056836,0.016966492,-0.0750219,0.038589284,0.016429942,0.069872074,0.0429212,-0.14109887,0.18069965,-0.04343592,0.11776515,0.0861536,-0.026608272,-0.017157216,0.11860214,0.04195109,-0.0018803457,-0.09097028,0.05807068,0.05134644,-0.08647904,-0.04792095,0.04439773,0.049742654,-0.0709654,0.26332855,-0.14534345,-0.17608492,0.19489692,0.09901903,0.013959413,0.03614869,0.0021347185,0.099242285,-0.080186784,-0.017753974,-0.07591207,-0.01709639,0.03463262,-0.06704014,-0.00024588895,0.08036805,0.09406238,-0.025742764,-0.030108888,-0.0053684544,0.121591195,0.2327117,-0.04345533,0.109044775,-0.05951301,0.088583164,-0.018025313,0.030289367,0.04422968,-0.14623734,0.1400671,0.044231452,0.06127372,-0.26980692,0.015622426,0.11799936,0.10308628,-0.07603954,0.0023089778,-0.012777136,0.007373527,-0.1359469,0.06772026,0.18069907,-0.08632413,0.057098284,0.05190934,0.028623689,0.069823526,-0.012590243,0.02630768,-0.094163604,0.17646362,0.13209566,-0.16122267,-0.06809443,0.088398114,0.17830952,0.092272855,0.10096085,-0.038736843,0.14109637,0.009826102,-0.14405546,-0.14189136,-0.13009097,-0.011018352,0.010129937,-0.23455685,-0.026260972,0.017001735,-0.18976532,0.013200001,0.011282945
/film/film/country	-0.064487904,0.16984938,-0.033026848,-0.076804526,0.02270972,0.04440589,-0.072781496,-0.10236804,0.009532453,-0.06757443,-0.14928193,-0.21077983,-0.089877,-0.093684964,0.10463015,-0.1609247,-0.014456613,0.17780986,0.057328384,-0.22386363,-0.07596847,0.13332583,-0.007352596,0.06278452,0.18679254,-0.10029596,0.19191243,0.0010474012,0.1241381,0.08519845,0.031575907,-0.12015768,0.07122301,0.052138552,-0.014964872,-0.08164207,0.10398509,0.025159558,-0.18613161,0.092111066,0.00027173478,0.011580948,-0.008165985,0.04676365,0.07596195,-0.1592563,0.2111135,-0.023618478,0.024593096,0.08497373,-0.024913661,0.1837586,0.008349493,-0.017755065,0.042418543,0.059115216,-0.14082575,-0.025058808,-0.12540843,-0.046799097,-0.032912098,-0.0854858,0.019876234,0.024522483,-0.0807387,-0.048505962,0.12278804,-0.18661846,-0.0277392,-0.088039786,0.09346402,-0.17010115,0.09587924,0.05555696,0.26737425,-0.059031315,-0.13631935,0.11502022,-0.09532431,-0.11623416,0.052821927,0.03497531,0.0891398,0.02191484,0.1557645,0.07301384,-0.12867996,0.082794935,-0.026427548,-0.00029073644,0.0108105475,-0.09290845,-0.12447401,0.026423512,0.05793209,-0.059312183,-0.039481696,-0.11052017,-0.023337563,0.113213696
/olympics/olympic_sport/athletes./olympics/olympic_athlete_affiliation/country	-0.1808935,0.16946612,-0.15436879,-0.12301973,0.037718806,0.14223191,-0.09085024,-0.056494065,-0.075725384,0.008950231,0.12130309,0.06058383,-0.15660007,0.10741858,0.111891404,-0.009920975,-0.09491513,0.08351972,0.06376152,-0.08025895,0.03830923,0.070133604,0.20786396,-0.08846429,-0.07417015,0.00045102742,-0.031845298,-0.029577402,0.16731638,0.0046036965,0.1857806,-0.12396103,0.11668355,-0.01545072,0.009061642,0.09090697,-0.077966064,0.040989697,0.021420758,0.12085387,0.19566861,0.018919643,-0.04031623,0.10131201,0.0559996,0.15108322,0.031111356,0.08026256,-0.022711508,0.07691602,-0.11778968,-0.11528744,0.13779415,-0.022829441,-0.06654304,0.1134065,-0.01757526,0.11952179,0.058547877,0.104678154,-0.015022337,-0.029999591,-0.08377635,-0.168635,0.053448386,-0.035924435,0.052975707,0.10091064,0.19980997,-0.09680635,-0.10847916,0.052651517,-0.07078662,0.040222332,0.027885634,-0.069652334,-0.05106839,-0.11454025,0.015936434,0.20703939,-0.29846442,0.03709702,0.03335876,-0.053858478,-0.01817778,0.0501284,-0.033985518,0.050815906,0.012366005,-0.1268022,-0.07094805,0.17826493,-0.0004348054,0.06481311,0.03684487,0.050434742,0.07037508,0.08297544,0.061386757,-0.21090743
/award/award_winning_work/awards_won./award/award_honor/award	0.09802096,-0.057336263,-0.0010175733,0.067890644,-0.10488663,0.091603264,-0.09897476,0.077667564,-0.03846451,0.113556236,0.068255804,-0.10928256,0.15077858,-0.12765382,-0.018369183,0.05213694,-0.08638066,0.23495209,0.0057960004,-0.23509338,0.08927318,-0.12650973,0.0067189336,0.11550347,0.1038026,-0.041084193,0.10591505,-0.15168217,0.04540151,0.07464843,-0.009148488,-0.0015799259,0.006821532,-0.0148149105,-0.043679547,0.047551867,-0.1687221,0.16448338,-0.035786968,0.14152104,-0.07731024,-0.02814817,0.029286126,-0.088114455,-0.15567657,-0.05967243,0.06333803,-0.08262575,-0.08611572,-0.04681925,-0.048355415,0.039634682,0.07173061,0.27010316,0.03967741,0.11910093,-0.022007296,-0.052864138,-0.13645597,-0.019466192,0.14629129,0.11106703,-0.08504021,-0.06351761,0.09729622,0.012123648,-0.091756485,-0.12036514,0.04082583,0.055842962,-0.111546755,-0.20417556,-0.14199808,-0.15694498,-0.018453974,0.15930068,-0.1626123,-0.17885397,0.08011416,0.07295448,0.093483314,-0.08744015,-0.12065232,0.12861368,-0.10786511,-0.11651606,0.04820306,0.067512125,-0.030802649,-0.059502363,0.00075369864,-0.17115372,-0.0058974028,0.045138996,-0.01777933,-0.06850862,0.092584535,-0.03717573,-0.047092285,-0.05322615
/base/schemastaging/tv_actor_extra/regular_dubbing_performances./base/schemastaging/tv_star_dubbing_performance/program	-0.05830871,-0.0746173,-0.048624415,0.0007455563,0.08968487,0.072748676,0.12123345,0.076994464,0.012900101,0.071454234,0.1689063,-0.08926546,-0.091298304,-0.12880081,0.060565017,-0.2126624,-0.048197124,0.00043416163,0.0052025397,-0.14819697,0.12301618,-0.016563233,0.08975685,0.09142763,0.0722556,0.06584242,-0.26762384,-0.02921421,-0.029702492,-0.025430782,0.15424065,0.014888057,-0.04076701,-0.11959715,0.028120568,0.08339655,0.107284166,-0.049606282,-0.1486501,-0.13013725,-0.0034799762,0.10004792,-0.16398372,0.016959282,-0.108002454,-0.11233323,-0.077048555,-0.011285642,0.16747,0.046195243,0.113403834,-0.008315089,0.15937288,-0.027168192,-0.04446366,0.13667728,0.004041284,-0.17519619,0.08817082,0.057820864,0.06440279,-0.12619756,-0.068663046,0.19620943,-0.2571511,-0.068265565,0.09382499,0.21834779,-0.15142019,-0.15187633,0.0458886,-0.07290592,-0.014579336,-0.061697632,0.07332489,-0.050462335,0.17758536,0.02800157,-0.03413894,0.02043701,0.023814477,-0.023154873,-0.19970578,0.02140861,-0.04730966,-0.07950906,-0.06781699,-0.08267742,0.1485978,-0.031864323,0.02181583,0.011752769,0.028447337,-0.025800075,-0.09981248,-0.05235698,-0.11508573,-0.019354071,0.08005959,0.019360658
/film/film/genre	-0.013604831,0.029459585,-0.03305988,0.05430725,-0.036710534,-0.001640931,0.17279996,-0.106374905,0.12030827,0.13830261,-0.019601548,0.036721528,0.06266789,-0.14949977,-0.072558634,0.021022499,0.03715369,-0.06847244,0.07659517,0.0016311784,0.04282701,-0.049084026,-0.046024784,-0.09462207,0.04225123,-0.14198805,0.15746701,0.0039420216,-0.08000313,0.079018645,-0.1807145,-0.0800892,0.23471153,-0.20844704,0.08169559,-0.10509493,-0.013106288,0.11730893,-0.009451523,-0.033117477,0.047715567,-0.044428118,0.08441324,-0.017323289,-0.0666115,0.18525316,-0.093441024,0.024065364,-0.20946455,0.14708538,0.080086075,0.012080263,-0.04274531,0.05215197,0.03276444,0.10035534,0.04869125,-0.10655457,-0.011013462,0.11845298,0.008392952,0.10483005,0.08360094,-0.18451023,0.05094259,0.10318337,-0.20411964,0.18752958,-0.0430851,0.10150805,-0.016248368,0.044301923,-0.02228234,0.16479555,-0.03930792,0.08819703,0.11106046,-0.019391034,-0.0849593,-0.18493618,0.0064361934,0.17186145,0.069039896,-0.050502464,0.17391151,0.0786481,0.040099766,0.024008404,-0.043362577,-0.08446678,0.12814808,0.16236936,-0.15727593,-0.14729246,0.050576877,0.07475386,0.005461395,0.06973982,-0.07523258,-0.15590566
/award/award_nominated_work/award_nominations./award/award_nomination/award_nominee	-0.066401996,0.19293812,0.07442054,-0.0062782164,0.0022471575,0.107504606,-0.13149185,0.035228636,-0.06283132,0.13280936,0.07468893,-0.01923521,0.08597223,-0.12829824,-0.013996769,0.048549157,0.022368057,0.30585814,0.1010879,-0.031477854,0.05084079,0.23680665,0.04647883,0.025883881,-0.13371222,-0.060789388,-0.21413817,0.11382492,0.19670655,-0.0030578864,-0.08653546,0.16831057,0.046324283,-0.22205351,0.16271062,0.02145668,-0.105674304,0.05626426,0.045993753,0.1442848,-0.17017743,0.08358189,-0.008172267,-0.12835786,0.03486588,0.074072346,0.09487088,-0.076609306,-0.0002465127,-0.05418425,0.13930185,0.1421631,0.032144878,0.050661903,-0.10414149,0.005141073,-0.009766533,-0.070013195,-0.09806409,0.118757464,0.16540167,-0.057312645,-0.08699625,-0.03997279,-0.0025499377,0.06757855,-0.038221207,0.020939086,-0.0079894215,-0.018760083,-0.029548194,-0.020626552,0.03862407,0.039525703,0.20531702,-0.114343874,0.21040256,-0.061697774,-0.11875702,0.07909277,-0.14515695,0.04936922,-0.0069102505,-0.023392726,0.101941526,0.010469075,-0.06652332,-0.03957049,0.014117537,0.06418281,0.03330693,-0.010582592,-0.04133019,-0.064008735,0.010597032,0.07594775,0.13825324,-0.00438688,0.10577066,0.093987636
/film/film_distributor/films_distributed./film/film_film_distributor_relationship/film	0.14091784,0.13739784,-0.0011595023,0.05087444,-0.059734896,-0.058397602,-0.14670826,0.11131988,-0.033027645,-0.0800345,0.21002105,0.04511691,0.0871698,-0.027602857,-0.12335267,-0.13644226,-0.11293049,0.018062053,0.07017504,0.0036727819,-0.05331232,0.09384416,-0.12997785,-0.099264294,0.09265451,-0.047671825,0.010368977,-0.0400195,0.03835099,-0.10122235,0.0076779914,-0.0379844,-0.05269248,0.049280033,-0.10702112,-0.11614029,-0.05462374,0.0101919165,0.012255838,0.12926027,-0.16773635,0.039090373,0.14862937,-0.14654352,-0.03964196,0.0155428285,-0.08145287,0.024805434,-0.023339171,-0.049708,-0.06524578,-0.05765557,0.12368523,-0.20832959,0.0916146,-0.10266597,0.08176922,0.22299096,0.12113474,-0.07421417,0.11880728,0.07193259,-0.04102827,0.08608813,0.06350453,-0.04866129,0.033151962,-0.0539301,-0.01599433,0.21592501,0.05952473,-0.09317721,0.003970774,-0.050244063,0.08162598,0.053752344,0.16832082,-0.10822474,0.2655803,-0.116804466,-0.06066657,-0.08930659,0.03556491,0.024898382,0.008702226,0.016134752,-0.118015416,0.23330793,0.061691836,-0.140135,-0.086417675,-0.012232462,-0.09835944,0.015766827,0.1307736,-0.10247844,-0.037271593,-0.21629614,0.14245346,-0.011849621
/location/statistical_region/rent50_2./measurement_unit/dated_money_value/currency	-0.026032373,-0.0068526,-0.12578738,0.022235833,0.13902026,-0.2892485,0.117944084,0.054621805,-0.124729216,-0.0028182445,0.15277733,0.16830783,-0.07194399,0.09810532,-0.051288117,-0.06347161,-0.071632355,0.055239886,0.073240325,0.08249661,-0.041373808,-0.008958665,-0.031180192,0.001306066,0.14833474,0.022243647,0.17428501,0.06475248,-0.03345998,-0.15394498,0.10425681,0.13217452,0.092838734,-0.20979743,-0.08358864,-0.06883702,-0.09694166,0.03285184,0.07709545,0.10465263,-0.056256145,-0.021912433,0.018084394,0.0767637,-0.033435002,-0.056642793,-0.035453245,0.16002715,-0.09302354,0.040520668,0.13362977,0.13564119,-0.08707573,0.013136216,-0.1948313,-0.02988252,0.015501717,0.27707586,-0.0887984,0.038041756,-0.07615907,0.08720879,-0.13003914,0.025762064,0.063798964,0.13620777,0.10668555,-0.046447493,-0.054956254,-0.092083305,0.12071249,-0.10993508,-0.0899787,0.08934547,-9.2105474e-05,0.045996603,-0.002999308,0.04763618,-0.08212902,-0.06405055,-0.0108877765,-0.073358156,0.074120656,0.015269485,0.15060993,-0.0268244,-0.12633626,0.0057712635,-0.18437299,-0.03333866,-0.06882221,0.27725458,0.08173672,0.15614186,-0.0038442092,-0.1421426,-0.04297404,0.034131452,0.034200434,0.020979038
/film/film/estimated_budget./measurement_unit/dated_money_value/currency	-0.07253321,0.007891396,-0.03669801,-0.00027961086,0.118503675,-0.10583699,0.019321803,-0.1422049,-0.030999932,-0.120122515,0.025915463,0.05485579,-0.07902677,0.10760411,0.0704765,-0.11618467,0.04162559,0.01863546,-0.032420255,0.14993675,0.09985525,0.031910677,0.16806842,0.09209521,-0.08567041,0.032392725,-0.01995045,0.09113196,-0.019558549,0.07293063,-0.15410678,0.0718935,-0.010917864,-0.02454634,-0.016158996,0.009573006,0.029498272,0.0387473,0.17939977,-0.1257311,0.0185831,-0.14803542,-0.028083175,0.035522286,-0.05762451,-0.05580467,-0.115458414,0.19031972,-0.03818927,-0.27387357,0.3137831,-0.10150708,-0.028924275,-0.023689657,-0.17796008,0.11113697,0.105586715,0.09235095,0.05897718,0.0010499209,0.28538537,-0.058581725,0.03764927,-0.09008883,0.043975707,-0.035590302,0.06565466,-0.05152861,-0.019998528,-0.08574358,-0.20923238,0.09226283,0.0088788895,-0.12584458,0.012031847,-0.088822044,-0.003796209,-0.110973924,-0.039473813,0.067071766,-0.0148119,-0.23991613,-0.03763236,-0.06298469,-0.19789961,0.10453135,0.01621367,-0.06482675,-0.006662846,-0.10306985,-0.06560803,-0.0944539,0.009456735,-0.11821353,0.037774377,-0.0018343991,-0.072766244,0.055400882,0.05233105,0.15911561
/location/administrative_division/second_level_division_of	0.05181742,0.10798594,0.17811143,-0.04563752,0.0040763533,-0.017481938,-0.033430353,-0.10279598,-0.13019525,-0.11717485,-0.0040253266,-0.07100107,0.08137359,0.06561581,-0.08561992,0.03924986,0.2226504,-0.09688272,-0.029852884,-0.19381543,0.011224218,0.13397264,0.04444646,0.17702286,-0.027713064,-0.030245792,0.015571926,-0.063598946,0.17825238,-0.019981116,0.097680986,0.06297608,-0.10545955,0.08685377,0.036840368,-0.067689314,0.072464764,-0.012646763,-0.03272807,0.017517798,-0.16620857,-0.05113131,-0.024997104,0.12268202,-0.20921353,-0.0246563,-0.0030924273,0.03028598,-0.004573014,-0.1336823,-0.0024603284,0.05816073,0.16060679,-0.04614789,0.07451503,-0.09859444,0.24791187,-0.009120429,0.012416692,-0.1244424,0.08236358,0.098621614,-0.15841079,-0.014521167,0.08121111,0.09383224,-0.03557271,0.120438255,0.07876849,0.15307234,-0.028152537,-0.06741447,-0.18421027,-0.08886161,0.0179239,0.17232674,-0.021230279,0.13821863,0.011609737,-0.16891748,-0.07446277,0.12164064,-0.13465422,-0.063619785,-0.032673117,-0.14902702,0.027965434,-0.12171073,0.13921182,0.018029977,0.094928816,0.044254795,0.004359881,-0.16562074,0.079948954,0.16371216,0.01900288,0.12488512,-0.08207019,-0.10039585
/government/legislative_session/members./government/government_position_held/district_represented	-0.012734976,-0.04632491,0.03498581,0.009877771,-0.064662375,0.14139992,-0.13465783,-0.058349464,0.004691081,-0.036763154,0.04816611,-0.037855953,0.03208612,-0.08784651,-0.019268434,0.21822044,-0.092406765,0.13069664,0.17096941,-0.1328091,0.0135314325,-0.091576874,-0.028601281,0.14770961,0.07502326,-0.0704425,-0.0732104,-0.058073625,-0.1420049,-0.038609914,0.10102601,-0.08469338,0.044823993,0.014767125,-0.123984315,-0.017291274,0.09953975,-0.101623155,-0.11052347,-0.08537808,-0.030054752,0.18017721,-0.049525633,-0.04315588,0.068427965,-0.014691962,-0.15367825,0.020210637,0.00569305,-0.084850825,-0.040929157,-0.07877047,-0.10975304,0.1018604,0.11507357,0.1358602,0.08335478,-0.034995127,-0.10028239,-0.19114684,-0.09164985,-0.13306709,0.086439274,-0.019895108,-0.16366899,0.051809534,-0.10854308,-0.018104538,-0.10790366,0.06598888,0.09861528,-0.12687401,-0.13271901,-0.119581826,0.08727242,0.026049063,-0.18865527,-0.17664836,-0.1874646,-0.0688209,0.0561379,0.06572482,-0.16222772,-0.034749076,0.12659337,0.0027842126,-0.055011496,-0.15002677,-0.0046205563,-0.044230603,0.04988278,-0.1422003,-0.21239816,0.0014048025,0.03881651,-0.12525117,-0.110398166,0.08058332,0.11771299,0.111621805
/sports/sports_team/roster./american_football/football_historical_roster_position/position_s	0.009607045,0.032531336,-0.117607735,-0.10834325,-0.14411493,-0.2525656,-0.048015106,-0.097552896,0.13970518,0.13096768,-0.12936188,-0.1322107,0.18428245,0.1208387,-0.0033961048,0.14338534,-0.010888797,-0.03194121,-0.031579573,-0.061818533,0.058135763,-0.07938842,-0.14150956,0.023333222,0.11306768,-0.006319375,0.09221685,0.06656987,-0.111965075,-0.118188724,0.043280546,0.21084076,0.021092558,0.04641685,-0.1875661,-0.17790593,-0.028671695,-0.11268964,-0.020363884,0.036195856,-0.12748083,0.069530964,0.037110202,-0.009517986,-0.025858888,0.053547937,-0.025257617,0.07586787,-0.11791636,0.0870802,0.016693667,0.018029233,-0.10284335,-0.14926541,-0.016694225,0.08751106,-0.03722398,-0.029007342,-0.10364679,0.17301154,-0.08158631,0.027681455,-0.057759456,-0.13730675,-0.024387607,0.1612354,0.18817335,0.03219529,-0.058655977,0.14987803,-0.115694106,0.12779291,0.1430578,-0.08625496,0.004905219,0.14511466,-0.050660305,0.051300034,0.2066262,-0.046467554,0.16780213,0.119751826,0.07285292,-0.068280764,-0.03416185,0.08746088,0.066889964,0.07911038,0.021404311,-0.13799176,0.0013875595,0.0346414,-0.08198257,-0.10758202,-0.059949145,0.004295258,-0.07934025,-0.021305822,0.13028781,0.113123134
/government/government_office_category/officeholders./government/government_position_held/jurisdiction_of_office	-0.10132006,-0.034647077,0.013147064,0.00011496192,-0.04581851,0.05946055,-0.042907078,-0.12137018,-0.10300618,0.12567464,-0.0168446,0.03764185,0.027965445,-0.0612593,-0.16205339,0.012538722,-0.054594144,0.21124943,-0.033274993,0.18912981,-0.013472798,-0.06398548,0.09408691,0.00560828,-0.015228246,-0.14891744,-0.017404016,0.09215804,0.05623418,-0.081291944,-0.18047412,0.15337521,-0.09055341,-0.11840229,0.0030930666,-0.019525478,0.0919207,0.108659655,0.10469921,-0.044298034,0.08978615,0.21704851,-0.09520179,0.0055411216,-0.058626276,-0.16367921,-0.02298842,0.14729753,-0.002136719,0.06706956,0.05852817,-0.045795746,-0.052531105,-0.00579785,-0.14748797,0.33539036,-0.17723997,0.06988074,-0.057458375,-0.0900097,0.11015026,0.01795551,0.075849205,0.13538161,-0.062313724,0.1110636,0.020203969,-0.10748502,-0.043348446,-0.013902232,0.05615479,-0.05526826,-0.11831576,-0.18987551,0.04498227,0.12950398,0.006243624,0.0035246683,-0.09065427,0.06795293,0.057234615,-0.115499794,-0.051240806,-0.0663164,-0.05657472,0.11804088,-0.059716105,0.19847691,-0.2032696,0.064808846,-0.0012058578,0.09416758,0.04151123,-0.051013555,-0.20307623,0.04427414,-0.098376855,0.0054320246,0.08528065,-0.024313744
/award/award_nominee/award_nominations./award/award_nomination/nominated_for	-0.116400234,0.13986498,0.045328762,0.14910254,0.080324255,-0.025548754,0.047431126,-0.07257282,0.13127257,-0.08901972,-0.002400545,0.0065898625,-0.0039349585,0.031375587,-0.04511738,-0.0033688294,0.004942869,-0.03230244,-0.15566576,-0.039957795,0.01922807,-0.0016440456,-0.10390356,-0.019010793,-0.12762174,0.09268088,0.062331278,-0.121662624,0.01952154,0.022553807,-0.07581075,0.15742415,0.02801657,-0.09192375,-0.15370172,-0.06439845,0.0079669235,-0.032583836,-0.065616384,0.054819517,-0.11892926,0.112914525,-0.0809319,-0.09698898,0.033223998,-0.2183473,0.25083148,-0.052620266,0.02633965,-0.078803964,-0.059234202,0.017558496,0.13439092,0.038726807,0.07030994,0.08651507,-0.05601334,-0.046853464,0.07225724,0.13357389,0.14803141,0.036787197,0.049423054,-0.14024349,0.13166314,-0.05142238,-0.05648757,0.051654164,0.08195958,-0.0060020937,0.032632403,-0.17621325,-0.05798656,0.064960584,0.06276206,-0.03766536,-0.11942066,-0.027008975,0.031858813,0.092455536,0.19599149,0.17432365,-0.0513345,0.04796499,-0.04541251,-0.01196481,0.06100185,-0.07010023,-0.048071176,0.14127171,-0.020280248,0.11547165,-0.12764919,-0.19134967,0.07379231,-0.11880221,0.18315479,0.377954,-0.0023474486,0.0463028
/people/deceased_person/place_of_death	0.030121557,0.06811961,0.011951568,0.006337147,0.15188076,-0.07178511,-0.08754695,-0.04123458,-0.23768693,0.054842163,0.027625678,-0.02288126,-0.016182406,-0.046797834,0.16663276,-0.023940343,-0.06563998,0.033950366,-0.046598945,-0.032579266,-0.021214727,-0.21369256,0.024351664,0.04177998,-0.07440374,-0.042497862,-0.06605604,-0.14868686,0.06971445,-0.03703887,0.21135959,0.052431736,-0.10342991,0.049944058,-0.19916256,0.13139328,0.10690537,0.04936899,0.2419004,0.06403397,-0.06499997,-0.11133902,-0.11552731,0.054316103,-0.08409273,0.0035859812,0.10149756,0.12441793,0.06960513,-0.12203546,0.055405896,0.0051762382,0.07506477,0.2981276,0.078579746,-0.07970603,-0.22541834,-0.09090286,-0.028313305,0.00807519,-0.10658417,0.029173516,0.054120332,0.1521472,0.09792682,0.008830719,-0.094427735,0.05498849,-0.07320157,-0.073959365,-0.08804354,-0.054672502,-0.19031237,0.0076823724,-0.03488347,-0.074753605,-0.043797713,0.04959085,0.07272255,0.20997095,-0.00456491,0.095154844,0.042334523,-0.034931634,-0.03475679,0.010165763,-0.093733765,-0.14335814,-0.06834232,0.0069889682,-0.1603654,0.033238653,-0.059153643,0.18436714,-0.0057071056,-0.046648175,-0.14352702,-0.06295922,0.091365956,-0.026275434
/music/group_member/instruments_played	0.09272226,-0.122491226,0.13415882,0.14388712,0.028121755,0.10743838,0.029282011,-0.052536957,0.023775434,0.020365268,-0.017498454,-0.07849458,0.13004346,-0.075681694,0.010307148,-0.07084016,0.040003028,-0.021737646,0.012536979,-0.022794044,0.053165294,0.083242476,-0.17783621,0.23182476,-0.08278567,0.11667795,-0.013689724,-0.115104906,-0.032952424,-0.005111307,0.0024062346,0.10186126,0.1525017,0.104953244,0.07202052,0.018061103,-0.096254684,-0.00057823304,0.013491724,-0.1430119,0.1346437,-0.14875133,0.1862983,-0.120096855,-0.020647723,-0.17142531,0.118850976,0.030597936,0.16129932,0.10250869,-0.23387766,0.015018126,0.14386308,-0.04989728,0.09196826,-0.026017876,-0.08435614,0.03923494,-0.10452852,-0.07915343,0.058516752,0.13304129,0.19294256,0.020933019,0.007977428,-0.023985913,-0.014549874,0.11808161,0.108419076,-0.03814002,-0.0016573814,-0.059145633,-0.04522252,-0.0121954335,0.07117541,-0.07229479,-0.23434028,-0.09482469,0.12176509,0.092699744,-0.10648589,0.0021425574,-0.13755243,-0.00519442,-0.100169264,-0.048087977,0.017689586,0.001965995,0.14345695,-0.008695346,-0.10723206,-0.16086282,0.14426476,0.051899713,-0.032468382,0.057346847,0.101442665,0.17248695,0.16446087,0.111966275
/film/production_company/films	-0.20856246,0.06064356,0.056984045,0.0023386024,-0.116015226,0.043949556,-0.06380944,0.039144173,0.031475816,0.016148735,-0.12983869,-0.179109,0.07813762,-0.12183841,-0.07406919,-0.0066893017,0.15242946,0.037201628,0.008208577,0.11517686,0.11937737,-0.120865345,-0.018164285,-0.018188111,0.2671765,0.06624476,-0.09809102,-0.14962873,0.084865086,0.06864103,-0.067430496,-0.110296205,0.035293844,-0.19908853,0.05873794,-0.1771965,-0.021296408,-0.15297668,-0.05634431,-0.1080661,-0.075556025,-0.035050184,-0.14857496,-0.080239475,0.10523629,0.109545596,0.050545305,0.06784778,-0.011062097,0.11041739,-0.08860513,-0.004865682,-0.10785756,0.03607194,0.066960394,-0.058601186,-0.011879681,-0.079369865,0.02392238,-0.09856564,-0.07356423,-0.060002983,-0.0026022918,0.22129038,0.009762168,-0.054133467,0.20654777,0.085919455,0.000319461,-0.14657356,0.06369726,0.23055111,0.09029418,0.039550953,0.13751058,0.054660257,-0.01826828,-0.021556804,0.023769593,0.03604397,-0.01407325,-0.17718373,0.18450928,-0.13332582,0.055431463,-0.042476796,0.012499774,0.08856566,0.067207366,-0.061067656,0.14293315,0.04760261,-0.031427685,0.15450726,0.14152701,0.14823501,-0.011882262,0.0012732211,-0.030887831,0.0025413956
/sports/pro_athlete/teams./sports/sports_team_roster/team	-0.022285966,-0.027688162,0.1694679,-0.038407918,0.022734383,-0.048465174,0.09967375,0.053863224,0.1137755,-0.13479383,-0.010186764,-0.11309506,0.10436364,0.048693,-0.15855433,0.18990137,-0.072858214,-0.08556778,-0.20740445,-0.013127012,-0.07715003,0.120334,0.0887831,0.024475878,0.06192679,-0.069393896,-0.030440966,0.07729057,0.13735181,-0.090066925,-0.012036886,-0.08466751,-0.017550275,0.11429487,0.08238629,-0.23715162,0.07882087,0.010128545,0.11405476,0.03105957,0.15415135,-0.22458652,-0.15285644,0.062355515,0.111070216,-0.010691437,0.16035321,0.03908818,0.09620429,-0.064539924,-0.03049707,-0.020078212,-0.079529464,-0.19310707,-0.1331749,0.115941815,0.006850732,-0.16782346,-0.043469537,0.15170586,0.09458939,-0.15189646,-0.03913734,0.00267376,-0.088686526,0.04652216,0.09296355,0.031321105,-0.011520393,-0.014488897,0.046943575,0.13406086,-0.031084154,-0.024818227,0.06266483,0.06027393,0.045498773,-0.10653715,0.020360665,-0.08100483,0.10898273,0.16080038,0.036412474,0.11538181,-0.032275576,0.09642571,0.20481263,-0.027487332,-0.026507929,-0.15415893,0.02720703,-0.027220216,0.20622377,0.1833894,-0.005103655,-0.020509956,0.05770446,-0.043483697,-0.17134102,0.04339374
/base/schemastaging/athlete_extra/salary./base/schemastaging/athlete_salary/team	-0.04411228,-0.051756702,0.05500958,0.1743395,-0.122643024,0.03592406,-0.08239969,-0.11540536,0.04066469,-0.010244987,0.044971418,-0.18628377,-0.19622378,-0.026881393,0.116202176,0.027785843,-0.03864118,0.023107292,0.16650587,0.001111978,0.17896476,0.19832344,0.13657373,-0.09174429,0.10384979,0.0632593,0.08924132,-0.013894537,-0.106958576,-0.25905168,0.10112259,0.040930692,0.010032314,0.014463045,0.0790842,0.15568727,0.15071806,-0.098073915,0.06682276,0.09952503,0.029771114,-0.018698951,-0.05171142,-0.09871343,-0.054014456,-0.14203914,-0.019265385,0.07103713,-0.07416406,0.055902775,0.059212957,0.055763606,0.029108722,-0.15247713,-0.016560152,-0.19393821,-0.048823234,-0.00769667,0.04667328,0.18312702,0.18912856,0.048466228,0.06369005,0.058069777,0.015308646,-0.13358684,0.04483121,-0.14012551,-0.108310975,-0.0019064808,0.04145856,-0.08428001,-0.19463454,0.03520276,0.16460072,0.057716876,-0.08284649,0.060720276,0.016545879,-0.086055115,0.040929336,0.019813275,-0.07463476,-0.014830083,-0.040221527,-0.08254312,0.047761828,-0.23465599,0.043965984,-0.052264147,-0.12335792,-0.11258167,-0.1037506,0.1242392,0.036843106,0.014762418,-0.13829029,-0.067493185,0.06825783,0.031533435
/music/artist/track_contributions./music/track_contribution/role	0.047467474,-0.036383558,0.08929944,0.034206383,0.021332027,0.00054895366,0.15359935,0.21392392,-0.124905534,0.08924632,-0.072913475,0.17279784,0.013506899,0.062575676,-0.026372956,-0.13064532,-0.12077961,-0.15805832,-0.12931083,0.24759784,0.09765604,0.18112135,0.021277785,-0.011860454,0.025857124,0.11805272,-0.12958051,0.11472542,0.14089812,-0.017750842,-0.17231505,0.00667738,-0.07112657,0.06126739,0.021208849,0.025518859,-0.11920147,-0.034843434,0.15403365,-0.058653127,0.023946332,-0.1591197,0.07340774,-0.13393317,-0.025389563,-0.043346737,0.018580105,0.008047186,0.003534356,0.0046213707,-0.17884615,-0.07752473,-0.18292695,0.040020347,0.017158438,-0.089366406,0.02498074,-0.042307917,-0.054838777,-0.056765206,-0.12782359,0.031449832,0.22404765,0.09687253,0.036287352,0.077034935,-0.02551304,-0.00078577886,0.17257029,0.1110551,0.047874577,-0.0013607601,0.04526891,0.13891898,-0.19840719,0.05855698,0.011927629,-0.09326354,0.050446596,-0.10423751,0.024179816,-0.0015754802,0.064685166,0.1198258,0.12377437,0.029746288,-0.006737897,-0.00706743,-0.036502894,0.052542824,-0.058872458,-0.26830116,0.11976744,0.031935625,-0.02392955,0.1058282,-0.028024351,-0.006579516,-0.06231538,-0.18939677
/organization/organization/acquired_by./business/acquisition/acquiring_company	-0.10452411,-0.16487262,-0.16414456,0.06434795,-0.14106907,0.12432342,0.0013231359,-0.15925491,-0.21673281,0.13636966,-0.0002266068,-0.05163118,-0.10081155,-0.014933726,0.17491603,0.021311367,0.1630767,-0.016240172,0.10484946,-0.22301422,0.2082615,-0.23278083,0.08126933,-0.08651797,0.07520453,-0.04655031,-0.010665769,-0.1275113,0.018375916,0.032194484,0.04905909,-0.0025437798,-0.12609406,0.02734213,0.026144506,-0.14204066,0.022289794,-0.088038184,0.0007549233,-0.042995203,0.042235143,-0.06305814,0.08067262,-0.19517934,0.03394063,-0.14094236,-0.062366452,-0.026470058,-0.12889664,-0.08428876,-0.06282775,0.11053749,0.061463,-0.034794774,0.0824422,-0.0699966,-0.07306543,0.00034460088,-0.10879057,0.13716403,0.14301729,-0.03557729,-0.1477967,-0.04611803,0.031796087,-0.03216709,-0.0072606253,0.03839394,0.077058405,-0.00030206263,0.11300529,0.026943306,0.1579274,-0.121483326,-0.12840149,0.08596296,0.08179376,0.098562345,-0.12688197,-0.049202282,0.0072829374,-0.07088375,0.11164108,0.027508646,0.025972981,0.018054843,0.036794547,0.0086916005,-0.1703681,-0.15483493,-0.11817276,0.0022618517,-0.036428586,0.13588527,-0.07341272,0.06347985,-0.123923466,0.116807185,0.021953467,0.058965936
/music/instrument/instrumentalists	0.16714354,0.05526623,0.04032666,-0.09081032,0.06474413,-0.026757032,-0.2450233,0.037800282,0.0071700653,0.04303378,0.15647963,0.13165589,0.014854733,-0.007426091,0.025045225,-0.22338273,0.08559318,-0.090696394,-0.009674064,0.27042842,0.1058121,0.0076670228,-0.15870325,-0.12298513,-0.08781428,-0.15654835,0.082061864,-0.016029201,0.1407213,0.08723472,-0.022097684,0.07459033,0.114830725,0.009042322,-0.044727802,-0.0039422866,-0.0033755824,-0.10810475,-0.049939815,-0.1354445,0.019190496,0.020887684,0.03486597,0.09676438,0.28547478,0.08538643,-0.0633812,0.08092768,-0.093094416,0.11811579,-0.03193334,0.15325272,0.042138804,0.11045767,-0.023680659,0.023981843,-0.028183173,-0.06259266,-0.048374508,0.05032192,0.038063854,0.06255887,0.11654444,-0.059944376,0.0094149485,-0.0028057746,0.09872963,0.07944244,0.01708768,-0.16941296,-0.06443189,-0.10610372,-0.044951264,0.058976054,-0.0047036693,-0.09798794,0.07655919,-0.12504567,0.024611859,0.11062677,-0.18701446,-0.03442859,-0.08631525,0.19084938,0.11781525,0.022482414,-0.022651877,0.061080754,-0.11020099,-0.09403311,-0.007335741,0.29507715,0.016251843,0.08130282,-0.02520321,-0.03943633,-0.10684963,-0.07152436,-0.04091446,-0.023715112
/military/military_combatant/military_conflicts./military/military_combatant_group/conflict	0.0028808308,-0.026183324,-0.11319859,-0.1045676,-0.09501149,-0.1385015,0.15682876,-0.15903354,0.058384106,0.06809946,0.008894974,0.12177358,0.09933498,-0.15881048,-0.11440137,0.17483951,0.08599913,0.024692094,0.07271857,-0.08426888,0.02757896,-0.008962015,0.04726037,-0.27508253,-0.11159014,0.06637226,0.11263564,0.08413801,0.0055483636,0.09844293,-0.12786803,0.038640916,-0.135833,-0.023780212,0.039569817,-0.009294927,0.038658123,-0.059696697,-0.07358211,0.018359428,-0.16096549,0.109839775,0.2451532,-0.013575533,0.022558091,-0.17787366,-0.24943228,0.020541579,0.025422163,0.062237352,-0.119444855,0.041434564,-0.081659704,-0.04143261,0.03884199,-0.017160622,0.06438198,0.05586262,0.096469596,0.07959379,-0.20113972,0.08185931,-0.047065005,0.0024867028,-0.09199387,-0.10451986,-0.022967743,-7.501105e-06,-0.03744752,0.020493485,-0.021498905,0.018250246,-0.07837618,-0.112272434,0.028069794,0.06332233,0.08012981,-0.006005682,-0.13017897,0.25500318,0.018852783,-0.0075108795,-0.11466412,0.113738425,0.08494303,0.055872377,0.030773448,-0.033879805,0.16074659,0.099822424,0.0002385648,-0.07778883,0.15027969,0.009158654,-0.080750346,0.20493205,0.021973073,-0.07820855,-0.12293233,0.08763758
/people/person/education./education/education/institution	-0.034317877,-0.0124427015,-0.1911302,0.060575563,-0.100413255,-0.031091303,-0.004642701,0.0016309895,0.08546502,0.037830777,-0.020558715,-0.026285548,0.0323979,0.06405952,-0.07746426,0.25824037,0.07683991,0.054239765,0.127153,-0.21023,0.0058569834,-0.07927426,0.024166502,-0.10320947,-0.11209679,0.019676182,0.08705717,0.07973027,0.023097323,-0.002951055,-0.04704109,0.026861642,-0.21958216,0.045505773,-0.068010494,-0.020627301,-0.0052924003,0.06682241,0.102830745,-0.077243775,-0.10000649,0.06607309,-0.08710846,0.096572265,-0.06989981,-0.07980099,-0.047016665,0.15592909,0.1213553,-0.12223478,-0.024866536,0.11068176,0.031043302,0.13641095,-0.11821718,0.065049574,-0.03540535,-0.06465426,0.11014506,0.08868401,0.008369722,-0.13282882,-0.09453638,0.030818209,0.07874094,-0.08264381,0.055511456,0.046326675,-0.03405467,0.08401629,-0.016327374,-0.17669646,0.15554266,-0.0581354,0.029769132,0.17118515,-0.08231014,-0.13166758,0.012763163,-0.058682162,-0.16066253,-0.053328015,0.15779366,-0.30766305,0.06414648,-0.001263454,0.20493206,-0.11782521,-0.21440144,-0.18816325,0.048584245,0.08801022,-0.03372246,-0.0053304164,-0.0120781455,0.09574452,0.05994991,0.012565581,0.16135521,0.032377254
/award/award_category/winners./award/award_honor/honored_for	-0.02298417,-0.052116767,0.15605982,0.11525035,0.0051812036,-0.06453841,-0.049238116,-0.12364775,0.034083955,-0.038320076,-0.19246748,-0.05736966,0.07663838,-0.12670967,-0.10898151,0.041816786,-0.13780801,-0.07367096,-0.00031280675,0.02909668,-0.045036413,0.06740495,-0.0977044,0.09462386,0.00080688554,0.06788482,0.011380268,-0.034251727,-0.123900674,-0.012839809,-0.098483816,-0.046499602,-0.12632863,0.041118518,-0.13610686,0.14018498,0.037280135,0.1364694,-0.115345374,-0.0061323615,0.103405096,0.043734863,-0.12337188,0.082902245,0.14143495,0.027226556,-0.049519844,0.04112302,-0.1263529,0.022210056,-0.0077962535,-0.026348848,0.05451349,0.06334815,0.042094905,-0.12893887,0.08889465,-0.07237106,0.016262138,-0.031394444,0.04593662,-0.16606152,-0.057611965,0.09181876,-0.044428583,-0.15896422,-0.15419449,0.23704548,-0.07997774,-0.03335517,-0.09405993,0.12373252,0.13742675,-0.26798463,-0.239415,0.08840958,-0.046681833,0.09810266,-0.02451001,-0.2073452,-0.19499965,-0.0034174293,0.074991815,0.119155794,-0.03188458,-0.042742845,0.1937805,0.004845564,-0.013794124,-0.037781578,0.035393246,-0.00096246134,0.11086906,-0.023328884,0.02750351,0.12816021,0.16156882,-0.007356888,0.18029338,-0.08015316
/people/person/gender	-0.00061979843,-0.0363337,0.14422333,0.038566846,0.025886782,0.0733568,0.039848294,-0.18275864,0.024576433,0.18205921,0.07554516,-0.13126767,-0.04711929,-0.05819794,-0.0301308,0.17265761,-0.10387791,-0.07171253,0.15452754,-0.12624608,-0.046059042,0.16482344,-0.1074419,-0.0034332618,0.19851859,-0.10723619,-0.1409797,0.04527618,-0.15493129,0.12406583,0.1921132,0.04309266,0.02197729,-0.0147812115,-0.0450883,-0.03259493,0.058775112,-0.11412584,-0.04256263,-0.04967166,0.008011163,-0.004399342,0.11523096,-0.05903624,0.16625093,0.0053685396,-0.015698822,-0.055800974,0.084454596,-0.043839693,-0.20218563,0.0452525,-0.050330132,0.08369209,0.06588885,-0.16113982,-0.027299277,0.06048103,-0.04894315,-0.019967364,0.029557578,0.0031495085,0.14017463,-0.13316216,0.021506839,0.021444451,-0.041781355,0.121627815,0.09647552,-0.099929996,-0.0032460145,-0.11477074,-0.09146293,0.07200162,-0.06518009,0.1482913,-0.16966264,-0.026970737,0.07182526,0.03757395,-0.06241872,-0.081281655,0.23479293,0.022225313,-0.24521689,-0.15726385,0.1196867,0.21827573,-0.07820338,-0.028822768,0.08074364,-0.0107965125,0.048368827,-0.027804967,-0.045054875,-0.12714638,0.005561837,-0.058889892,0.12922199,0.12308689
/business/job_title/people_with_this_title./business/employment_tenure/company	-0.16056202,0.13048261,-0.08697376,0.103382386,0.15225106,-0.00012179138,0.068488054,-0.004414561,0.013375493,0.019999411,-0.042542767,-0.0022587592,0.030771371,0.011843595,-0.15429936,-0.016596574,-0.1436996,-0.10999342,-0.06871952,0.04854119,-0.040417805,0.0015257057,0.134078,0.09062985,-0.18036701,0.014670353,0.09016122,0.016130742,-0.085031085,-0.06481613,0.11376628,0.02392452,-0.07971457,-0.028646493,-0.013369631,-0.21999863,-0.15995787,0.078545965,0.15575501,-0.012116945,0.038880423,0.02106098,0.06716819,-0.06891031,-0.12110379,0.10450651,0.103726834,-0.21488707,-0.09799748,0.10813706,0.015348235,-0.06173808,0.024319736,-0.0742787,-0.104781464,-0.020285184,-0.022711832,0.009306136,0.13289122,-0.12338376,-0.17749655,-0.026561173,0.07941782,-0.025325257,-0.07900568,-0.08636572,0.13569692,-0.18201911,0.12922737,-0.09499062,-0.10009098,0.07729167,0.08613789,-0.026403438,-0.24878319,-0.057847816,0.13086644,-0.04912187,0.08347458,-0.052761894,-0.0026922435,-0.028086986,0.024767483,0.012219652,0.096467264,0.07687148,-0.17114472,-0.09734378,-0.023669748,-0.17791854,-0.00020465287,0.11542383,-0.02782462,-0.012239193,0.1675727,-0.07884058,0.08811702,-0.012248557,0.22559683,0.1840054
/base/popstra/celebrity/friendship./base/popstra/friendship/participant	-0.0044381144,0.19227041,-0.072517194,-0.031560455,0.0708672,0.14443383,-0.006725294,0.08356527,0.025863063,-0.07212967,-0.0009829405,0.1310738,-0.115541026,0.16441847,-0.043252934,-0.1117494,0.017490437,-0.030346043,0.1307482,0.04564693,0.07190425,0.051123235,-0.01209534,-0.04776609,0.05900301,-0.10633361,-0.19329342,-0.086859934,0.11599739,0.13799566,0.095390156,-0.04390067,-0.12343977,-0.07188893,-0.013164079,0.083633944,0.0016550692,-0.27825397,-0.048780885,-0.050055336,0.13903573,0.03052842,-0.17249554,-0.15999769,-0.008261113,-0.123877905,-0.05624257,-0.013546008,0.042485777,-0.015596697,0.09561214,0.08361609,0.1121592,-0.020213243,0.1328322,0.09715177,-0.0028359655,-0.16536774,0.013291204,-0.028164627,0.095399186,-0.108318366,0.058791243,-0.061160184,0.14327441,-0.083027065,-0.058930255,-0.059458137,-0.07758571,0.08924463,-0.024490118,0.10102804,-0.0177169,0.03375462,-0.028685385,-0.18073678,0.01879356,-0.07420313,0.04078034,0.12833187,-0.09558892,-0.044461317,0.19731575,0.10918902,0.21093166,0.046387333,-0.06918299,-0.16910553,-0.2160116,0.00126972,-0.078444585,-0.05588576,-0.010501914,0.16094062,-0.035990067,0.15984555,-0.041785166,0.0031219851,0.16573428,0.08740459
/fictional_universe/fictional_character/occupation	0.0483736,-0.013087702,-0.086229816,0.09984541,-0.25488308,0.11927896,0.059085056,0.08930711,0.043088034,-0.094702214,-0.07438485,-0.027154652,0.067179814,-0.0008544515,-0.013484202,0.17652734,0.019835431,0.07027383,-0.028606426,0.03008593,-0.0038214072,-0.031620454,0.07619151,-0.13748857,-0.04471501,-0.04695955,0.03700575,-0.106803715,-0.07763224,-0.16932067,-0.03274876,-0.06816528,-0.10051568,0.09222589,-0.0017907891,0.047916908,0.07384243,0.05703689,0.12715524,-0.037582796,-0.1921721,0.02098455,0.023440078,0.060623903,-0.047913134,0.0056892144,-0.07174512,-0.0031209085,0.12627204,-0.122184426,-0.097611345,0.08150999,-0.0405802,0.030963281,-0.18527503,-0.009604773,0.15215385,0.23732866,0.08077206,-0.11510171,0.16083018,0.14556159,-0.28663746,-0.18203866,-0.042357832,0.13167337,0.10293487,0.0813292,-0.12677266,0.23069444,-0.09590589,-0.044787306,0.017314741,-0.036146756,0.09779335,0.028988201,0.007922841,-0.008588943,0.009133671,0.17935963,-0.09232864,0.100252815,0.024412984,-0.06284569,0.028476285,0.012615501,0.030649604,-0.06314104,-0.03268001,0.015147179,0.078147486,-0.08220287,0.04647476,0.06564878,0.012326876,0.023864761,-0.26974326,0.095932,0.08887949,0.053648032
/education/field_of_study/students_majoring./education/education/institution	0.09732112,0.04123486,0.1772253,-0.0757495,-0.0058292197,0.21355265,-0.15532066,-0.009006029,0.033911314,-0.19483136,0.051309757,-0.09910241,-0.052313764,-0.16424994,0.058094155,-0.05626103,0.076686375,0.11596728,-0.038943578,0.06406655,0.002021656,0.05377655,0.0889108,-0.18052499,0.1014989,-0.07740918,-0.11370714,0.11598665,0.037032682,-0.031537835,-0.0010703083,-0.14089197,-0.04069886,0.025103284,-0.04386088,-0.024350597,0.1798129,0.25020608,-0.03015607,0.040323656,-0.02022992,0.1164631,0.07002577,0.14302196,0.0066887145,0.10035269,-0.10897088,0.13141617,-0.026903788,-0.10398176,0.1284122,0.10176458,-0.10442395,0.046869714,0.20693009,0.008552018,0.06664004,0.18127413,-0.09711097,-0.03331364,-0.009783405,0.087735265,-0.0026400797,0.005129081,-0.05378605,-0.18302146,0.01666091,0.021644369,0.062775545,-0.03828816,-0.084979706,0.20701075,0.05872644,-0.06906533,0.057993043,0.110694,0.07848913,0.20946087,0.10134516,0.16931306,-0.018504487,0.027826224,-0.16433042,0.121716075,0.0027614664,-0.13893116,0.0880362,-0.07208838,-0.05508329,-0.11030972,0.056799576,-0.037616845,-0.14493798,-0.029133666,-0.0021487444,-0.05757752,-0.07685677,-0.053725466,0.045784406,-0.05430944
/business/business_operation/industry	0.059009463,0.008510592,-0.005631756,0.124898255,0.0012466005,0.07263703,-0.03378264,0.045098137,0.02438806,0.03734607,0.17144941,-0.019792609,0.009359301,0.07343734,0.2617868,0.08361855,-0.042603724,-0.16859575,-0.020396419,0.0034959137,0.063268594,-0.04735745,-0.1024749,-0.041063398,-0.0066688797,-0.034989923,-0.10528126,-0.16658244,-0.00038159988,-0.055647574,0.08292802,0.09365356,-0.0052934894,0.1927765,-0.08439908,-0.0029225284,0.026970882,0.018343005,-0.2952353,0.20330532,0.055398148,-0.034169458,-0.012123964,-0.125303,-0.10751189,-0.09631211,-0.0685084,0.1151626,-0.10381102,-0.0046057855,-0.024208307,0.01673812,-0.079891555,0.07487865,-0.15101098,-0.0063473983,-0.12456088,0.038893178,-0.04283626,-0.014106302,0.13408135,-0.06171673,-0.023358505,0.030918939,0.14319359,0.083306864,-0.124284886,-0.14014103,-0.037314545,-0.076708555,-0.05717222,-0.020158017,-0.016918771,-0.075275615,-0.052175395,0.20507355,0.015131274,0.042814095,0.16005675,0.0038021165,-0.0813143,0.2657667,-0.2012239,0.14654276,0.019724322,-0.11110439,0.070893995,0.16116175,0.05965449,0.006770896,0.12138067,-0.07300812,-0.002930773,-0.16160525,-0.09421423,-0.09670865,-0.105276264,0.060015693,0.088668585,0.07871576
